FANN_FLO_2.1
num_layers=3
learning_rate=0.700000
connection_rate=1.000000
network_type=0
learning_momentum=0.000000
training_algorithm=1
train_error_function=0
train_stop_function=0
cascade_output_change_fraction=0.010000
quickprop_decay=-0.000100
quickprop_mu=1.750000
rprop_increase_factor=1.200000
rprop_decrease_factor=0.500000
rprop_delta_min=0.000000
rprop_delta_max=50.000000
rprop_delta_zero=0.100000
cascade_output_stagnation_epochs=12
cascade_candidate_change_fraction=0.010000
cascade_candidate_stagnation_epochs=12
cascade_max_out_epochs=150
cascade_min_out_epochs=50
cascade_max_cand_epochs=150
cascade_min_cand_epochs=50
cascade_num_candidate_groups=2
bit_fail_limit=3.49999994039535520000e-001
cascade_candidate_limit=1.00000000000000000000e+003
cascade_weight_multiplier=4.00000005960464480000e-001
cascade_activation_functions_count=10
cascade_activation_functions=3 5 7 8 10 11 14 15 16 17 
cascade_activation_steepnesses_count=4
cascade_activation_steepnesses=2.50000000000000000000e-001 5.00000000000000000000e-001 7.50000000000000000000e-001 1.00000000000000000000e+000 
layer_sizes=257 81 96 
scale_included=0
neurons (num_inputs, activation_function, activation_steepness)=(0, 0, 0.00000000000000000000e+000) (0, 0, 0.00000000000000000000e+000) (0, 0, 0.00000000000000000000e+000) (0, 0, 0.00000000000000000000e+000) (0, 0, 0.00000000000000000000e+000) (0, 0, 0.00000000000000000000e+000) (0, 0, 0.00000000000000000000e+000) (0, 0, 0.00000000000000000000e+000) (0, 0, 0.00000000000000000000e+000) (0, 0, 0.00000000000000000000e+000) (0, 0, 0.00000000000000000000e+000) (0, 0, 0.00000000000000000000e+000) (0, 0, 0.00000000000000000000e+000) (0, 0, 0.00000000000000000000e+000) (0, 0, 0.00000000000000000000e+000) (0, 0, 0.00000000000000000000e+000) (0, 0, 0.00000000000000000000e+000) (0, 0, 0.00000000000000000000e+000) (0, 0, 0.00000000000000000000e+000) (0, 0, 0.00000000000000000000e+000) (0, 0, 0.00000000000000000000e+000) (0, 0, 0.00000000000000000000e+000) (0, 0, 0.00000000000000000000e+000) (0, 0, 0.00000000000000000000e+000) (0, 0, 0.00000000000000000000e+000) (0, 0, 0.00000000000000000000e+000) (0, 0, 0.00000000000000000000e+000) (0, 0, 0.00000000000000000000e+000) (0, 0, 0.00000000000000000000e+000) (0, 0, 0.00000000000000000000e+000) (0, 0, 0.00000000000000000000e+000) (0, 0, 0.00000000000000000000e+000) (0, 0, 0.00000000000000000000e+000) (0, 0, 0.00000000000000000000e+000) (0, 0, 0.00000000000000000000e+000) (0, 0, 0.00000000000000000000e+000) (0, 0, 0.00000000000000000000e+000) (0, 0, 0.00000000000000000000e+000) (0, 0, 0.00000000000000000000e+000) (0, 0, 0.00000000000000000000e+000) (0, 0, 0.00000000000000000000e+000) (0, 0, 0.00000000000000000000e+000) (0, 0, 0.00000000000000000000e+000) (0, 0, 0.00000000000000000000e+000) (0, 0, 0.00000000000000000000e+000) (0, 0, 0.00000000000000000000e+000) (0, 0, 0.00000000000000000000e+000) (0, 0, 0.00000000000000000000e+000) (0, 0, 0.00000000000000000000e+000) (0, 0, 0.00000000000000000000e+000) (0, 0, 0.00000000000000000000e+000) (0, 0, 0.00000000000000000000e+000) (0, 0, 0.00000000000000000000e+000) (0, 0, 0.00000000000000000000e+000) (0, 0, 0.00000000000000000000e+000) (0, 0, 0.00000000000000000000e+000) (0, 0, 0.00000000000000000000e+000) (0, 0, 0.00000000000000000000e+000) (0, 0, 0.00000000000000000000e+000) (0, 0, 0.00000000000000000000e+000) (0, 0, 0.00000000000000000000e+000) (0, 0, 0.00000000000000000000e+000) (0, 0, 0.00000000000000000000e+000) (0, 0, 0.00000000000000000000e+000) (0, 0, 0.00000000000000000000e+000) (0, 0, 0.00000000000000000000e+000) (0, 0, 0.00000000000000000000e+000) (0, 0, 0.00000000000000000000e+000) (0, 0, 0.00000000000000000000e+000) (0, 0, 0.00000000000000000000e+000) (0, 0, 0.00000000000000000000e+000) (0, 0, 0.00000000000000000000e+000) (0, 0, 0.00000000000000000000e+000) (0, 0, 0.00000000000000000000e+000) (0, 0, 0.00000000000000000000e+000) (0, 0, 0.00000000000000000000e+000) (0, 0, 0.00000000000000000000e+000) (0, 0, 0.00000000000000000000e+000) (0, 0, 0.00000000000000000000e+000) (0, 0, 0.00000000000000000000e+000) (0, 0, 0.00000000000000000000e+000) (0, 0, 0.00000000000000000000e+000) (0, 0, 0.00000000000000000000e+000) (0, 0, 0.00000000000000000000e+000) (0, 0, 0.00000000000000000000e+000) (0, 0, 0.00000000000000000000e+000) (0, 0, 0.00000000000000000000e+000) (0, 0, 0.00000000000000000000e+000) (0, 0, 0.00000000000000000000e+000) (0, 0, 0.00000000000000000000e+000) (0, 0, 0.00000000000000000000e+000) (0, 0, 0.00000000000000000000e+000) (0, 0, 0.00000000000000000000e+000) (0, 0, 0.00000000000000000000e+000) (0, 0, 0.00000000000000000000e+000) (0, 0, 0.00000000000000000000e+000) (0, 0, 0.00000000000000000000e+000) (0, 0, 0.00000000000000000000e+000) (0, 0, 0.00000000000000000000e+000) (0, 0, 0.00000000000000000000e+000) (0, 0, 0.00000000000000000000e+000) (0, 0, 0.00000000000000000000e+000) (0, 0, 0.00000000000000000000e+000) (0, 0, 0.00000000000000000000e+000) (0, 0, 0.00000000000000000000e+000) (0, 0, 0.00000000000000000000e+000) (0, 0, 0.00000000000000000000e+000) (0, 0, 0.00000000000000000000e+000) (0, 0, 0.00000000000000000000e+000) (0, 0, 0.00000000000000000000e+000) (0, 0, 0.00000000000000000000e+000) (0, 0, 0.00000000000000000000e+000) (0, 0, 0.00000000000000000000e+000) (0, 0, 0.00000000000000000000e+000) (0, 0, 0.00000000000000000000e+000) (0, 0, 0.00000000000000000000e+000) (0, 0, 0.00000000000000000000e+000) (0, 0, 0.00000000000000000000e+000) (0, 0, 0.00000000000000000000e+000) (0, 0, 0.00000000000000000000e+000) (0, 0, 0.00000000000000000000e+000) (0, 0, 0.00000000000000000000e+000) (0, 0, 0.00000000000000000000e+000) (0, 0, 0.00000000000000000000e+000) (0, 0, 0.00000000000000000000e+000) (0, 0, 0.00000000000000000000e+000) (0, 0, 0.00000000000000000000e+000) (0, 0, 0.00000000000000000000e+000) (0, 0, 0.00000000000000000000e+000) (0, 0, 0.00000000000000000000e+000) (0, 0, 0.00000000000000000000e+000) (0, 0, 0.00000000000000000000e+000) (0, 0, 0.00000000000000000000e+000) (0, 0, 0.00000000000000000000e+000) (0, 0, 0.00000000000000000000e+000) (0, 0, 0.00000000000000000000e+000) (0, 0, 0.00000000000000000000e+000) (0, 0, 0.00000000000000000000e+000) (0, 0, 0.00000000000000000000e+000) (0, 0, 0.00000000000000000000e+000) (0, 0, 0.00000000000000000000e+000) (0, 0, 0.00000000000000000000e+000) (0, 0, 0.00000000000000000000e+000) (0, 0, 0.00000000000000000000e+000) (0, 0, 0.00000000000000000000e+000) (0, 0, 0.00000000000000000000e+000) (0, 0, 0.00000000000000000000e+000) (0, 0, 0.00000000000000000000e+000) (0, 0, 0.00000000000000000000e+000) (0, 0, 0.00000000000000000000e+000) (0, 0, 0.00000000000000000000e+000) (0, 0, 0.00000000000000000000e+000) (0, 0, 0.00000000000000000000e+000) (0, 0, 0.00000000000000000000e+000) (0, 0, 0.00000000000000000000e+000) (0, 0, 0.00000000000000000000e+000) (0, 0, 0.00000000000000000000e+000) (0, 0, 0.00000000000000000000e+000) (0, 0, 0.00000000000000000000e+000) (0, 0, 0.00000000000000000000e+000) (0, 0, 0.00000000000000000000e+000) (0, 0, 0.00000000000000000000e+000) (0, 0, 0.00000000000000000000e+000) (0, 0, 0.00000000000000000000e+000) (0, 0, 0.00000000000000000000e+000) (0, 0, 0.00000000000000000000e+000) (0, 0, 0.00000000000000000000e+000) (0, 0, 0.00000000000000000000e+000) (0, 0, 0.00000000000000000000e+000) (0, 0, 0.00000000000000000000e+000) (0, 0, 0.00000000000000000000e+000) (0, 0, 0.00000000000000000000e+000) (0, 0, 0.00000000000000000000e+000) (0, 0, 0.00000000000000000000e+000) (0, 0, 0.00000000000000000000e+000) (0, 0, 0.00000000000000000000e+000) (0, 0, 0.00000000000000000000e+000) (0, 0, 0.00000000000000000000e+000) (0, 0, 0.00000000000000000000e+000) (0, 0, 0.00000000000000000000e+000) (0, 0, 0.00000000000000000000e+000) (0, 0, 0.00000000000000000000e+000) (0, 0, 0.00000000000000000000e+000) (0, 0, 0.00000000000000000000e+000) (0, 0, 0.00000000000000000000e+000) (0, 0, 0.00000000000000000000e+000) (0, 0, 0.00000000000000000000e+000) (0, 0, 0.00000000000000000000e+000) (0, 0, 0.00000000000000000000e+000) (0, 0, 0.00000000000000000000e+000) (0, 0, 0.00000000000000000000e+000) (0, 0, 0.00000000000000000000e+000) (0, 0, 0.00000000000000000000e+000) (0, 0, 0.00000000000000000000e+000) (0, 0, 0.00000000000000000000e+000) (0, 0, 0.00000000000000000000e+000) (0, 0, 0.00000000000000000000e+000) (0, 0, 0.00000000000000000000e+000) (0, 0, 0.00000000000000000000e+000) (0, 0, 0.00000000000000000000e+000) (0, 0, 0.00000000000000000000e+000) (0, 0, 0.00000000000000000000e+000) (0, 0, 0.00000000000000000000e+000) (0, 0, 0.00000000000000000000e+000) (0, 0, 0.00000000000000000000e+000) (0, 0, 0.00000000000000000000e+000) (0, 0, 0.00000000000000000000e+000) (0, 0, 0.00000000000000000000e+000) (0, 0, 0.00000000000000000000e+000) (0, 0, 0.00000000000000000000e+000) (0, 0, 0.00000000000000000000e+000) (0, 0, 0.00000000000000000000e+000) (0, 0, 0.00000000000000000000e+000) (0, 0, 0.00000000000000000000e+000) (0, 0, 0.00000000000000000000e+000) (0, 0, 0.00000000000000000000e+000) (0, 0, 0.00000000000000000000e+000) (0, 0, 0.00000000000000000000e+000) (0, 0, 0.00000000000000000000e+000) (0, 0, 0.00000000000000000000e+000) (0, 0, 0.00000000000000000000e+000) (0, 0, 0.00000000000000000000e+000) (0, 0, 0.00000000000000000000e+000) (0, 0, 0.00000000000000000000e+000) (0, 0, 0.00000000000000000000e+000) (0, 0, 0.00000000000000000000e+000) (0, 0, 0.00000000000000000000e+000) (0, 0, 0.00000000000000000000e+000) (0, 0, 0.00000000000000000000e+000) (0, 0, 0.00000000000000000000e+000) (0, 0, 0.00000000000000000000e+000) (0, 0, 0.00000000000000000000e+000) (0, 0, 0.00000000000000000000e+000) (0, 0, 0.00000000000000000000e+000) (0, 0, 0.00000000000000000000e+000) (0, 0, 0.00000000000000000000e+000) (0, 0, 0.00000000000000000000e+000) (0, 0, 0.00000000000000000000e+000) (0, 0, 0.00000000000000000000e+000) (0, 0, 0.00000000000000000000e+000) (0, 0, 0.00000000000000000000e+000) (0, 0, 0.00000000000000000000e+000) (0, 0, 0.00000000000000000000e+000) (0, 0, 0.00000000000000000000e+000) (0, 0, 0.00000000000000000000e+000) (0, 0, 0.00000000000000000000e+000) (0, 0, 0.00000000000000000000e+000) (0, 0, 0.00000000000000000000e+000) (0, 0, 0.00000000000000000000e+000) (0, 0, 0.00000000000000000000e+000) (0, 0, 0.00000000000000000000e+000) (0, 0, 0.00000000000000000000e+000) (0, 0, 0.00000000000000000000e+000) (0, 0, 0.00000000000000000000e+000) (0, 0, 0.00000000000000000000e+000) (0, 0, 0.00000000000000000000e+000) (0, 0, 0.00000000000000000000e+000) (257, 10, 5.00000000000000000000e-001) (257, 10, 5.00000000000000000000e-001) (257, 10, 5.00000000000000000000e-001) (257, 10, 5.00000000000000000000e-001) (257, 10, 5.00000000000000000000e-001) (257, 10, 5.00000000000000000000e-001) (257, 10, 5.00000000000000000000e-001) (257, 10, 5.00000000000000000000e-001) (257, 10, 5.00000000000000000000e-001) (257, 10, 5.00000000000000000000e-001) (257, 10, 5.00000000000000000000e-001) (257, 10, 5.00000000000000000000e-001) (257, 10, 5.00000000000000000000e-001) (257, 10, 5.00000000000000000000e-001) (257, 10, 5.00000000000000000000e-001) (257, 10, 5.00000000000000000000e-001) (257, 10, 5.00000000000000000000e-001) (257, 10, 5.00000000000000000000e-001) (257, 10, 5.00000000000000000000e-001) (257, 10, 5.00000000000000000000e-001) (257, 10, 5.00000000000000000000e-001) (257, 10, 5.00000000000000000000e-001) (257, 10, 5.00000000000000000000e-001) (257, 10, 5.00000000000000000000e-001) (257, 10, 5.00000000000000000000e-001) (257, 10, 5.00000000000000000000e-001) (257, 10, 5.00000000000000000000e-001) (257, 10, 5.00000000000000000000e-001) (257, 10, 5.00000000000000000000e-001) (257, 10, 5.00000000000000000000e-001) (257, 10, 5.00000000000000000000e-001) (257, 10, 5.00000000000000000000e-001) (257, 10, 5.00000000000000000000e-001) (257, 10, 5.00000000000000000000e-001) (257, 10, 5.00000000000000000000e-001) (257, 10, 5.00000000000000000000e-001) (257, 10, 5.00000000000000000000e-001) (257, 10, 5.00000000000000000000e-001) (257, 10, 5.00000000000000000000e-001) (257, 10, 5.00000000000000000000e-001) (257, 10, 5.00000000000000000000e-001) (257, 10, 5.00000000000000000000e-001) (257, 10, 5.00000000000000000000e-001) (257, 10, 5.00000000000000000000e-001) (257, 10, 5.00000000000000000000e-001) (257, 10, 5.00000000000000000000e-001) (257, 10, 5.00000000000000000000e-001) (257, 10, 5.00000000000000000000e-001) (257, 10, 5.00000000000000000000e-001) (257, 10, 5.00000000000000000000e-001) (257, 10, 5.00000000000000000000e-001) (257, 10, 5.00000000000000000000e-001) (257, 10, 5.00000000000000000000e-001) (257, 10, 5.00000000000000000000e-001) (257, 10, 5.00000000000000000000e-001) (257, 10, 5.00000000000000000000e-001) (257, 10, 5.00000000000000000000e-001) (257, 10, 5.00000000000000000000e-001) (257, 10, 5.00000000000000000000e-001) (257, 10, 5.00000000000000000000e-001) (257, 10, 5.00000000000000000000e-001) (257, 10, 5.00000000000000000000e-001) (257, 10, 5.00000000000000000000e-001) (257, 10, 5.00000000000000000000e-001) (257, 10, 5.00000000000000000000e-001) (257, 10, 5.00000000000000000000e-001) (257, 10, 5.00000000000000000000e-001) (257, 10, 5.00000000000000000000e-001) (257, 10, 5.00000000000000000000e-001) (257, 10, 5.00000000000000000000e-001) (257, 10, 5.00000000000000000000e-001) (257, 10, 5.00000000000000000000e-001) (257, 10, 5.00000000000000000000e-001) (257, 10, 5.00000000000000000000e-001) (257, 10, 5.00000000000000000000e-001) (257, 10, 5.00000000000000000000e-001) (257, 10, 5.00000000000000000000e-001) (257, 10, 5.00000000000000000000e-001) (257, 10, 5.00000000000000000000e-001) (257, 10, 5.00000000000000000000e-001) (0, 10, 5.00000000000000000000e-001) (81, 5, 5.00000000000000000000e-001) (81, 5, 5.00000000000000000000e-001) (81, 5, 5.00000000000000000000e-001) (81, 5, 5.00000000000000000000e-001) (81, 5, 5.00000000000000000000e-001) (81, 5, 5.00000000000000000000e-001) (81, 5, 5.00000000000000000000e-001) (81, 5, 5.00000000000000000000e-001) (81, 5, 5.00000000000000000000e-001) (81, 5, 5.00000000000000000000e-001) (81, 5, 5.00000000000000000000e-001) (81, 5, 5.00000000000000000000e-001) (81, 5, 5.00000000000000000000e-001) (81, 5, 5.00000000000000000000e-001) (81, 5, 5.00000000000000000000e-001) (81, 5, 5.00000000000000000000e-001) (81, 5, 5.00000000000000000000e-001) (81, 5, 5.00000000000000000000e-001) (81, 5, 5.00000000000000000000e-001) (81, 5, 5.00000000000000000000e-001) (81, 5, 5.00000000000000000000e-001) (81, 5, 5.00000000000000000000e-001) (81, 5, 5.00000000000000000000e-001) (81, 5, 5.00000000000000000000e-001) (81, 5, 5.00000000000000000000e-001) (81, 5, 5.00000000000000000000e-001) (81, 5, 5.00000000000000000000e-001) (81, 5, 5.00000000000000000000e-001) (81, 5, 5.00000000000000000000e-001) (81, 5, 5.00000000000000000000e-001) (81, 5, 5.00000000000000000000e-001) (81, 5, 5.00000000000000000000e-001) (81, 5, 5.00000000000000000000e-001) (81, 5, 5.00000000000000000000e-001) (81, 5, 5.00000000000000000000e-001) (81, 5, 5.00000000000000000000e-001) (81, 5, 5.00000000000000000000e-001) (81, 5, 5.00000000000000000000e-001) (81, 5, 5.00000000000000000000e-001) (81, 5, 5.00000000000000000000e-001) (81, 5, 5.00000000000000000000e-001) (81, 5, 5.00000000000000000000e-001) (81, 5, 5.00000000000000000000e-001) (81, 5, 5.00000000000000000000e-001) (81, 5, 5.00000000000000000000e-001) (81, 5, 5.00000000000000000000e-001) (81, 5, 5.00000000000000000000e-001) (81, 5, 5.00000000000000000000e-001) (81, 5, 5.00000000000000000000e-001) (81, 5, 5.00000000000000000000e-001) (81, 5, 5.00000000000000000000e-001) (81, 5, 5.00000000000000000000e-001) (81, 5, 5.00000000000000000000e-001) (81, 5, 5.00000000000000000000e-001) (81, 5, 5.00000000000000000000e-001) (81, 5, 5.00000000000000000000e-001) (81, 5, 5.00000000000000000000e-001) (81, 5, 5.00000000000000000000e-001) (81, 5, 5.00000000000000000000e-001) (81, 5, 5.00000000000000000000e-001) (81, 5, 5.00000000000000000000e-001) (81, 5, 5.00000000000000000000e-001) (81, 5, 5.00000000000000000000e-001) (81, 5, 5.00000000000000000000e-001) (81, 5, 5.00000000000000000000e-001) (81, 5, 5.00000000000000000000e-001) (81, 5, 5.00000000000000000000e-001) (81, 5, 5.00000000000000000000e-001) (81, 5, 5.00000000000000000000e-001) (81, 5, 5.00000000000000000000e-001) (81, 5, 5.00000000000000000000e-001) (81, 5, 5.00000000000000000000e-001) (81, 5, 5.00000000000000000000e-001) (81, 5, 5.00000000000000000000e-001) (81, 5, 5.00000000000000000000e-001) (81, 5, 5.00000000000000000000e-001) (81, 5, 5.00000000000000000000e-001) (81, 5, 5.00000000000000000000e-001) (81, 5, 5.00000000000000000000e-001) (81, 5, 5.00000000000000000000e-001) (81, 5, 5.00000000000000000000e-001) (81, 5, 5.00000000000000000000e-001) (81, 5, 5.00000000000000000000e-001) (81, 5, 5.00000000000000000000e-001) (81, 5, 5.00000000000000000000e-001) (81, 5, 5.00000000000000000000e-001) (81, 5, 5.00000000000000000000e-001) (81, 5, 5.00000000000000000000e-001) (81, 5, 5.00000000000000000000e-001) (81, 5, 5.00000000000000000000e-001) (81, 5, 5.00000000000000000000e-001) (81, 5, 5.00000000000000000000e-001) (81, 5, 5.00000000000000000000e-001) (81, 5, 5.00000000000000000000e-001) (81, 5, 5.00000000000000000000e-001) (0, 5, 5.00000000000000000000e-001) 
connections (connected_to_neuron, weight)=(0, -4.28121715784072880000e-001) (1, 3.58023375272750850000e-001) (2, 2.19822019338607790000e-001) (3, 4.53474879264831540000e-001) (4, 2.43093565106391910000e-001) (5, -7.31722295284271240000e-001) (6, -3.11936736106872560000e-001) (7, -2.40975528955459590000e-001) (8, -3.91577243804931640000e-001) (9, 4.85326610505580900000e-002) (10, 5.10966964066028590000e-002) (11, 3.16253453493118290000e-001) (12, 4.31147851049900050000e-002) (13, 1.91757455468177800000e-001) (14, 3.91308277845382690000e-001) (15, -1.99142575263977050000e-001) (16, -3.50665152072906490000e-001) (17, -8.03835093975067140000e-001) (18, -1.69027641415596010000e-001) (19, 1.72675713896751400000e-001) (20, 9.75703224539756770000e-002) (21, 3.48053127527236940000e-001) (22, -6.63633584976196290000e-001) (23, 8.05093497037887570000e-002) (24, 4.59543585777282710000e-001) (25, -5.38066804409027100000e-001) (26, 2.33251452445983890000e-001) (27, 2.40903705358505250000e-001) (28, -3.47379088401794430000e-001) (29, -2.26749926805496220000e-001) (30, 2.91483104228973390000e-001) (31, 1.55750542879104610000e-001) (32, 5.55642127990722660000e-001) (33, 7.17457890510559080000e-001) (34, 2.69345015287399290000e-001) (35, -3.27439665794372560000e-001) (36, -5.43562136590480800000e-002) (37, 3.72809916734695430000e-001) (38, -6.51021659374237060000e-001) (39, -6.13912999629974370000e-001) (40, 5.42912408709526060000e-002) (41, 8.79352688789367680000e-002) (42, 3.01266193389892580000e-001) (43, -9.03582155704498290000e-001) (44, 9.42640304565429690000e-002) (45, 1.39106839895248410000e-001) (46, -3.46860289573669430000e-001) (47, -5.13593554496765140000e-001) (48, -4.68073159456253050000e-001) (49, 1.90021976828575130000e-001) (50, 2.45550021529197690000e-001) (51, -2.86998629570007320000e-001) (52, 1.87183946371078490000e-001) (53, 5.19165515899658200000e-001) (54, -9.09026805311441420000e-003) (55, -2.81901568174362180000e-001) (56, 9.04428511857986450000e-002) (57, 6.37289881706237790000e-001) (58, -2.70032882690429690000e-001) (59, 4.54060286283493040000e-002) (60, -8.31903070211410520000e-002) (61, -1.81691627949476240000e-002) (62, 4.23074334859848020000e-001) (63, 6.87127232551574710000e-001) (64, 5.44210672378540040000e-002) (65, -1.37894853949546810000e-001) (66, -6.52794241905212400000e-001) (67, 1.75304651260375980000e-001) (68, -2.03818321228027340000e-001) (69, -4.86127287149429320000e-001) (70, -2.77878999710083010000e-001) (71, 2.72380888462066650000e-001) (72, -3.39017987251281740000e-001) (73, 9.76820886135101320000e-002) (74, 5.71573197841644290000e-001) (75, -6.55857801437377930000e-001) (76, -1.44433528184890750000e-001) (77, -2.32002094388008120000e-001) (78, -5.61436951160430910000e-001) (79, -5.05250275135040280000e-001) (80, -5.45880123972892760000e-002) (81, 2.80677229166030880000e-001) (82, 3.55584889650344850000e-001) (83, 4.90701287984848020000e-001) (84, -3.20497900247573850000e-001) (85, 5.87099194526672360000e-001) (86, 4.63572621345520020000e-001) (87, 1.77801430225372310000e-001) (88, -2.52897322177886960000e-001) (89, -1.97985455393791200000e-001) (90, -4.71750050783157350000e-001) (91, -3.54326814413070680000e-002) (92, 2.56265282630920410000e-001) (93, 2.49263510107994080000e-001) (94, 7.30307102203369140000e-001) (95, 1.25501364469528200000e-001) (96, 3.22128117084503170000e-001) (97, -3.44749659299850460000e-001) (98, 8.07907953858375550000e-002) (99, -6.61619484424591060000e-001) (100, -3.24045151472091670000e-001) (101, -5.78787088394165040000e-001) (102, 2.54281699657440190000e-001) (103, 2.79630601406097410000e-001) (104, -1.05255626142024990000e-001) (105, 5.67521154880523680000e-001) (106, -1.73652395606040950000e-001) (107, -3.28095376491546630000e-001) (108, 2.30898559093475340000e-001) (109, 1.89186230301856990000e-001) (110, 3.01668252795934680000e-002) (111, -1.00138947367668150000e-001) (112, 6.36085271835327150000e-002) (113, 2.31296151876449580000e-001) (114, 5.93645811080932620000e-001) (115, -4.67979192733764650000e-001) (116, 2.86438196897506710000e-001) (117, -4.68671053647995000000e-001) (118, 4.00085330009460450000e-001) (119, -5.29771983623504640000e-001) (120, -2.88826137781143190000e-001) (121, -2.49872028827667240000e-001) (122, -1.62255376577377320000e-001) (123, 1.93132817745208740000e-001) (124, -5.84040641784667970000e-001) (125, -4.88550215959548950000e-001) (126, 6.30090117454528810000e-001) (127, 2.42782473564147950000e-001) (128, 8.60686823725700380000e-002) (129, -2.36919403076171880000e-001) (130, -7.70097315311431880000e-001) (131, -2.54737377166748050000e-001) (132, -1.23505339026451110000e-001) (133, -1.30870873108506200000e-002) (134, 3.35872590541839600000e-001) (135, 1.50410652160644530000e-001) (136, 3.52554172277450560000e-001) (137, -1.13368541002273560000e-001) (138, -2.18633010983467100000e-001) (139, -4.57057774066925050000e-001) (140, 3.50401066243648530000e-002) (141, -5.16184508800506590000e-001) (142, -3.01287263631820680000e-001) (143, -2.47850880026817320000e-001) (144, -1.35655177291482690000e-003) (145, -2.51805603504180910000e-001) (146, -3.25149178504943850000e-001) (147, 2.90812075138092040000e-001) (148, 8.89981865882873540000e-001) (149, -7.30080842971801760000e-001) (150, 1.65215898305177690000e-002) (151, 3.31285476684570310000e-001) (152, -8.19846332073211670000e-001) (153, -1.18706837296485900000e-001) (154, 9.04775500297546390000e-001) (155, 1.24952541664242740000e-002) (156, 6.03475630283355710000e-001) (157, 1.34263813495635990000e-001) (158, -6.96083545684814450000e-001) (159, 1.72883272171020510000e-002) (160, -6.94694161415100100000e-001) (161, 2.53081500530242920000e-001) (162, -1.17015230655670170000e+000) (163, 1.83549255132675170000e-001) (164, -6.15628302097320560000e-001) (165, 5.16322851181030270000e-001) (166, -6.45395696163177490000e-001) (167, -1.61328513058833780000e-004) (168, 1.54401613399386410000e-002) (169, 3.61363321542739870000e-001) (170, -1.41446832567453380000e-002) (171, 8.79302322864532470000e-001) (172, -8.49997639656066890000e-001) (173, 8.05125415325164790000e-001) (174, -5.06045401096343990000e-001) (175, 1.07948333024978640000e-001) (176, 2.54841595888137820000e-001) (177, -7.25040957331657410000e-002) (178, 3.78281980752944950000e-001) (179, 1.79689973592758180000e-001) (180, 2.32689887285232540000e-001) (181, -4.09485399723052980000e-003) (182, 6.29012286663055420000e-002) (183, -2.15115472674369810000e-001) (184, 7.53743052482604980000e-001) (185, -1.12367257475852970000e-001) (186, 2.13836818933486940000e-001) (187, -2.31245443224906920000e-001) (188, 2.21294447779655460000e-001) (189, -4.50380235910415650000e-001) (190, 5.29428064823150630000e-001) (191, -7.00847730040550230000e-002) (192, 2.90066421031951900000e-001) (193, -2.48296856880187990000e-001) (194, 2.79956519603729250000e-001) (195, -4.60139423608779910000e-001) (196, 4.31880176067352290000e-001) (197, -4.90403890609741210000e-001) (198, 4.63706880807876590000e-001) (199, -4.26531583070755000000e-001) (200, -5.31672000885009770000e-001) (201, 5.74715197086334230000e-001) (202, 9.80585739016532900000e-002) (203, 5.57889997959136960000e-001) (204, 1.11995078623294830000e-001) (205, -1.81344136595726010000e-001) (206, -5.23235797882080080000e-001) (207, 3.64247784018516540000e-002) (208, -4.69958722591400150000e-001) (209, 1.81162938475608830000e-001) (210, -2.33900576829910280000e-001) (211, 1.66474834084510800000e-001) (212, -2.27534756064414980000e-001) (213, 1.68870538473129270000e-001) (214, 1.02893039584159850000e-001) (215, 4.73770126700401310000e-002) (216, -4.86539974808692930000e-002) (217, 1.14534623920917510000e-001) (218, -2.04866006970405580000e-001) (219, -4.99305188655853270000e-001) (220, 2.66410142183303830000e-001) (221, -5.87739825248718260000e-001) (222, 5.03017127513885500000e-001) (223, -5.90167231857776640000e-002) (224, -4.03405189514160160000e-001) (225, 7.85933583974838260000e-002) (226, 6.73304557800292970000e-001) (227, 4.38712149858474730000e-001) (228, -8.30740630626678470000e-002) (229, 1.08047135174274440000e-001) (230, 6.68739497661590580000e-001) (231, -9.02537181973457340000e-002) (232, 4.98724281787872310000e-001) (233, 2.80636161565780640000e-001) (234, 9.14036870002746580000e-001) (235, 1.79198160767555240000e-001) (236, 1.01585793495178220000e+000) (237, 4.43400204181671140000e-001) (238, 5.61829030513763430000e-001) (239, 8.44656378030776980000e-002) (240, -5.79188942909240720000e-001) (241, -6.41990900039672850000e-001) (242, 2.46321409940719600000e-001) (243, -7.25272119045257570000e-001) (244, 2.27149724960327150000e-001) (245, -5.55814743041992190000e-001) (246, 1.98236837983131410000e-001) (247, 8.46374392509460450000e-001) (248, 7.56467938423156740000e-001) (249, -5.67878782749176030000e-001) (250, -2.52486497163772580000e-001) (251, -4.18910384178161620000e-002) (252, -1.12646482884883880000e-001) (253, 1.88123822212219240000e-001) (254, -4.58271242678165440000e-002) (255, -5.48657357692718510000e-001) (256, 5.54598450660705570000e-001) (0, 2.68402487039566040000e-001) (1, 8.37452560663223270000e-002) (2, 4.54611152410507200000e-001) (3, 1.28242492675781250000e-001) (4, 1.92160889506340030000e-001) (5, 3.86602163314819340000e-001) (6, -3.93309026956558230000e-001) (7, 3.03658902645111080000e-001) (8, -6.14254355430603030000e-001) (9, -7.52338886260986330000e-001) (10, 7.09508240222930910000e-001) (11, -3.24868291616439820000e-001) (12, -8.87844525277614590000e-003) (13, 1.27069830894470210000e-001) (14, 3.86334568262100220000e-001) (15, -6.52153789997100830000e-001) (16, 4.12900775671005250000e-001) (17, -3.65829885005950930000e-001) (18, 2.40847468376159670000e-001) (19, -5.97064435482025150000e-001) (20, -3.64623516798019410000e-001) (21, 8.62926423549652100000e-001) (22, 2.15620294213294980000e-001) (23, 1.15544103085994720000e-001) (24, -2.37322986125946040000e-001) (25, -7.58230328559875490000e-001) (26, 4.32489216327667240000e-002) (27, 1.03090368211269380000e-001) (28, -2.71248996257781980000e-001) (29, -7.31488987803459170000e-002) (30, 1.12227208912372590000e-001) (31, 9.19513225555419920000e-001) (32, 2.72951424121856690000e-001) (33, 1.16528701782226560000e+000) (34, 1.81917980313301090000e-001) (35, -7.42684602737426760000e-002) (36, 3.71555626392364500000e-001) (37, -5.35963773727416990000e-001) (38, 1.32441341876983640000e-001) (39, -2.77322232723236080000e-001) (40, -1.73772796988487240000e-001) (41, -1.11960478127002720000e-001) (42, -7.45442390441894530000e-001) (43, -1.42956422641873360000e-002) (44, -1.60535692702978850000e-003) (45, 5.18098846077919010000e-002) (46, -2.33855217695236210000e-001) (47, 9.71564799547195430000e-002) (48, 5.37280201911926270000e-001) (49, 6.66722834110260010000e-001) (50, 1.37385740876197810000e-001) (51, 6.59862533211708070000e-002) (52, 4.08822774887084960000e-001) (53, 8.42704996466636660000e-002) (54, -2.32514366507530210000e-001) (55, 2.81977057456970210000e-001) (56, 2.80391365289688110000e-001) (57, -5.86771033704280850000e-002) (58, -8.66211671382188800000e-003) (59, -3.36288005113601680000e-001) (60, 4.18845504522323610000e-001) (61, 5.24789273738861080000e-001) (62, 3.05244952440261840000e-001) (63, -4.90971446037292480000e-001) (64, -6.80866360664367680000e-001) (65, -1.58825144171714780000e-001) (66, -3.27734887599945070000e-001) (67, 4.64614719152450560000e-001) (68, 5.10807633399963380000e-001) (69, -1.14458665251731870000e-001) (70, -2.13600352406501770000e-001) (71, -3.37758779525756840000e-001) (72, -4.40855264663696290000e-001) (73, 2.96139414422214030000e-003) (74, -8.53285342454910280000e-002) (75, 2.88210391998291020000e-001) (76, -3.91232632100582120000e-002) (77, -5.56329667568206790000e-001) (78, 7.10206478834152220000e-002) (79, 2.08857282996177670000e-001) (80, -4.25005972385406490000e-001) (81, -7.84911289811134340000e-002) (82, 6.70379817485809330000e-001) (83, 3.18256855010986330000e-001) (84, -1.29201589152216910000e-002) (85, 4.11173403263092040000e-001) (86, -4.18016582727432250000e-001) (87, -6.51258289813995360000e-001) (88, 2.56311684846878050000e-001) (89, -3.29460918903350830000e-001) (90, 6.16955682635307310000e-002) (91, 5.49654662609100340000e-001) (92, -3.51893961429595950000e-001) (93, 4.48703616857528690000e-001) (94, -2.05199062824249270000e-001) (95, 3.15023124217987060000e-001) (96, 5.08072793483734130000e-001) (97, 8.10746788978576660000e-001) (98, -8.54327499866485600000e-001) (99, 4.51226860284805300000e-001) (100, 2.86312948446720840000e-004) (101, 7.24401712417602540000e-001) (102, 8.58488738536834720000e-001) (103, 1.17188453674316410000e-001) (104, -1.28401473164558410000e-001) (105, 7.28676933795213700000e-003) (106, -6.62936091423034670000e-001) (107, 6.51762336492538450000e-002) (108, 7.07648277282714840000e-001) (109, 1.97474211454391480000e-001) (110, 1.54449775815010070000e-001) (111, 1.24150671064853670000e-001) (112, -5.29545426368713380000e-001) (113, 1.05849124491214750000e-001) (114, 3.82726401090621950000e-001) (115, -2.42785930633544920000e-001) (116, -4.95997816324234010000e-001) (117, -3.52572709321975710000e-001) (118, 8.31106781959533690000e-001) (119, 6.10993802547454830000e-001) (120, -3.95678371191024780000e-001) (121, -2.57101476192474370000e-001) (122, 2.34988927841186520000e-001) (123, -1.50214701890945430000e-001) (124, 3.39182466268539430000e-001) (125, 4.42660033702850340000e-001) (126, 5.39451360702514650000e-001) (127, 4.17421609163284300000e-001) (128, 5.32973408699035640000e-001) (129, -4.13356274366378780000e-001) (130, 2.04194977879524230000e-001) (131, -3.67764122784137730000e-002) (132, -2.64148443937301640000e-001) (133, 2.29067832231521610000e-001) (134, 4.06063348054885860000e-003) (135, -2.26600289344787600000e-001) (136, 3.14372032880783080000e-002) (137, 2.51483201980590820000e-001) (138, -1.39535009860992430000e-001) (139, 8.80591347813606260000e-002) (140, 8.63358899950981140000e-002) (141, 1.09902180731296540000e-001) (142, -3.83388489484786990000e-001) (143, -2.10412308573722840000e-001) (144, 1.16763584315776820000e-001) (145, 1.49717316031455990000e-001) (146, -9.52331647276878360000e-002) (147, 3.52057009935379030000e-001) (148, -1.66101735085248950000e-002) (149, 3.65690529346466060000e-001) (150, -9.98321473598480220000e-001) (151, 3.39873760938644410000e-001) (152, -3.29657405614852910000e-001) (153, 6.18205726146698000000e-001) (154, -1.08463995158672330000e-001) (155, -2.75739938020706180000e-001) (156, -5.16345143318176270000e-001) (157, 4.00261193513870240000e-001) (158, 4.95377033948898320000e-002) (159, 2.90369004011154170000e-001) (160, -2.96888917684555050000e-001) (161, -1.62213087081909180000e-001) (162, 2.30787813663482670000e-001) (163, 3.36665421724319460000e-001) (164, 2.76590436697006230000e-001) (165, -3.78453135490417480000e-001) (166, 4.36452120542526250000e-001) (167, 4.85491544008255000000e-001) (168, -2.09404062479734420000e-002) (169, 2.21165046095848080000e-001) (170, -7.15001523494720460000e-002) (171, 2.29905799031257630000e-001) (172, -5.37565886974334720000e-001) (173, -2.99610525369644170000e-001) (174, 9.74766090512275700000e-002) (175, -1.46420210599899290000e-001) (176, -1.74783334136009220000e-001) (177, 1.53160929679870610000e-001) (178, -5.79249739646911620000e-001) (179, -2.28457495570182800000e-001) (180, 6.59642815589904790000e-002) (181, 2.51225322484970090000e-001) (182, -2.11952701210975650000e-002) (183, -1.96088105440139770000e-001) (184, -1.98148280382156370000e-001) (185, 3.20781826972961430000e-001) (186, -3.51968735456466670000e-001) (187, -3.07744592428207400000e-001) (188, 3.51849377155303960000e-001) (189, 3.10919404029846190000e-001) (190, 2.54679620265960690000e-001) (191, -4.11028601229190830000e-002) (192, 7.37062767148017880000e-002) (193, -1.99557971209287640000e-002) (194, 5.21003961563110350000e-001) (195, 7.34701335430145260000e-001) (196, -1.72707121819257740000e-002) (197, -1.63261905312538150000e-001) (198, 4.77980732917785640000e-001) (199, 3.35210829973220830000e-001) (200, -8.25158059597015380000e-001) (201, 6.95372223854064940000e-001) (202, 1.34503003209829330000e-003) (203, 4.01355862617492680000e-001) (204, -1.80092900991439820000e-001) (205, 4.74259331822395320000e-002) (206, -1.20610392093658450000e+000) (207, 2.88629055023193360000e-001) (208, 1.84399589896202090000e-001) (209, -2.88517057895660400000e-001) (210, -3.21594327688217160000e-002) (211, 2.64634907245635990000e-001) (212, -4.97461110353469850000e-001) (213, 6.76962971687316890000e-001) (214, 7.72864595055580140000e-002) (215, -1.06703728437423710000e-001) (216, -2.56374031305313110000e-001) (217, -2.98108071088790890000e-001) (218, -9.65058207511901860000e-001) (219, -5.54108977317810060000e-001) (220, -5.04030883312225340000e-002) (221, -3.12702246010303500000e-002) (222, -3.01971239969134330000e-003) (223, 2.19581842422485350000e-001) (224, -2.10866525769233700000e-001) (225, 4.60442364215850830000e-001) (226, -1.28029376268386840000e-001) (227, 3.95130127668380740000e-001) (228, -5.36859869956970210000e-001) (229, -7.51545786857604980000e-001) (230, 5.39405167102813720000e-001) (231, 4.32158783078193660000e-002) (232, 8.13114762306213380000e-001) (233, -1.27249076962471010000e-001) (234, 2.11447611451148990000e-001) (235, -3.70920181274414060000e-001) (236, -3.77574950456619260000e-001) (237, -9.40923020243644710000e-002) (238, 3.71037811040878300000e-001) (239, 4.22959104180336000000e-002) (240, 5.78164011240005490000e-002) (241, 7.78074413537979130000e-002) (242, 4.30159986019134520000e-001) (243, -8.10967266559600830000e-001) (244, 1.62591397762298580000e-001) (245, -3.27563464641571040000e-001) (246, 1.90560922026634220000e-001) (247, 1.32780566811561580000e-001) (248, 1.79050508886575700000e-002) (249, 2.22833007574081420000e-001) (250, -2.33286112546920780000e-001) (251, 7.29667186737060550000e-001) (252, 6.30904436111450200000e-002) (253, -3.56831960380077360000e-002) (254, 6.56471073627471920000e-001) (255, -3.73802363872528080000e-001) (256, 2.86799967288970950000e-001) (0, -6.48042976856231690000e-001) (1, -1.93730548024177550000e-001) (2, 4.21324193477630620000e-001) (3, 2.17083677649497990000e-001) (4, 7.89417445659637450000e-001) (5, -6.21362507343292240000e-001) (6, 4.66717392206192020000e-001) (7, -1.71953644603490830000e-002) (8, -5.13640046119689940000e-001) (9, 2.57282972335815430000e-001) (10, 9.49513912200927730000e-002) (11, -2.41371631622314450000e-001) (12, 3.25951665639877320000e-001) (13, -3.05078357458114620000e-001) (14, 2.28100027889013290000e-002) (15, 1.99169188737869260000e-001) (16, -4.17823225259780880000e-001) (17, 1.75120651721954350000e-001) (18, -1.66110202670097350000e-001) (19, -1.06624931097030640000e-001) (20, 3.40114653110504150000e-001) (21, -8.81271958351135250000e-001) (22, 2.88433134555816650000e-001) (23, -5.12570261955261230000e-001) (24, 2.98335820436477660000e-001) (25, -1.38051323592662810000e-002) (26, 1.18341811001300810000e-001) (27, -5.05602836608886720000e-001) (28, -1.94716323167085650000e-002) (29, 3.24464261531829830000e-001) (30, -2.80655115842819210000e-001) (31, 2.75345873087644580000e-002) (32, 1.54585495591163640000e-001) (33, 5.46414494514465330000e-001) (34, 4.22688663005828860000e-001) (35, 2.61504560708999630000e-001) (36, -1.66003540158271790000e-001) (37, -1.52852386236190800000e-001) (38, 4.53928560018539430000e-001) (39, -2.64849364757537840000e-001) (40, -4.22302223742008210000e-002) (41, -2.88682013750076290000e-001) (42, 5.85246741771698000000e-001) (43, 3.48247796297073360000e-001) (44, -1.09563253819942470000e-001) (45, 3.19623261690139770000e-001) (46, -1.45256996154785160000e-001) (47, 6.55472099781036380000e-001) (48, -6.54067277908325200000e-001) (49, -1.37528195977211000000e-001) (50, 2.36438542604446410000e-001) (51, -4.42240685224533080000e-001) (52, -1.04316763579845430000e-001) (53, 7.00996756553649900000e-001) (54, -2.12452292442321780000e-001) (55, -4.75134611129760740000e-001) (56, 4.88760471343994140000e-001) (57, 5.08561193943023680000e-001) (58, -9.56156313419342040000e-001) (59, 6.45892083644866940000e-001) (60, -1.89114809036254880000e-001) (61, -1.54366875067353250000e-002) (62, -2.12073698639869690000e-001) (63, 2.24433690309524540000e-002) (64, 5.72999656200408940000e-001) (65, -2.87727415561676030000e-001) (66, -7.63584733009338380000e-001) (67, 4.18586283922195430000e-001) (68, -6.05168402194976810000e-001) (69, 1.28876119852066040000e-002) (70, -2.84240931272506710000e-001) (71, 9.62240040302276610000e-001) (72, -3.02534848451614380000e-001) (73, 6.45767092704772950000e-001) (74, -1.52019053697586060000e-001) (75, 6.93751454353332520000e-001) (76, -2.91388750076293950000e-001) (77, -4.72703456878662110000e-001) (78, 2.08705097436904910000e-001) (79, 2.37240865826606750000e-001) (80, 2.48573243618011470000e-001) (81, 1.57046783715486530000e-002) (82, 4.14791584014892580000e-001) (83, 4.59583818912506100000e-001) (84, -7.98621922731399540000e-002) (85, -4.52020615339279170000e-001) (86, -7.83756971359252930000e-002) (87, -8.19519981741905210000e-002) (88, 3.04761469364166260000e-001) (89, -1.85452133882790800000e-003) (90, 2.77459323406219480000e-002) (91, -1.36632636189460750000e-001) (92, 2.34555423259735110000e-001) (93, 9.92919597774744030000e-003) (94, 7.44959712028503420000e-001) (95, -1.20490372180938720000e-001) (96, 1.50868564844131470000e-001) (97, -3.75722646713256840000e-001) (98, -8.13957378268241880000e-002) (99, -9.91310849785804750000e-002) (100, -5.61668515205383300000e-001) (101, -4.93438154458999630000e-001) (102, 1.94932594895362850000e-001) (103, 1.10053069889545440000e-001) (104, -7.98949480056762700000e-001) (105, 3.20595413446426390000e-001) (106, 1.64189815521240230000e-001) (107, -4.97265428304672240000e-001) (108, -1.34580761194229130000e-001) (109, 3.24072539806365970000e-001) (110, -4.65399265289306640000e-001) (111, 6.75009787082672120000e-001) (112, 4.72079306840896610000e-001) (113, 7.86443710327148440000e-001) (114, -8.80120515823364260000e-001) (115, 3.26569736003875730000e-001) (116, 3.91504131257534030000e-002) (117, 4.73236739635467530000e-001) (118, -3.68923038244247440000e-001) (119, -3.92172932624816890000e-002) (120, 3.37543100118637080000e-001) (121, 3.20468753576278690000e-001) (122, -4.63110581040382390000e-002) (123, 2.95460581779479980000e-001) (124, -7.17630386352539060000e-001) (125, 5.04549384117126460000e-001) (126, 2.12723568081855770000e-001) (127, 3.15130114555358890000e-001) (128, -6.61196529865264890000e-001) (129, 3.49433183670043950000e-001) (130, 4.49790358543396000000e-002) (131, -2.20620438456535340000e-001) (132, -6.88164904713630680000e-002) (133, -1.26844450831413270000e-001) (134, 1.66687861084938050000e-001) (135, 1.40909045934677120000e-001) (136, -3.36702942848205570000e-001) (137, 4.09444063901901250000e-001) (138, -1.14657290279865260000e-001) (139, -5.45220911502838130000e-001) (140, 6.58730208873748780000e-001) (141, -2.53221303224563600000e-001) (142, -2.84621804952621460000e-001) (143, 8.73175933957099910000e-002) (144, -3.44064056873321530000e-001) (145, 2.54410713911056520000e-001) (146, -5.56229650974273680000e-001) (147, 5.47033473849296570000e-002) (148, 1.44828498363494870000e-001) (149, 2.91480273008346560000e-001) (150, -3.73211316764354710000e-002) (151, 3.43509674072265630000e-001) (152, 3.26415896415710450000e-002) (153, 6.57048746943473820000e-002) (154, -1.52537152171134950000e-001) (155, -9.21640336513519290000e-001) (156, 1.90154850482940670000e-001) (157, 4.05919402837753300000e-001) (158, -1.90946549177169800000e-001) (159, -6.49977862834930420000e-001) (160, -5.45515678822994230000e-002) (161, -3.18808585405349730000e-001) (162, 3.58631521463394170000e-001) (163, -4.84065830707550050000e-001) (164, -2.52396434545516970000e-001) (165, 2.99108475446701050000e-001) (166, -7.08636462688446040000e-001) (167, 7.07885563373565670000e-001) (168, -2.90574848651885990000e-001) (169, -1.08094620704650880000e+000) (170, 6.55249953269958500000e-002) (171, 2.03913405537605290000e-001) (172, 2.18257606029510500000e-001) (173, 3.02611857652664180000e-001) (174, 2.29486256837844850000e-001) (175, -4.78199481964111330000e-001) (176, -4.98890504240989690000e-002) (177, 4.76851314306259160000e-001) (178, 1.21658124029636380000e-001) (179, -2.74583488702774050000e-001) (180, 1.27493038773536680000e-001) (181, 4.65381219983100890000e-002) (182, 1.83199360966682430000e-001) (183, 1.78737621754407880000e-002) (184, 9.46670398116111760000e-002) (185, 4.53976333141326900000e-001) (186, -1.22620604932308200000e-001) (187, 3.84504467248916630000e-001) (188, -6.96024119853973390000e-001) (189, 4.28548216819763180000e-001) (190, -9.02279242873191830000e-002) (191, 1.19118973612785340000e-001) (192, -9.21402424573898320000e-002) (193, 7.69634485244750980000e-001) (194, -9.49453786015510560000e-002) (195, 4.92731124162673950000e-001) (196, -3.84350597858428960000e-001) (197, -1.29626274108886720000e-001) (198, 1.92070491611957550000e-002) (199, -5.37695229053497310000e-001) (200, 6.72140300273895260000e-001) (201, -8.69919776916503910000e-001) (202, -2.78172820806503300000e-001) (203, -1.53135597705841060000e-001) (204, -7.25463986396789550000e-001) (205, 2.51208186149597170000e-001) (206, 2.97879159450531010000e-001) (207, 5.20295314490795140000e-002) (208, 1.38738468289375310000e-001) (209, -5.79648673534393310000e-001) (210, -5.26992440223693850000e-001) (211, 1.35897874832153320000e-001) (212, -1.55587762594223020000e-001) (213, 4.20074015855789180000e-001) (214, 7.89206504821777340000e-001) (215, 2.11354523897171020000e-001) (216, -6.05602264404296880000e-001) (217, 8.45090270042419430000e-001) (218, -6.59286929294466970000e-003) (219, 1.03018665313720700000e+000) (220, -3.49427640438079830000e-001) (221, 3.98608744144439700000e-001) (222, 3.96067112684249880000e-001) (223, 6.19053794071078300000e-003) (224, -2.41897612810134890000e-001) (225, -1.25894278287887570000e-001) (226, 3.53891730308532710000e-001) (227, -4.72410291433334350000e-001) (228, 5.77091693878173830000e-001) (229, -6.90929442644119260000e-002) (230, -7.24159181118011470000e-001) (231, -8.15394699573516850000e-001) (232, 8.06365847587585450000e-001) (233, -2.32234001159667970000e-002) (234, 1.88695341348648070000e-001) (235, -1.34155109524726870000e-001) (236, -4.96452987194061280000e-001) (237, 3.30394543707370760000e-002) (238, 7.97946378588676450000e-003) (239, -3.15295159816741940000e-001) (240, -7.95905113220214840000e-001) (241, -6.17355294525623320000e-002) (242, -2.71467596292495730000e-001) (243, -5.63787184655666350000e-002) (244, 3.33880990743637080000e-001) (245, -2.83109992742538450000e-002) (246, -3.12876515090465550000e-002) (247, 9.63502377271652220000e-002) (248, -2.86558002233505250000e-001) (249, 7.23096057772636410000e-002) (250, 2.92247176170349120000e-001) (251, -3.95310372114181520000e-001) (252, 4.31155830621719360000e-001) (253, -3.72502774000167850000e-001) (254, 3.94016772508621220000e-001) (255, 3.11954587697982790000e-001) (256, 9.22659263014793400000e-002) (0, 7.13287651538848880000e-001) (1, 1.20780296623706820000e-001) (2, 1.71301484107971190000e-001) (3, 8.86436402797698970000e-002) (4, 4.86370265483856200000e-001) (5, -7.58018612861633300000e-001) (6, 8.13982725143432620000e-001) (7, -7.21449613571166990000e-001) (8, 1.27112850546836850000e-001) (9, 1.13106802105903630000e-001) (10, 5.07275104522705080000e-001) (11, 3.47675420343875890000e-002) (12, 3.61644893884658810000e-001) (13, 3.44401486217975620000e-002) (14, 5.00651411712169650000e-002) (15, 5.28071284294128420000e-001) (16, -9.00960743427276610000e-001) (17, -1.81202784180641170000e-001) (18, 5.82751870155334470000e-001) (19, -3.52778524160385130000e-001) (20, 6.53290152549743650000e-001) (21, -2.21131071448326110000e-001) (22, 1.22534483671188350000e-001) (23, 3.43467257916927340000e-002) (24, -3.26990753412246700000e-001) (25, -1.35991334915161130000e-001) (26, -5.85596799850463870000e-001) (27, 3.61130207777023320000e-001) (28, -7.95749276876449580000e-002) (29, -2.44974270462989810000e-001) (30, 1.14078283309936520000e-001) (31, 6.18085205554962160000e-001) (32, 9.22118648886680600000e-002) (33, 1.76453292369842530000e-001) (34, 4.04928088188171390000e-001) (35, -3.09686332941055300000e-001) (36, 1.52504906058311460000e-001) (37, 1.83331131935119630000e-001) (38, -6.09005570411682130000e-001) (39, -2.95455977320671080000e-002) (40, -1.83431148529052730000e-001) (41, -2.63261914253234860000e-001) (42, -4.70460474491119380000e-001) (43, 5.24796605110168460000e-001) (44, -6.34235620498657230000e-001) (45, 5.80920755863189700000e-001) (46, -6.90356940031051640000e-002) (47, 3.94833862781524660000e-001) (48, 1.43146008253097530000e-001) (49, -4.95330154895782470000e-001) (50, -5.34431368578225370000e-004) (51, 1.39009535312652590000e-001) (52, -3.87734353542327880000e-001) (53, 8.18800255656242370000e-002) (54, 1.34485792368650440000e-002) (55, 1.31158262491226200000e-001) (56, -4.82484966516494750000e-001) (57, -5.58204829692840580000e-001) (58, -7.30677172541618350000e-002) (59, 4.17366683483123780000e-001) (60, -2.08175688982009890000e-001) (61, 2.19957068562507630000e-001) (62, 5.01000285148620610000e-001) (63, -3.90685945749282840000e-001) (64, -2.22341194748878480000e-001) (65, -2.16519504785537720000e-001) (66, 2.16067880392074580000e-002) (67, 3.94938081502914430000e-001) (68, 3.49037609994411470000e-002) (69, -4.58934128284454350000e-001) (70, -8.18036422133445740000e-002) (71, 1.91902756690979000000e-001) (72, 4.29103225469589230000e-001) (73, 8.33547487854957580000e-003) (74, -9.13407579064369200000e-002) (75, -7.54962489008903500000e-002) (76, 2.66472697257995610000e-001) (77, 5.40424883365631100000e-001) (78, 6.51902258396148680000e-001) (79, 6.61859095096588130000e-001) (80, 4.41250890493392940000e-001) (81, -3.21310088038444520000e-002) (82, 4.68531250953674320000e-001) (83, -2.54898130893707280000e-001) (84, 4.54352825880050660000e-001) (85, -1.34214565157890320000e-001) (86, -1.46214619278907780000e-001) (87, 2.14093118906021120000e-001) (88, -4.57449585199356080000e-001) (89, 3.09402883052825930000e-001) (90, 4.27997380495071410000e-001) (91, -1.47754997014999390000e-001) (92, 4.37919378280639650000e-001) (93, 2.25814580917358400000e-001) (94, -1.09050405025482180000e+000) (95, -6.18481934070587160000e-001) (96, -2.97251999378204350000e-001) (97, -1.35879516601562500000e-001) (98, 1.06205269694328310000e-001) (99, -2.66268819570541380000e-001) (100, -3.09348404407501220000e-001) (101, 2.91486710309982300000e-001) (102, -1.08770120143890380000e+000) (103, 4.18746262788772580000e-001) (104, -2.57266044616699220000e-001) (105, -1.77145883440971370000e-001) (106, -8.06616425514221190000e-001) (107, 8.86008962988853450000e-002) (108, -9.79822516441345210000e-001) (109, -3.49581748247146610000e-001) (110, 7.87547945976257320000e-001) (111, -8.61871838569641110000e-002) (112, 5.40671765804290770000e-001) (113, 2.13697478175163270000e-001) (114, -2.39001065492630000000e-001) (115, 4.00111116468906400000e-002) (116, 3.68732243776321410000e-001) (117, -5.33645413815975190000e-002) (118, -2.41891741752624510000e-002) (119, -3.14818233251571660000e-001) (120, -3.14537346363067630000e-001) (121, 4.82350200414657590000e-001) (122, -2.56233096122741700000e-001) (123, -4.32886667549610140000e-002) (124, 2.02409457415342330000e-002) (125, 4.27437305450439450000e-001) (126, 7.33727216720581050000e-001) (127, 2.16104909777641300000e-001) (128, 3.02667438983917240000e-001) (129, -6.16212248802185060000e-001) (130, -2.60492980480194090000e-001) (131, -3.52346859872341160000e-002) (132, -6.25312328338623050000e-001) (133, -3.56438308954238890000e-001) (134, -1.17611527442932130000e-001) (135, 3.47472906112670900000e-001) (136, 2.83450454473495480000e-001) (137, -2.46626809239387510000e-001) (138, 2.44277179241180420000e-001) (139, 3.32047402858734130000e-001) (140, -8.63816082477569580000e-001) (141, 3.92270386219024660000e-001) (142, -7.78277739882469180000e-002) (143, 6.96274712681770320000e-002) (144, -4.18462425470352170000e-001) (145, -7.57316779345273970000e-003) (146, 6.26778528094291690000e-002) (147, 2.51760110259056090000e-002) (148, -1.35104522109031680000e-001) (149, -6.74595236778259280000e-002) (150, 2.37497702240943910000e-001) (151, 3.55791270732879640000e-001) (152, -3.47803011536598210000e-002) (153, -3.02577853202819820000e-001) (154, 1.80010899901390080000e-001) (155, -5.73250472545623780000e-001) (156, 9.61562618613243100000e-002) (157, 5.34469008445739750000e-001) (158, 4.79567497968673710000e-001) (159, 5.99363327026367190000e-001) (160, -3.80782306194305420000e-001) (161, 1.43882319331169130000e-001) (162, 6.63418471813201900000e-001) (163, -4.50504496693611150000e-002) (164, -1.51397004723548890000e-001) (165, -2.69239127635955810000e-001) (166, -1.92429602146148680000e-001) (167, -4.25481200218200680000e-001) (168, -2.33465433120727540000e-001) (169, 3.55576068162918090000e-001) (170, -2.31750786304473880000e-001) (171, -2.60400831699371340000e-001) (172, -2.48785063624382020000e-001) (173, 1.44809484481811520000e-001) (174, -2.91974157094955440000e-001) (175, 1.17495302110910420000e-002) (176, -1.53813317418098450000e-001) (177, -6.13504722714424130000e-002) (178, 4.39963817596435550000e-001) (179, 2.61265993118286130000e-001) (180, 2.87433236837387080000e-001) (181, -3.06796878576278690000e-001) (182, 1.73281729221343990000e-001) (183, -6.09739065170288090000e-001) (184, 2.80637711286544800000e-001) (185, 2.19973221421241760000e-001) (186, 4.26315724849700930000e-001) (187, 5.63904762268066410000e-001) (188, 4.86099302768707280000e-001) (189, 1.71408087015151980000e-001) (190, 5.20030558109283450000e-002) (191, -2.29267124086618420000e-002) (192, 1.80190458893775940000e-001) (193, -6.94090843200683590000e-001) (194, -8.20329904556274410000e-001) (195, 3.12737107276916500000e-001) (196, -2.39500924944877620000e-001) (197, 8.23921784758567810000e-002) (198, -4.37970519065856930000e-001) (199, 1.72509551048278810000e-001) (200, 3.30597102642059330000e-001) (201, -2.04568490386009220000e-001) (202, -8.19704830646514890000e-001) (203, -8.29138815402984620000e-001) (204, 2.03435808420181270000e-001) (205, -2.19811826944351200000e-001) (206, -3.44837903976440430000e-002) (207, 4.59262914955616000000e-002) (208, -3.24779361486434940000e-001) (209, 3.03876996040344240000e-001) (210, 9.10747349262237550000e-001) (211, -2.93637812137603760000e-002) (212, -5.04244625568389890000e-001) (213, 2.76384949684143070000e-001) (214, -1.37176007032394410000e-001) (215, -5.81363104283809660000e-002) (216, -3.86616289615631100000e-001) (217, 1.68556228280067440000e-001) (218, 4.19337213039398190000e-001) (219, 2.21169561147689820000e-001) (220, -4.57038223743438720000e-001) (221, -2.86351293325424190000e-001) (222, 1.03110909461975100000e+000) (223, -4.57257568836212160000e-001) (224, 3.17700624465942380000e-001) (225, -3.42076152563095090000e-001) (226, -5.98679542541503910000e-001) (227, -1.10887549817562100000e-001) (228, 5.64294643700122830000e-002) (229, 2.36074388027191160000e-001) (230, -3.39682362973690030000e-002) (231, -6.45173788070678710000e-002) (232, 8.19618776440620420000e-002) (233, 5.99631248041987420000e-003) (234, -9.60216701030731200000e-001) (235, 9.01894122362136840000e-002) (236, -2.95016407966613770000e-001) (237, -1.12441271543502810000e-001) (238, -6.71526551246643070000e-001) (239, 3.78903537988662720000e-001) (240, -1.70963481068611150000e-001) (241, 3.20410072803497310000e-001) (242, -1.53286591172218320000e-001) (243, -6.92020177841186520000e-001) (244, 4.27981287240982060000e-001) (245, -9.93511360138654710000e-003) (246, 2.36890092492103580000e-001) (247, -3.57504278421401980000e-001) (248, -1.42278492450714110000e-001) (249, 2.70015388727188110000e-001) (250, -3.46609093248844150000e-002) (251, -1.07843029499053960000e+000) (252, 6.77892684936523440000e-001) (253, 5.98409138619899750000e-002) (254, -3.28926593065261840000e-001) (255, -1.63204640150070190000e-001) (256, -1.53131008148193360000e+000) (0, 3.39459866285324100000e-001) (1, 2.03876838088035580000e-001) (2, -1.43675827980041500000e+000) (3, 2.09105983376502990000e-002) (4, -1.78853586316108700000e-001) (5, 3.12406599521636960000e-001) (6, -8.85718390345573430000e-002) (7, -1.47206597030162810000e-002) (8, 1.62066727876663210000e-001) (9, -6.55473098158836360000e-002) (10, -7.22420692443847660000e-001) (11, -3.66731174290180210000e-002) (12, 1.11337339878082280000e+000) (13, -7.23169624805450440000e-001) (14, 7.33813107013702390000e-001) (15, -1.27040222287178040000e-001) (16, -2.97785937786102290000e-001) (17, 7.12255358695983890000e-001) (18, 3.82052809000015260000e-001) (19, 4.95565742254257200000e-001) (20, -1.19368290901184080000e+000) (21, 7.30570331215858460000e-002) (22, -1.44229769706726070000e-001) (23, -2.13843017816543580000e-001) (24, -2.05106154084205630000e-001) (25, -1.04582838714122770000e-001) (26, -1.03294685482978820000e-001) (27, 5.31726360321044920000e-001) (28, 5.51700890064239500000e-001) (29, -3.75440388917922970000e-001) (30, 1.61375313997268680000e-001) (31, -4.06753152608871460000e-001) (32, 4.58359718322753910000e-001) (33, -2.69847840070724490000e-001) (34, 5.59151053428649900000e-001) (35, -3.65363091230392460000e-001) (36, -2.42528676986694340000e-001) (37, -4.78714436292648320000e-001) (38, 3.91803205013275150000e-001) (39, 4.88921135663986210000e-001) (40, 2.41521239280700680000e-001) (41, 1.87295272946357730000e-001) (42, 3.73201891779899600000e-002) (43, 2.05682516098022460000e-001) (44, -2.56446957588195800000e-001) (45, -4.41802263259887700000e-001) (46, 3.68722826242446900000e-001) (47, -2.78974831104278560000e-001) (48, 2.55832403898239140000e-001) (49, -5.22113859653472900000e-001) (50, 2.04821258783340450000e-001) (51, 5.07900536060333250000e-001) (52, -4.18375059962272640000e-002) (53, -1.51035889983177190000e-001) (54, 4.04134541749954220000e-001) (55, -1.29951560497283940000e+000) (56, 2.55445182323455810000e-001) (57, -4.19396042823791500000e-001) (58, 4.36439871788024900000e-001) (59, -6.34252071380615230000e-001) (60, 3.66539180278778080000e-001) (61, 2.69788175821304320000e-001) (62, -4.82690483331680300000e-002) (63, -3.66030156612396240000e-001) (64, -5.43338656425476070000e-001) (65, 4.04925614595413210000e-001) (66, -3.51997558027505870000e-003) (67, 2.11718663573265080000e-001) (68, 4.48356389999389650000e-001) (69, -6.89883291721343990000e-001) (70, 1.85205027461051940000e-001) (71, -6.32711112499237060000e-001) (72, -4.17232573032379150000e-001) (73, -7.43952319025993350000e-002) (74, 2.66185283660888670000e-001) (75, 4.23614591360092160000e-001) (76, -1.23961344361305240000e-001) (77, 6.91945627331733700000e-002) (78, -2.95083433389663700000e-001) (79, 7.36410021781921390000e-001) (80, -3.69805172085762020000e-002) (81, 3.77902805805206300000e-001) (82, 5.88504076004028320000e-001) (83, -9.02467966079711910000e-001) (84, -9.17042195796966550000e-002) (85, 3.06657999753952030000e-001) (86, 2.30420365929603580000e-001) (87, -9.63017903268337250000e-003) (88, 4.13406312465667720000e-001) (89, 5.46478331089019780000e-001) (90, 1.93437233567237850000e-001) (91, -7.62524247169494630000e-001) (92, 1.10957644879817960000e-001) (93, -4.58703696727752690000e-001) (94, -7.51501858234405520000e-001) (95, -5.77357783913612370000e-002) (96, -5.18686711788177490000e-001) (97, -4.06026989221572880000e-001) (98, -3.17301571369171140000e-001) (99, 3.74772787094116210000e-001) (100, 7.40397512912750240000e-001) (101, -3.07922750711441040000e-001) (102, 1.03136733174324040000e-001) (103, -2.63924777507781980000e-001) (104, -5.98430931568145750000e-001) (105, -6.07258640229702000000e-002) (106, -6.59226179122924800000e-001) (107, 5.14578759670257570000e-001) (108, -5.83039999008178710000e-001) (109, 1.14170968532562260000e-001) (110, 7.22882866859436040000e-001) (111, 1.86819776892662050000e-001) (112, -2.41481661796569820000e-001) (113, -7.05796062946319580000e-001) (114, -3.19411605596542360000e-001) (115, -4.09497737884521480000e-001) (116, -2.85074532032012940000e-001) (117, -4.77085560560226440000e-001) (118, 4.13208693265914920000e-001) (119, 6.46008610725402830000e-001) (120, 2.25574478507041930000e-001) (121, -2.41646096110343930000e-001) (122, 8.97194594144821170000e-002) (123, -5.68929255008697510000e-001) (124, 6.52987957000732420000e-001) (125, -2.15360671281814580000e-001) (126, -2.38727375864982600000e-001) (127, -7.60195031762123110000e-002) (128, 4.50508683919906620000e-001) (129, 1.02582240104675290000e+000) (130, -5.41745662689208980000e-001) (131, 2.08345264196395870000e-001) (132, -1.04809187352657320000e-001) (133, 5.47885656356811520000e-001) (134, -8.30730080604553220000e-001) (135, 4.64897215366363530000e-001) (136, -5.60480594635009770000e-001) (137, 4.26103323698043820000e-001) (138, -3.39476042427122590000e-003) (139, 9.22389805316925050000e-001) (140, 3.07390153408050540000e-001) (141, 1.13637708127498630000e-001) (142, 1.33055365085601810000e+000) (143, 4.90890219807624820000e-002) (144, -6.43119156360626220000e-001) (145, -5.60440599918365480000e-001) (146, 3.87452244758605960000e-001) (147, 1.83077543973922730000e-001) (148, 2.04695805907249450000e-001) (149, 1.53966665267944340000e-001) (150, 2.21977248787879940000e-001) (151, -2.52473771572113040000e-001) (152, 8.33428353071212770000e-002) (153, 6.18525385856628420000e-001) (154, -2.80586451292037960000e-001) (155, -4.25688117742538450000e-001) (156, 1.88665822148323060000e-001) (157, 3.47227603197097780000e-002) (158, -3.52854549884796140000e-001) (159, -2.87728030234575270000e-002) (160, 1.12053500488400460000e-002) (161, 6.82697445154190060000e-003) (162, 2.45412468910217290000e-001) (163, 1.94961965084075930000e-001) (164, -2.55290091037750240000e-001) (165, 1.01986065506935120000e-001) (166, 3.86449918150901790000e-002) (167, 2.68100947141647340000e-001) (168, -3.54130774736404420000e-001) (169, -5.11583149433135990000e-001) (170, 1.95681184530258180000e-001) (171, 5.71691468358039860000e-002) (172, 1.13370440900325780000e-001) (173, -4.51573401689529420000e-001) (174, -5.40187433362007140000e-002) (175, 1.86732843518257140000e-001) (176, 1.67974084615707400000e-001) (177, 1.12571381032466890000e-001) (178, -3.58063101768493650000e-001) (179, -1.79700061678886410000e-001) (180, 3.64993900060653690000e-001) (181, -1.33271291851997380000e-001) (182, -4.14714356884360310000e-003) (183, 1.70352265238761900000e-001) (184, -2.54205279052257540000e-002) (185, 7.43592739105224610000e-001) (186, 1.99768975377082820000e-001) (187, -4.99339066445827480000e-002) (188, -1.85682047158479690000e-002) (189, 6.91422283649444580000e-001) (190, 3.78855764865875240000e-002) (191, -6.93317532539367680000e-001) (192, -7.56664201617240910000e-002) (193, -4.70329314470291140000e-001) (194, 4.07370209693908690000e-001) (195, 3.07461451739072800000e-002) (196, 3.63131403923034670000e-001) (197, 2.00737059116363530000e-001) (198, -5.23623347282409670000e-001) (199, 6.90506249666213990000e-002) (200, -3.22539001703262330000e-001) (201, -7.82125651836395260000e-001) (202, -3.87718617916107180000e-001) (203, -4.21051355078816410000e-003) (204, 2.49997433274984360000e-002) (205, 1.23689316213130950000e-001) (206, 2.38077163696289060000e-001) (207, -4.29033756256103520000e-001) (208, 3.56145352125167850000e-001) (209, 9.30439457297325130000e-002) (210, 3.38351763784885410000e-002) (211, -2.74116903543472290000e-001) (212, -3.08912247419357300000e-001) (213, -4.03833746910095210000e-001) (214, -5.58782219886779790000e-001) (215, 5.35661458969116210000e-001) (216, -5.56832015514373780000e-001) (217, 5.14527320861816410000e-001) (218, 2.56540149450302120000e-001) (219, -2.48067930340766910000e-001) (220, 1.23782157897949220000e-002) (221, -3.04535984992980960000e-001) (222, -1.32586792111396790000e-001) (223, 9.46820154786109920000e-002) (224, -2.42165140807628630000e-002) (225, 7.52790153026580810000e-001) (226, -6.23535394668579100000e-001) (227, -1.04819111526012420000e-001) (228, -8.37293546646833420000e-003) (229, -2.89446741342544560000e-001) (230, 6.56493604183197020000e-001) (231, -6.58450841903686520000e-001) (232, 1.60667747259140010000e-001) (233, -7.72304058074951170000e-001) (234, -6.62913396954536440000e-002) (235, 9.24479961395263670000e-001) (236, 1.61097452044487000000e-001) (237, 4.68411177396774290000e-001) (238, 1.01969599723815920000e+000) (239, -3.27552974224090580000e-001) (240, 1.88678234815597530000e-001) (241, -6.00996255874633790000e-001) (242, 1.50448441505432130000e-001) (243, 3.63420426845550540000e-001) (244, -4.44159716367721560000e-001) (245, -6.45160734653472900000e-001) (246, 1.01192645728588100000e-001) (247, -5.36268293857574460000e-001) (248, -2.67810195684432980000e-001) (249, -4.37026947736740110000e-001) (250, 2.65500217676162720000e-001) (251, -7.13220357894897460000e-001) (252, -3.48879277706146240000e-001) (253, -1.14289186894893650000e-002) (254, -1.55598267912864690000e-001) (255, 3.46938103437423710000e-001) (256, -8.97561669349670410000e-001) (0, -6.85447975993156430000e-002) (1, -9.56130996346473690000e-002) (2, 1.74254223704338070000e-001) (3, -3.69985640048980710000e-001) (4, 8.15292537212371830000e-001) (5, 7.22867548465728760000e-002) (6, -2.60139197111129760000e-001) (7, 2.50439763069152830000e-001) (8, 9.61339008063077930000e-003) (9, -2.59099125862121580000e-001) (10, 1.17416493594646450000e-001) (11, -9.70722615718841550000e-001) (12, 2.23425775766372680000e-001) (13, -2.74681925773620610000e-001) (14, -5.83958745002746580000e-001) (15, -3.27887177467346190000e-001) (16, 1.80217429995536800000e-001) (17, -4.27311705425381660000e-003) (18, 6.79401159286499020000e-001) (19, 7.66568243503570560000e-001) (20, -6.87844157218933110000e-001) (21, -1.05725876986980440000e-001) (22, 6.73358201980590820000e-001) (23, -2.96506658196449280000e-002) (24, -2.33622461557388310000e-001) (25, 1.77363544702529910000e-001) (26, 3.41321676969528200000e-002) (27, -5.47476001083850860000e-002) (28, 3.41068863868713380000e-001) (29, -1.65617004036903380000e-001) (30, 2.40964125841856000000e-002) (31, 1.35843425989151000000e-001) (32, -2.16027572751045230000e-002) (33, 3.14359106123447420000e-002) (34, -1.22515879571437840000e-001) (35, 1.99661016464233400000e-001) (36, -7.14297950267791750000e-001) (37, 7.60907292366027830000e-001) (38, 9.81579422950744630000e-002) (39, 6.63761496543884280000e-002) (40, -5.63445270061492920000e-001) (41, -1.30450561642646790000e-001) (42, 5.47021925449371340000e-002) (43, -1.18990764021873470000e-001) (44, 1.00634396076202390000e+000) (45, 1.24703265726566310000e-001) (46, -2.28482738137245180000e-001) (47, 6.46682858467102050000e-001) (48, -7.06564366817474370000e-001) (49, -1.25618562102317810000e-001) (50, -2.91370421648025510000e-001) (51, -3.46779860556125640000e-002) (52, 3.30475479364395140000e-001) (53, 3.71847927570343020000e-001) (54, 1.40912398695945740000e-001) (55, 3.57123583555221560000e-001) (56, 7.42352306842803960000e-002) (57, -1.08667112886905670000e-001) (58, -5.38599491119384770000e-001) (59, -1.00739806890487670000e-001) (60, -5.23963928222656250000e-001) (61, -5.83963990211486820000e-001) (62, -2.39725112915039060000e-001) (63, -2.36490324139595030000e-001) (64, 4.37929570674896240000e-001) (65, 5.28848230838775630000e-001) (66, 1.82762205600738530000e-001) (67, -4.59594190120697020000e-001) (68, 1.65458098053932190000e-001) (69, 4.14311051368713380000e-001) (70, 6.66789889335632320000e-001) (71, -3.06136608123779300000e-001) (72, 6.44872561097145080000e-002) (73, -2.75881662964820860000e-002) (74, 2.94187664985656740000e-001) (75, -7.28226959705352780000e-001) (76, 2.37469330430030820000e-001) (77, 1.27162158489227290000e-001) (78, -4.26092207431793210000e-001) (79, 1.62662357091903690000e-001) (80, 3.55569988489151000000e-001) (81, -5.94622910022735600000e-001) (82, -1.69231206178665160000e-001) (83, -3.62554997205734250000e-001) (84, -4.09338116645812990000e-001) (85, -1.85579821467399600000e-001) (86, 7.49956909567117690000e-003) (87, -2.53259778022766110000e-001) (88, 1.02330952882766720000e-001) (89, -3.71020697057247160000e-002) (90, 6.75650119781494140000e-001) (91, -2.69975543022155760000e-001) (92, -1.57058179378509520000e-001) (93, -4.71868038177490230000e-001) (94, 8.30753505229949950000e-001) (95, 1.74429327249526980000e-001) (96, -1.95335775613784790000e-001) (97, 9.32645022869110110000e-001) (98, 1.22938908636569980000e-001) (99, -2.28331126272678380000e-002) (100, -1.24611733481287960000e-002) (101, 6.98341071605682370000e-001) (102, -4.41856347024440770000e-002) (103, -1.84814900159835820000e-001) (104, -2.35385030508041380000e-001) (105, -2.47489318251609800000e-001) (106, 5.02759456634521480000e-001) (107, -5.14566838741302490000e-001) (108, -4.90600407123565670000e-001) (109, 5.57209193706512450000e-001) (110, -6.17120385169982910000e-001) (111, 2.51783430576324460000e-001) (112, 2.36575707793235780000e-001) (113, 1.71281039714813230000e-001) (114, -1.76217764616012570000e-001) (115, -2.68415212631225590000e-001) (116, -2.26130019873380660000e-002) (117, 3.76990735530853270000e-001) (118, 4.90792542695999150000e-001) (119, -1.77425652742385860000e-001) (120, 8.10711920261383060000e-001) (121, -2.72775292396545410000e-001) (122, -3.98782491683959960000e-001) (123, 3.78301918506622310000e-001) (124, -1.64696723222732540000e-002) (125, -1.13132603466510770000e-001) (126, -2.14592367410659790000e-001) (127, 3.25822323560714720000e-001) (128, -4.01034444570541380000e-001) (129, -1.58453166484832760000e-001) (130, 7.61637151241302490000e-001) (131, -6.24218106269836430000e-001) (132, 5.66859483718872070000e-001) (133, -2.50279664993286130000e-001) (134, -4.05128002166748050000e-002) (135, -6.05692386627197270000e-001) (136, -5.57267785072326660000e-001) (137, -3.24151217937469480000e-001) (138, 6.00408852100372310000e-001) (139, -3.70393753051757810000e-001) (140, 4.44971174001693730000e-002) (141, 7.73695945739746090000e-001) (142, -1.35067850351333620000e-001) (143, 2.04281404614448550000e-001) (144, 5.65069258213043210000e-001) (145, -2.95928090810775760000e-001) (146, 1.70299679040908810000e-001) (147, 3.15515428781509400000e-001) (148, -9.75203439593315120000e-002) (149, -2.63824090361595150000e-002) (150, -1.39150589704513550000e-001) (151, 4.58515226840972900000e-001) (152, 1.12947404384613040000e-001) (153, -4.45566534996032710000e-001) (154, -9.54169988632202150000e-001) (155, 3.34499388933181760000e-001) (156, 1.77611470222473140000e-001) (157, -1.79310098290443420000e-001) (158, -6.89352989196777340000e-001) (159, 2.59676333516836170000e-002) (160, -3.57273906469345090000e-001) (161, 5.60451596975326540000e-002) (162, -1.82256251573562620000e-001) (163, -4.06726390123367310000e-001) (164, 6.79344058036804200000e-001) (165, 5.04699409008026120000e-001) (166, 2.24530383944511410000e-001) (167, 2.45432719588279720000e-001) (168, -8.46499621868133540000e-001) (169, 6.16716071963310240000e-002) (170, -8.73673200607299800000e-001) (171, -6.50366365909576420000e-001) (172, 3.94358523190021510000e-002) (173, -2.37284749746322630000e-001) (174, -2.86269020289182660000e-002) (175, -8.78613591194152830000e-002) (176, -3.69854182004928590000e-001) (177, 4.83084097504615780000e-002) (178, 1.45004421472549440000e-001) (179, 2.93726056814193730000e-001) (180, -6.73773348331451420000e-001) (181, 5.02576887607574460000e-001) (182, -7.74460017681121830000e-001) (183, 2.88094818592071530000e-001) (184, -2.11748868227005000000e-001) (185, 5.18570542335510250000e-001) (186, 2.16099694371223450000e-001) (187, -1.18999034166336060000e-002) (188, 5.39169870316982270000e-002) (189, 5.67262828350067140000e-001) (190, -3.25794309377670290000e-001) (191, 2.69840717315673830000e-001) (192, 1.28687572479248050000e+000) (193, 3.30759555101394650000e-001) (194, -3.30208629369735720000e-001) (195, 1.35730460286140440000e-001) (196, -1.59349322319030760000e-001) (197, 7.03571081161499020000e-001) (198, 2.57787227630615230000e-001) (199, -4.22885328531265260000e-001) (200, 4.81722168624401090000e-002) (201, -5.46243727207183840000e-001) (202, 5.34915983676910400000e-001) (203, 1.83865785598754880000e-001) (204, -9.56573724746704100000e-001) (205, 3.39258700609207150000e-001) (206, 5.88513076305389400000e-001) (207, 2.63854831457138060000e-001) (208, -3.46856862306594850000e-001) (209, -1.95806980133056640000e-001) (210, -2.32235223054885860000e-001) (211, 8.27819406986236570000e-001) (212, -1.26974955201148990000e-001) (213, 4.65848505496978760000e-001) (214, -2.12000519037246700000e-001) (215, 8.26671540737152100000e-001) (216, -1.16638988256454470000e-001) (217, 2.77666747570037840000e-001) (218, -3.24394941329956050000e-001) (219, -3.08654308319091800000e-001) (220, 6.50755226612091060000e-001) (221, 2.03209072351455690000e-001) (222, 2.10902675986289980000e-001) (223, -2.21660733222961430000e-001) (224, -3.07580351829528810000e-001) (225, 1.41278758645057680000e-001) (226, -2.96474426984786990000e-001) (227, 1.42839446663856510000e-001) (228, 4.38733696937561040000e-001) (229, 5.04014045000076290000e-002) (230, -1.18034183979034420000e+000) (231, -6.51445567607879640000e-001) (232, 8.93912374973297120000e-001) (233, -4.96792569756507870000e-002) (234, 6.27751529216766360000e-001) (235, -1.43870329484343530000e-002) (236, -3.71226996183395390000e-001) (237, -6.23304605484008790000e-001) (238, -5.29517650604248050000e-001) (239, -5.41999876499176030000e-001) (240, -4.35318239033222200000e-002) (241, 2.99583345651626590000e-001) (242, 4.86022919416427610000e-001) (243, 4.39766675233840940000e-001) (244, -2.61729210615158080000e-001) (245, 6.30400240421295170000e-001) (246, 1.71384260058403020000e-001) (247, -1.18957325816154480000e-001) (248, -8.71426343917846680000e-001) (249, 3.40220071375370030000e-002) (250, 1.53836205601692200000e-001) (251, -4.79586839675903320000e-001) (252, 3.65028604865074160000e-002) (253, -5.58644998818635940000e-003) (254, 5.51639974117279050000e-001) (255, 1.20320224761962890000e+000) (256, -3.69916051626205440000e-001) (0, 4.06134426593780520000e-001) (1, 2.06271857023239140000e-001) (2, -2.08002701401710510000e-001) (3, 1.19964405894279480000e-001) (4, 5.20320311188697810000e-002) (5, -2.49450802803039550000e-001) (6, -1.13899581134319310000e-001) (7, -3.14470559358596800000e-001) (8, -1.58185794949531560000e-001) (9, 5.25683999061584470000e-001) (10, -1.23219639062881470000e-001) (11, 1.02389492094516750000e-001) (12, -4.36512351036071780000e-001) (13, -4.00366336107254030000e-001) (14, 8.03824186325073240000e-001) (15, -7.02116429805755620000e-001) (16, -2.29990750551223750000e-001) (17, 3.89517247676849370000e-001) (18, -2.46436387300491330000e-001) (19, 5.53509257733821870000e-002) (20, 3.49031031131744380000e-001) (21, 2.54773586988449100000e-001) (22, 1.38696253299713130000e-001) (23, 2.22020179033279420000e-001) (24, 7.03215777873992920000e-001) (25, 2.30902746319770810000e-001) (26, -3.36386471986770630000e-001) (27, -7.42750614881515500000e-002) (28, -1.03032875061035160000e+000) (29, -1.84104219079017640000e-001) (30, 2.20049813389778140000e-001) (31, 1.09854161739349370000e-001) (32, -1.39764890074729920000e-001) (33, 6.98240287601947780000e-003) (34, 1.08138966560363770000e+000) (35, -7.93751537799835210000e-001) (36, -1.22029699385166170000e-001) (37, 5.43682396411895750000e-001) (38, -6.34797394275665280000e-001) (39, 3.96640866994857790000e-001) (40, -2.87904500961303710000e-001) (41, -3.09935182332992550000e-001) (42, 4.02356684207916260000e-001) (43, 2.04188883304595950000e-001) (44, 1.85112655162811280000e-002) (45, 3.12382966279983520000e-001) (46, -2.51326650381088260000e-001) (47, -1.82310156524181370000e-002) (48, -5.46307414770126340000e-002) (49, 5.07852017879486080000e-001) (50, -6.43597722053527830000e-001) (51, 3.51214706897735600000e-002) (52, -9.53247725963592530000e-001) (53, 8.06217715144157410000e-002) (54, -4.37351673841476440000e-001) (55, 2.33986467123031620000e-001) (56, -3.39263498783111570000e-001) (57, 5.41780829429626460000e-001) (58, -1.12296663224697110000e-001) (59, -4.26915241405367850000e-003) (60, -4.12624299526214600000e-001) (61, -5.29840648174285890000e-001) (62, -1.66283860802650450000e-001) (63, 1.58239960670471190000e-001) (64, -3.34070533514022830000e-001) (65, -1.55464783310890200000e-001) (66, 1.76200151443481450000e-001) (67, -9.06721353530883790000e-002) (68, 8.23280096054077150000e-001) (69, -4.07840497791767120000e-002) (70, 1.51704013347625730000e-001) (71, 6.49980902671813960000e-001) (72, 2.84777432680130000000e-001) (73, -2.02125549316406250000e-001) (74, -1.11721158027648930000e-001) (75, -1.16974100470542910000e-001) (76, 5.79400479793548580000e-001) (77, -6.97452872991561890000e-002) (78, -1.15449026226997380000e-001) (79, -4.07402247190475460000e-001) (80, -3.78649443387985230000e-001) (81, -3.08233112096786500000e-001) (82, 3.72178196907043460000e-001) (83, 2.34472766518592830000e-001) (84, -4.04559165239334110000e-001) (85, 3.34324389696121220000e-001) (86, 3.18757772445678710000e-001) (87, 3.55963975191116330000e-001) (88, -1.60623565316200260000e-001) (89, 1.71773269772529600000e-001) (90, -4.86120641231536870000e-001) (91, 1.77505671977996830000e-001) (92, -5.03880083560943600000e-001) (93, 5.07162138819694520000e-002) (94, -3.05142104625701900000e-002) (95, 2.49691724777221680000e-001) (96, 9.35596004128456120000e-002) (97, 7.67526030540466310000e-001) (98, -6.10778748989105220000e-001) (99, -1.83775663375854490000e-001) (100, -8.48205015063285830000e-002) (101, -1.80965110659599300000e-001) (102, 3.77271957695484160000e-002) (103, 5.84753632545471190000e-001) (104, 4.83113974332809450000e-001) (105, -2.81451553106307980000e-001) (106, 5.48676699399948120000e-002) (107, -4.06520307064056400000e-001) (108, -4.61898088455200200000e-001) (109, 4.33032006025314330000e-001) (110, 1.39579236507415770000e-001) (111, -3.50376516580581670000e-001) (112, 5.78424274921417240000e-001) (113, -3.39654326438903810000e-001) (114, 3.43139827251434330000e-001) (115, -4.41939741373062130000e-001) (116, 6.78910434246063230000e-001) (117, -8.89841377735137940000e-001) (118, -1.07245540618896480000e+000) (119, -4.67878915369510650000e-002) (120, -5.10609328746795650000e-001) (121, 7.09113776683807370000e-002) (122, -4.50597375631332400000e-001) (123, 3.13039004802703860000e-001) (124, -1.60757839679718020000e-001) (125, -3.27513724565505980000e-001) (126, 9.25801470875740050000e-002) (127, -2.22357407212257390000e-001) (128, 1.66510269045829770000e-002) (129, -2.69847661256790160000e-001) (130, -3.92318367958068850000e-001) (131, -7.67705822363495830000e-003) (132, -9.61000844836235050000e-003) (133, 1.26014828681945800000e-001) (134, -5.36408461630344390000e-003) (135, 4.11184400320053100000e-001) (136, 4.70182716846466060000e-001) (137, 1.85072928667068480000e-001) (138, -1.55541613698005680000e-001) (139, 3.30860853195190430000e-001) (140, -3.96580249071121220000e-001) (141, -5.86058437824249270000e-001) (142, 6.86019122600555420000e-001) (143, -3.12727481126785280000e-001) (144, 2.50581115484237670000e-001) (145, 1.31560429930686950000e-001) (146, 4.03369724750518800000e-001) (147, -1.17019392549991610000e-001) (148, -2.56469070911407470000e-001) (149, -9.36583280563354490000e-001) (150, -6.95166066288948060000e-002) (151, -1.29854381084442140000e-001) (152, 3.62949699163436890000e-001) (153, -1.68191045522689820000e-002) (154, -4.06074166297912600000e-001) (155, -5.17933815717697140000e-002) (156, 4.40431088209152220000e-001) (157, 6.25970065593719480000e-001) (158, 4.38531935214996340000e-001) (159, 1.03161230683326720000e-001) (160, -7.58321657776832580000e-002) (161, 5.05980670452117920000e-001) (162, 4.56412285566329960000e-001) (163, 6.13066814839839940000e-002) (164, -1.38355478644371030000e-001) (165, 9.66802164912223820000e-002) (166, 4.81860280036926270000e-001) (167, -8.74606817960739140000e-002) (168, 6.65098667144775390000e-001) (169, -8.65776360034942630000e-001) (170, 2.54489958286285400000e-001) (171, -2.03262910246849060000e-001) (172, 2.93398290872573850000e-001) (173, -5.56884467601776120000e-001) (174, -5.92697203159332280000e-001) (175, 1.35337844491004940000e-001) (176, 1.41232445836067200000e-001) (177, -9.14221167564392090000e-001) (178, -5.47017231583595280000e-002) (179, -5.54947089403867720000e-003) (180, -4.94391471147537230000e-001) (181, 2.71249525249004360000e-002) (182, -5.84020137786865230000e-001) (183, 1.90407440066337590000e-001) (184, 1.20179161429405210000e-001) (185, -7.53903746604919430000e-001) (186, 1.12763598561286930000e-001) (187, 3.49324971437454220000e-001) (188, 2.70360678434371950000e-001) (189, 2.05845162272453310000e-001) (190, 2.20300287008285520000e-001) (191, 2.86648869514465330000e-001) (192, 1.88512146472930910000e-001) (193, 1.52510896325111390000e-001) (194, 1.65301963686943050000e-001) (195, -3.99006120860576630000e-002) (196, -2.89927542209625240000e-001) (197, -4.88729745149612430000e-001) (198, 8.81454721093177800000e-002) (199, -1.38003692030906680000e-001) (200, 5.05182705819606780000e-003) (201, -4.00876626372337340000e-002) (202, -3.81022125482559200000e-001) (203, -3.58006596565246580000e-001) (204, -1.56306382268667220000e-002) (205, -3.09595644474029540000e-001) (206, 7.33796238899230960000e-001) (207, 4.10929560661315920000e-001) (208, -6.11889898777008060000e-001) (209, 1.38864174485206600000e-001) (210, 9.32405218482017520000e-002) (211, -3.32028567790985110000e-001) (212, 2.93908238410949710000e-001) (213, -3.15304666757583620000e-001) (214, -3.40956926345825200000e-001) (215, -8.24895262718200680000e-001) (216, -7.03008025884628300000e-002) (217, 1.31781399250030520000e-001) (218, 3.30380916595458980000e-001) (219, 6.93978816270828250000e-002) (220, 5.13765037059783940000e-001) (221, -2.02346801757812500000e-001) (222, 2.94609636068344120000e-001) (223, -1.02196581661701200000e-001) (224, -8.92648398876190190000e-002) (225, -4.07403886318206790000e-001) (226, -4.38266575336456300000e-001) (227, 7.55503848195075990000e-002) (228, -5.88159747421741490000e-002) (229, 3.67959380149841310000e-001) (230, -6.04852080345153810000e-001) (231, 7.11069628596305850000e-003) (232, -4.58912670612335210000e-001) (233, 2.13332474231719970000e-001) (234, -8.13356518745422360000e-001) (235, -1.48350596427917480000e-001) (236, -1.85269638895988460000e-001) (237, 7.01001808047294620000e-002) (238, -7.34854340553283690000e-001) (239, 4.73258078098297120000e-001) (240, 4.83363270759582520000e-002) (241, 7.63363003730773930000e-001) (242, -6.54608070850372310000e-001) (243, 1.08201229572296140000e+000) (244, -4.05444711446762080000e-001) (245, 3.79464477300643920000e-001) (246, 5.98562806844711300000e-002) (247, -3.18117499351501460000e-001) (248, -2.86287665367126460000e-001) (249, 8.06709229946136470000e-001) (250, -6.45046308636665340000e-002) (251, -8.08334589004516600000e-001) (252, 6.08601152896881100000e-001) (253, -4.48343724012374880000e-001) (254, -5.13233661651611330000e-001) (255, -1.01771526038646700000e-001) (256, -4.57944512367248540000e-001) (0, 9.18677914887666700000e-003) (1, 3.22497333399951460000e-004) (2, -3.51774655282497410000e-002) (3, -9.60124284029006960000e-002) (4, -3.10349851846694950000e-001) (5, -1.19337208569049840000e-001) (6, 4.52609807252883910000e-002) (7, 1.65424272418022160000e-001) (8, -3.99199336767196660000e-001) (9, -4.37839180231094360000e-002) (10, 4.36243504285812380000e-001) (11, 1.86931937932968140000e-001) (12, 1.01374804973602290000e+000) (13, -2.61694729328155520000e-001) (14, 3.51001083850860600000e-001) (15, -5.13574481010437010000e-001) (16, -2.22349137067794800000e-001) (17, 6.53188228607177730000e-002) (18, -1.93799301981925960000e-001) (19, 2.64391452074050900000e-001) (20, -1.26327592879533770000e-002) (21, 5.06484210491180420000e-001) (22, 9.23761278390884400000e-002) (23, 2.35219448804855350000e-001) (24, 2.10212003439664840000e-002) (25, 7.52940252423286440000e-002) (26, -2.71301120519638060000e-002) (27, -6.37125000357627870000e-002) (28, 6.11660350114107130000e-003) (29, -4.13570433855056760000e-001) (30, -3.46863925457000730000e-001) (31, 1.95906907320022580000e-001) (32, -4.08967658877372740000e-002) (33, 9.19513106346130370000e-002) (34, 2.09903478622436520000e-001) (35, 3.93579676747322080000e-002) (36, 2.45435819029808040000e-001) (37, -2.52911716699600220000e-001) (38, 7.19457805156707760000e-001) (39, -3.26452761888504030000e-001) (40, -1.22541117668151860000e+000) (41, -6.42497166991233830000e-002) (42, -2.12933436036109920000e-001) (43, -1.17968365550041200000e-001) (44, 8.71806219220161440000e-002) (45, 1.43644198775291440000e-001) (46, 4.64497022330760960000e-002) (47, 2.19808787107467650000e-001) (48, -3.22355926036834720000e-002) (49, 1.83002889156341550000e-001) (50, 4.61996458470821380000e-002) (51, 4.80722263455390930000e-002) (52, -1.95783048868179320000e-001) (53, -2.10175931453704830000e-001) (54, 1.42759397625923160000e-001) (55, -7.78215289115905760000e-001) (56, -4.74434018135070800000e-001) (57, 6.48702383041381840000e-001) (58, 4.07060593366622920000e-001) (59, -1.90683826804161070000e-001) (60, 6.47443711757659910000e-001) (61, -3.15801836550235750000e-002) (62, 4.62060689926147460000e-001) (63, -2.46216177940368650000e-001) (64, 1.62202566862106320000e-001) (65, 1.32471650838851930000e-001) (66, 1.00647874176502230000e-001) (67, 2.33287572860717770000e-001) (68, -3.76992940902709960000e-001) (69, 5.62942326068878170000e-002) (70, -8.63126143813133240000e-002) (71, 4.41968381404876710000e-001) (72, -3.40132474899291990000e-001) (73, 3.25709134340286250000e-001) (74, 1.09472647309303280000e-001) (75, 2.84038573503494260000e-001) (76, 4.19505894184112550000e-001) (77, -2.18757346272468570000e-001) (78, -1.52112171053886410000e-001) (79, 1.46314680576324460000e-001) (80, -2.03625008463859560000e-001) (81, -1.01901791989803310000e-001) (82, -1.41071394085884090000e-001) (83, -4.82887141406536100000e-002) (84, -1.55872255563735960000e-001) (85, 6.14682771265506740000e-003) (86, -5.23171603679656980000e-001) (87, -3.77337634563446040000e-001) (88, 1.38450115919113160000e-001) (89, -5.80266237258911130000e-001) (90, 2.91228026151657100000e-001) (91, -1.40195399522781370000e-001) (92, -1.97575032711029050000e-001) (93, -1.91817075014114380000e-001) (94, -4.23249006271362300000e-001) (95, -2.89766788482666020000e-001) (96, 1.87724281568080190000e-003) (97, 7.55002319812774660000e-001) (98, -3.51866215467453000000e-001) (99, 9.81395184993743900000e-001) (100, -4.71151143312454220000e-001) (101, 7.38642334938049320000e-001) (102, 6.23790919780731200000e-001) (103, 5.45388720929622650000e-002) (104, -8.04909542202949520000e-002) (105, 1.42530053853988650000e-002) (106, -3.75272661447525020000e-001) (107, 3.20049375295639040000e-001) (108, -6.34128078818321230000e-002) (109, 8.67701768875122070000e-001) (110, 5.68948328495025630000e-001) (111, 9.25542056560516360000e-001) (112, 7.00086355209350590000e-001) (113, 2.53398746252059940000e-001) (114, 3.22859793901443480000e-001) (115, 3.69604915380477910000e-001) (116, -5.69406151771545410000e-002) (117, -1.22657001018524170000e-001) (118, 2.32813507318496700000e-001) (119, 2.18345671892166140000e-001) (120, 2.29395508766174320000e-001) (121, 2.94171005487442020000e-001) (122, -3.54054085910320280000e-002) (123, -5.13720452785491940000e-001) (124, 5.42100798338651660000e-003) (125, -2.19486460089683530000e-001) (126, 1.78078755736351010000e-001) (127, 2.22654581069946290000e-001) (128, -4.34786736965179440000e-001) (129, 3.49549800157547000000e-001) (130, 4.82059150934219360000e-001) (131, -5.57455480098724370000e-001) (132, -2.27361723780632020000e-001) (133, -2.97480195760726930000e-001) (134, 9.64432582259178160000e-002) (135, -5.78254699707031250000e-001) (136, 2.22838178277015690000e-001) (137, -3.33609044551849370000e-001) (138, 4.03562635183334350000e-001) (139, 3.64226773381233220000e-002) (140, 1.93198710680007930000e-001) (141, 3.01765978336334230000e-001) (142, -2.12948292493820190000e-001) (143, -4.44964379072189330000e-001) (144, 3.96220296621322630000e-001) (145, -5.42448870837688450000e-002) (146, 2.39560440182685850000e-001) (147, 2.29788437485694890000e-001) (148, 1.76793232560157780000e-001) (149, 9.07145142555236820000e-002) (150, -2.92952388525009160000e-001) (151, 6.64912024512887000000e-003) (152, 2.65866518020629880000e-001) (153, -2.82836277037858960000e-002) (154, -3.89006257057189940000e-001) (155, 1.46093547344207760000e-001) (156, -8.46667587757110600000e-001) (157, 9.45869326591491700000e-001) (158, -7.75356739759445190000e-002) (159, 5.42684495449066160000e-001) (160, -1.26813054084777830000e-001) (161, 3.25848549604415890000e-001) (162, 1.28253072500228880000e-001) (163, -1.04711681604385380000e-001) (164, -2.96984296292066570000e-002) (165, -1.92474380135536190000e-001) (166, 1.11488781869411470000e-001) (167, 4.78478044271469120000e-001) (168, -3.18537831306457520000e-001) (169, -2.54093289375305180000e-001) (170, 6.66114151477813720000e-001) (171, 3.45702581107616420000e-002) (172, -1.01731665432453160000e-001) (173, -2.15517655014991760000e-001) (174, 2.89453387260437010000e-001) (175, 9.22135114669799800000e-002) (176, -4.16327044367790220000e-002) (177, 6.60565972328186040000e-001) (178, -1.10414838790893550000e+000) (179, -4.12095159292221070000e-001) (180, -1.08620062470436100000e-001) (181, -3.51007968187332150000e-001) (182, -3.20739708840847020000e-002) (183, -1.43072411417961120000e-001) (184, -1.49638786911964420000e-001) (185, 3.77761386334896090000e-002) (186, 2.20854226499795910000e-002) (187, -4.86431717872619630000e-002) (188, 1.47291481494903560000e-001) (189, 3.98022919893264770000e-001) (190, -1.28675596788525580000e-002) (191, -3.78486782312393190000e-001) (192, 1.87714904546737670000e-001) (193, 4.32339072227478030000e-001) (194, 4.26012456417083740000e-001) (195, 2.99646377563476560000e-001) (196, 1.43125951290130620000e-001) (197, -1.80448174476623540000e-001) (198, 5.51191985607147220000e-001) (199, -4.64266687631607060000e-001) (200, 1.28809735178947450000e-001) (201, -5.75592398643493650000e-001) (202, 2.65813827514648440000e-001) (203, -5.10044515132904050000e-001) (204, -1.99095621705055240000e-001) (205, -1.69269204139709470000e-001) (206, 4.01967078447341920000e-001) (207, 2.27144643664360050000e-001) (208, 5.75122386217117310000e-002) (209, 1.25298082828521730000e-001) (210, -4.88560706377029420000e-001) (211, 3.07197809219360350000e-001) (212, 1.87683492898941040000e-001) (213, 6.42513215541839600000e-001) (214, -1.32103160023689270000e-001) (215, 3.28628808259963990000e-001) (216, -2.48263016343116760000e-001) (217, -1.24493427574634550000e-001) (218, -3.70068043470382690000e-001) (219, -9.89415273070335390000e-002) (220, -1.66774600744247440000e-001) (221, 6.83192551136016850000e-001) (222, -2.35103517770767210000e-002) (223, -7.35508739948272710000e-001) (224, -1.18983626365661620000e-001) (225, 1.26112535595893860000e-001) (226, -6.03622496128082280000e-001) (227, 7.22147226333618160000e-002) (228, -9.48181688785552980000e-001) (229, -1.32808327674865720000e-001) (230, 3.18679474294185640000e-002) (231, -4.65728253126144410000e-001) (232, 2.71873809397220610000e-002) (233, -6.95476084947586060000e-002) (234, -2.18362569808959960000e-001) (235, 6.74823164939880370000e-001) (236, -5.27773559093475340000e-001) (237, -6.62736237049102780000e-001) (238, -5.16423821449279790000e-001) (239, 4.32848662137985230000e-001) (240, 6.72128796577453610000e-002) (241, 1.85071099549531940000e-002) (242, -3.25000703334808350000e-001) (243, 2.23641902208328250000e-001) (244, -2.24544778466224670000e-001) (245, 4.42781507968902590000e-001) (246, -1.33253633975982670000e-001) (247, 5.22425711154937740000e-001) (248, 1.29153847694396970000e-001) (249, -4.95333999395370480000e-001) (250, 3.66899743676185610000e-002) (251, 7.89376199245452880000e-001) (252, -3.21433454751968380000e-001) (253, 9.60046201944351200000e-002) (254, 6.42587423324584960000e-001) (255, -7.09976971149444580000e-001) (256, 1.46553203463554380000e-001) (0, 5.81238456070423130000e-002) (1, 1.65063533931970600000e-002) (2, 5.06178259849548340000e-001) (3, -4.15985316038131710000e-001) (4, -9.01688709855079650000e-002) (5, 3.24662029743194580000e-002) (6, 6.27169549465179440000e-001) (7, -2.53270268440246580000e-001) (8, 4.59002822637557980000e-001) (9, -1.89475268125534060000e-001) (10, -3.16663056612014770000e-001) (11, -1.79479554295539860000e-001) (12, -2.65288621187210080000e-001) (13, -1.89786612987518310000e-001) (14, 6.37312889099121090000e-001) (15, 7.06143856048583980000e-001) (16, -1.39851629734039310000e-001) (17, 2.17086628079414370000e-001) (18, 9.17939022183418270000e-002) (19, -2.92738586664199830000e-001) (20, -1.24902576208114620000e-001) (21, 4.23411935567855830000e-001) (22, -2.58392572402954100000e-001) (23, 1.38834277167916300000e-002) (24, -5.82155808806419370000e-002) (25, 1.49747967720031740000e+000) (26, 3.86064857244491580000e-001) (27, -1.31162837147712710000e-001) (28, -1.31578281521797180000e-001) (29, -5.66294848918914790000e-001) (30, -3.71699333190917970000e-001) (31, -1.28757231868803500000e-003) (32, 6.29513144493103030000e-001) (33, -9.75959122180938720000e-001) (34, -3.07476460933685300000e-001) (35, -1.59550249576568600000e-001) (36, -1.24134123325347900000e-002) (37, -2.22490914165973660000e-002) (38, -2.45040267705917360000e-001) (39, 2.92816370725631710000e-001) (40, 2.19279080629348750000e-001) (41, -1.16116559505462650000e+000) (42, 3.54996293783187870000e-001) (43, 1.12216509878635410000e-001) (44, -3.24346959590911870000e-001) (45, 2.30626329779624940000e-001) (46, 1.45722150802612300000e-001) (47, -1.71693980693817140000e-001) (48, 2.31979981064796450000e-001) (49, -3.81712257862091060000e-001) (50, 7.27772116661071780000e-001) (51, 8.01304757595062260000e-001) (52, -1.35341614484786990000e-001) (53, 2.80998259782791140000e-001) (54, -7.08270311355590820000e-001) (55, -6.64930120110511780000e-002) (56, 1.39650613069534300000e-001) (57, -1.82671099901199340000e-001) (58, 1.17212608456611630000e-001) (59, 4.40456449985504150000e-001) (60, -6.68077945709228520000e-001) (61, -1.40298634767532350000e-001) (62, -2.50130832195281980000e-001) (63, 5.27636408805847170000e-001) (64, 1.86473086476325990000e-001) (65, 4.72885906696319580000e-001) (66, -9.21445429325103760000e-001) (67, -3.46074849367141720000e-001) (68, 4.51365381479263310000e-001) (69, 2.74153109639883040000e-002) (70, 1.17124862968921660000e-001) (71, -4.95994798839092250000e-002) (72, -3.99046242237091060000e-002) (73, 1.89631417393684390000e-001) (74, -3.92427980899810790000e-001) (75, 1.92818507552146910000e-001) (76, -7.11672365665435790000e-001) (77, 5.03842353820800780000e-001) (78, -4.21383887529373170000e-001) (79, 3.61937582492828370000e-001) (80, -4.71635282039642330000e-001) (81, -2.67302960157394410000e-001) (82, 1.57057821750640870000e-001) (83, -4.02787536382675170000e-001) (84, 3.28265964984893800000e-001) (85, 2.82964427024126050000e-002) (86, -2.76561647653579710000e-001) (87, 2.95269608497619630000e-001) (88, -5.07937490940093990000e-001) (89, 1.56792506575584410000e-001) (90, 8.71939718723297120000e-001) (91, -6.37068897485733030000e-002) (92, 2.57103025913238530000e-001) (93, 1.40205055475234990000e-001) (94, 6.07465624809265140000e-001) (95, -1.95484504103660580000e-001) (96, -3.84097993373870850000e-001) (97, -3.11053156852722170000e-001) (98, 7.11524412035942080000e-002) (99, 7.56291970610618590000e-002) (100, 2.94585466384887700000e-001) (101, 7.74805903434753420000e-001) (102, -4.38277661800384520000e-001) (103, -3.16293120384216310000e-001) (104, 2.03819885849952700000e-001) (105, -4.76078569889068600000e-001) (106, -6.12023957073688510000e-002) (107, 4.70987707376480100000e-001) (108, 1.00622259080410000000e-001) (109, -3.55240404605865480000e-001) (110, 1.72042734920978550000e-002) (111, 3.55381183326244350000e-002) (112, -3.80006253719329830000e-001) (113, -3.60219329595565800000e-001) (114, -2.64037519693374630000e-001) (115, -1.95219710469245910000e-001) (116, -2.48592138290405270000e-001) (117, -1.50146707892417910000e-001) (118, -5.43628811836242680000e-001) (119, 1.81378182023763660000e-002) (120, 3.26834350824356080000e-001) (121, 7.60482013225555420000e-001) (122, -3.69960546493530270000e-001) (123, -1.53503060340881350000e-001) (124, 1.20079651474952700000e-001) (125, 5.18492221832275390000e-001) (126, -8.93118321895599370000e-001) (127, -1.03089444339275360000e-001) (128, 2.20692783594131470000e-001) (129, -4.94189441204071040000e-001) (130, -2.18758225440979000000e-001) (131, -8.00099149346351620000e-002) (132, -6.22177541255950930000e-001) (133, 5.35606555640697480000e-002) (134, 5.95005393028259280000e-001) (135, 3.09838056564331050000e-001) (136, -1.73774138092994690000e-002) (137, 6.40931308269500730000e-001) (138, 1.25483930110931400000e-001) (139, -2.11089774966239930000e-001) (140, -1.75428822636604310000e-001) (141, -1.94349542260169980000e-001) (142, -3.07428953237831590000e-003) (143, -6.20243847370147710000e-001) (144, 1.51893630623817440000e-001) (145, 8.48516374826431270000e-002) (146, 1.00251929834485050000e-002) (147, 3.85535657405853270000e-001) (148, -3.06167006492614750000e-001) (149, 2.70806670188903810000e-001) (150, 4.33090925216674800000e-001) (151, 1.72352287918329240000e-002) (152, -2.74996131658554080000e-001) (153, -8.44954550266265870000e-002) (154, 1.98186766356229780000e-002) (155, 4.61957901716232300000e-001) (156, -3.63269358873367310000e-001) (157, -3.65695089101791380000e-001) (158, 1.91380381584167480000e-001) (159, 1.92459166049957280000e-001) (160, 1.15883387625217440000e-001) (161, -7.32910275459289550000e-001) (162, -6.86490163207054140000e-002) (163, 9.08382683992385860000e-002) (164, 4.42353934049606320000e-001) (165, -3.40674489736557010000e-001) (166, 9.92320328950881960000e-002) (167, 3.60132366418838500000e-001) (168, -2.72233486175537110000e-001) (169, -4.01977449655532840000e-001) (170, 5.59015199542045590000e-002) (171, -4.76916134357452390000e-001) (172, 2.84162700176239010000e-001) (173, 4.87761020660400390000e-001) (174, -3.60064238309860230000e-001) (175, -9.45739522576332090000e-002) (176, -5.83499968051910400000e-001) (177, -2.04609274864196780000e-001) (178, 5.01333177089691160000e-001) (179, -4.09148693084716800000e-001) (180, 3.80021870136260990000e-001) (181, -2.73469656705856320000e-001) (182, 4.24595415592193600000e-001) (183, -3.68239849805831910000e-001) (184, 1.54290407896041870000e-001) (185, 1.90360516309738160000e-001) (186, -1.37162759900093080000e-001) (187, 1.47394597530364990000e-001) (188, 1.71764373779296880000e-001) (189, -5.26487767696380620000e-001) (190, -4.00414586067199710000e-001) (191, 5.50239861011505130000e-001) (192, -3.84380994364619260000e-003) (193, 3.67021679878234860000e-001) (194, -1.99099525809288020000e-001) (195, -1.87783703207969670000e-001) (196, 2.49374017119407650000e-001) (197, 6.78647542372345920000e-003) (198, -1.84779763221740720000e-002) (199, -6.95188865065574650000e-002) (200, 2.70695924758911130000e-001) (201, 3.19152563810348510000e-001) (202, 5.99843740463256840000e-001) (203, -1.95335850119590760000e-001) (204, 3.69313597679138180000e-001) (205, -6.21257364749908450000e-001) (206, -9.13124203681945800000e-001) (207, -2.94575154781341550000e-001) (208, -3.12088966369628910000e-001) (209, -1.04545392096042630000e-001) (210, 4.66787874698638920000e-001) (211, 7.97775387763977050000e-002) (212, 6.87071263790130620000e-001) (213, 5.47839216887950900000e-002) (214, -2.58220314979553220000e-001) (215, -5.98910093307495120000e-001) (216, -2.52265781164169310000e-001) (217, -9.90760475397109990000e-002) (218, -4.36950802803039550000e-001) (219, -4.51867759227752690000e-001) (220, 2.48793885111808780000e-001) (221, -7.55572095513343810000e-002) (222, 1.76903992891311650000e-001) (223, 2.55369663238525390000e-001) (224, 4.21225816011428830000e-001) (225, 5.46090900897979740000e-001) (226, -1.44899711012840270000e-002) (227, 2.21871823072433470000e-001) (228, -9.68414962291717530000e-001) (229, 5.65348267555236820000e-001) (230, 4.29652303457260130000e-001) (231, 9.10934686660766600000e-001) (232, -1.02915219962596890000e-001) (233, -4.42548543214797970000e-002) (234, -9.30108726024627690000e-001) (235, -4.75062578916549680000e-001) (236, -5.81476688385009770000e-001) (237, 9.39150631427764890000e-001) (238, -7.46823102235794070000e-002) (239, -1.47772818803787230000e-001) (240, -8.88628438115119930000e-002) (241, -8.84205568581819530000e-003) (242, -1.31938323378562930000e-001) (243, -2.08388194441795350000e-001) (244, 1.37643903493881230000e-001) (245, 3.76041263341903690000e-001) (246, -1.07809320092201230000e-001) (247, 4.40133810043334960000e-001) (248, -3.40625405311584470000e-001) (249, 3.52129429578781130000e-001) (250, -3.41578960418701170000e-001) (251, 7.41425901651382450000e-003) (252, -5.39014697074890140000e-001) (253, 4.89755533635616300000e-004) (254, -2.34981313347816470000e-001) (255, 2.99972798675298690000e-002) (256, -2.68536150455474850000e-001) (0, 7.34051942825317380000e-001) (1, 1.94304004311561580000e-001) (2, -3.86810779571533200000e-001) (3, 2.31553405523300170000e-001) (4, 7.82116949558258060000e-002) (5, -6.11253142356872560000e-001) (6, -4.01422232389450070000e-001) (7, -4.55038458108901980000e-001) (8, 4.41758602857589720000e-001) (9, 1.57042652368545530000e-001) (10, -2.63648360967636110000e-001) (11, 8.56344521045684810000e-001) (12, 6.02240025997161870000e-001) (13, -3.10835570096969600000e-001) (14, 5.33544793725013730000e-002) (15, 9.76435616612434390000e-002) (16, -2.55560636520385740000e-001) (17, 1.23872160911560060000e-001) (18, 5.74333429336547850000e-001) (19, -4.05899882316589360000e-001) (20, -1.50274276733398440000e-001) (21, -1.77781447768211360000e-001) (22, 3.60386043787002560000e-001) (23, 4.58569914102554320000e-001) (24, -1.39090120792388920000e-001) (25, -5.16904704272747040000e-002) (26, -7.26698637008666990000e-001) (27, -8.76484036445617680000e-001) (28, 3.34015667438507080000e-001) (29, -1.02403008937835690000e+000) (30, 1.56172931194305420000e-001) (31, -7.19940900802612300000e-001) (32, -2.99003988504409790000e-001) (33, 5.71550905704498290000e-001) (34, -3.85462254285812380000e-001) (35, 3.57909440994262700000e-001) (36, -6.70944154262542720000e-001) (37, -7.10015773773193360000e-001) (38, 5.34831643104553220000e-001) (39, -8.78096759319305420000e-001) (40, -3.75717699527740480000e-001) (41, -2.87884056568145750000e-001) (42, 5.41427433490753170000e-001) (43, -8.76959800720214840000e-001) (44, 4.73123788833618160000e-001) (45, 2.81400948762893680000e-001) (46, 2.29736994951963420000e-002) (47, 3.18470984697341920000e-001) (48, 6.31788194179534910000e-001) (49, 