FANN_FLO_2.1
num_layers=3
learning_rate=0.700000
connection_rate=1.000000
network_type=0
learning_momentum=0.000000
training_algorithm=2
train_error_function=0
train_stop_function=0
cascade_output_change_fraction=0.010000
quickprop_decay=-0.000100
quickprop_mu=1.750000
rprop_increase_factor=1.200000
rprop_decrease_factor=0.500000
rprop_delta_min=0.000000
rprop_delta_max=50.000000
rprop_delta_zero=0.100000
cascade_output_stagnation_epochs=12
cascade_candidate_change_fraction=0.010000
cascade_candidate_stagnation_epochs=12
cascade_max_out_epochs=150
cascade_min_out_epochs=50
cascade_max_cand_epochs=150
cascade_min_cand_epochs=50
cascade_num_candidate_groups=2
bit_fail_limit=3.49999994039535520000e-001
cascade_candidate_limit=1.00000000000000000000e+003
cascade_weight_multiplier=4.00000005960464480000e-001
cascade_activation_functions_count=10
cascade_activation_functions=3 5 7 8 10 11 14 15 16 17 
cascade_activation_steepnesses_count=4
cascade_activation_steepnesses=2.50000000000000000000e-001 5.00000000000000000000e-001 7.50000000000000000000e-001 1.00000000000000000000e+000 
layer_sizes=257 81 96 
scale_included=0
neurons (num_inputs, activation_function, activation_steepness)=(0, 0, 0.00000000000000000000e+000) (0, 0, 0.00000000000000000000e+000) (0, 0, 0.00000000000000000000e+000) (0, 0, 0.00000000000000000000e+000) (0, 0, 0.00000000000000000000e+000) (0, 0, 0.00000000000000000000e+000) (0, 0, 0.00000000000000000000e+000) (0, 0, 0.00000000000000000000e+000) (0, 0, 0.00000000000000000000e+000) (0, 0, 0.00000000000000000000e+000) (0, 0, 0.00000000000000000000e+000) (0, 0, 0.00000000000000000000e+000) (0, 0, 0.00000000000000000000e+000) (0, 0, 0.00000000000000000000e+000) (0, 0, 0.00000000000000000000e+000) (0, 0, 0.00000000000000000000e+000) (0, 0, 0.00000000000000000000e+000) (0, 0, 0.00000000000000000000e+000) (0, 0, 0.00000000000000000000e+000) (0, 0, 0.00000000000000000000e+000) (0, 0, 0.00000000000000000000e+000) (0, 0, 0.00000000000000000000e+000) (0, 0, 0.00000000000000000000e+000) (0, 0, 0.00000000000000000000e+000) (0, 0, 0.00000000000000000000e+000) (0, 0, 0.00000000000000000000e+000) (0, 0, 0.00000000000000000000e+000) (0, 0, 0.00000000000000000000e+000) (0, 0, 0.00000000000000000000e+000) (0, 0, 0.00000000000000000000e+000) (0, 0, 0.00000000000000000000e+000) (0, 0, 0.00000000000000000000e+000) (0, 0, 0.00000000000000000000e+000) (0, 0, 0.00000000000000000000e+000) (0, 0, 0.00000000000000000000e+000) (0, 0, 0.00000000000000000000e+000) (0, 0, 0.00000000000000000000e+000) (0, 0, 0.00000000000000000000e+000) (0, 0, 0.00000000000000000000e+000) (0, 0, 0.00000000000000000000e+000) (0, 0, 0.00000000000000000000e+000) (0, 0, 0.00000000000000000000e+000) (0, 0, 0.00000000000000000000e+000) (0, 0, 0.00000000000000000000e+000) (0, 0, 0.00000000000000000000e+000) (0, 0, 0.00000000000000000000e+000) (0, 0, 0.00000000000000000000e+000) (0, 0, 0.00000000000000000000e+000) (0, 0, 0.00000000000000000000e+000) (0, 0, 0.00000000000000000000e+000) (0, 0, 0.00000000000000000000e+000) (0, 0, 0.00000000000000000000e+000) (0, 0, 0.00000000000000000000e+000) (0, 0, 0.00000000000000000000e+000) (0, 0, 0.00000000000000000000e+000) (0, 0, 0.00000000000000000000e+000) (0, 0, 0.00000000000000000000e+000) (0, 0, 0.00000000000000000000e+000) (0, 0, 0.00000000000000000000e+000) (0, 0, 0.00000000000000000000e+000) (0, 0, 0.00000000000000000000e+000) (0, 0, 0.00000000000000000000e+000) (0, 0, 0.00000000000000000000e+000) (0, 0, 0.00000000000000000000e+000) (0, 0, 0.00000000000000000000e+000) (0, 0, 0.00000000000000000000e+000) (0, 0, 0.00000000000000000000e+000) (0, 0, 0.00000000000000000000e+000) (0, 0, 0.00000000000000000000e+000) (0, 0, 0.00000000000000000000e+000) (0, 0, 0.00000000000000000000e+000) (0, 0, 0.00000000000000000000e+000) (0, 0, 0.00000000000000000000e+000) (0, 0, 0.00000000000000000000e+000) (0, 0, 0.00000000000000000000e+000) (0, 0, 0.00000000000000000000e+000) (0, 0, 0.00000000000000000000e+000) (0, 0, 0.00000000000000000000e+000) (0, 0, 0.00000000000000000000e+000) (0, 0, 0.00000000000000000000e+000) (0, 0, 0.00000000000000000000e+000) (0, 0, 0.00000000000000000000e+000) (0, 0, 0.00000000000000000000e+000) (0, 0, 0.00000000000000000000e+000) (0, 0, 0.00000000000000000000e+000) (0, 0, 0.00000000000000000000e+000) (0, 0, 0.00000000000000000000e+000) (0, 0, 0.00000000000000000000e+000) (0, 0, 0.00000000000000000000e+000) (0, 0, 0.00000000000000000000e+000) (0, 0, 0.00000000000000000000e+000) (0, 0, 0.00000000000000000000e+000) (0, 0, 0.00000000000000000000e+000) (0, 0, 0.00000000000000000000e+000) (0, 0, 0.00000000000000000000e+000) (0, 0, 0.00000000000000000000e+000) (0, 0, 0.00000000000000000000e+000) (0, 0, 0.00000000000000000000e+000) (0, 0, 0.00000000000000000000e+000) (0, 0, 0.00000000000000000000e+000) (0, 0, 0.00000000000000000000e+000) (0, 0, 0.00000000000000000000e+000) (0, 0, 0.00000000000000000000e+000) (0, 0, 0.00000000000000000000e+000) (0, 0, 0.00000000000000000000e+000) (0, 0, 0.00000000000000000000e+000) (0, 0, 0.00000000000000000000e+000) (0, 0, 0.00000000000000000000e+000) (0, 0, 0.00000000000000000000e+000) (0, 0, 0.00000000000000000000e+000) (0, 0, 0.00000000000000000000e+000) (0, 0, 0.00000000000000000000e+000) (0, 0, 0.00000000000000000000e+000) (0, 0, 0.00000000000000000000e+000) (0, 0, 0.00000000000000000000e+000) (0, 0, 0.00000000000000000000e+000) (0, 0, 0.00000000000000000000e+000) (0, 0, 0.00000000000000000000e+000) (0, 0, 0.00000000000000000000e+000) (0, 0, 0.00000000000000000000e+000) (0, 0, 0.00000000000000000000e+000) (0, 0, 0.00000000000000000000e+000) (0, 0, 0.00000000000000000000e+000) (0, 0, 0.00000000000000000000e+000) (0, 0, 0.00000000000000000000e+000) (0, 0, 0.00000000000000000000e+000) (0, 0, 0.00000000000000000000e+000) (0, 0, 0.00000000000000000000e+000) (0, 0, 0.00000000000000000000e+000) (0, 0, 0.00000000000000000000e+000) (0, 0, 0.00000000000000000000e+000) (0, 0, 0.00000000000000000000e+000) (0, 0, 0.00000000000000000000e+000) (0, 0, 0.00000000000000000000e+000) (0, 0, 0.00000000000000000000e+000) (0, 0, 0.00000000000000000000e+000) (0, 0, 0.00000000000000000000e+000) (0, 0, 0.00000000000000000000e+000) (0, 0, 0.00000000000000000000e+000) (0, 0, 0.00000000000000000000e+000) (0, 0, 0.00000000000000000000e+000) (0, 0, 0.00000000000000000000e+000) (0, 0, 0.00000000000000000000e+000) (0, 0, 0.00000000000000000000e+000) (0, 0, 0.00000000000000000000e+000) (0, 0, 0.00000000000000000000e+000) (0, 0, 0.00000000000000000000e+000) (0, 0, 0.00000000000000000000e+000) (0, 0, 0.00000000000000000000e+000) (0, 0, 0.00000000000000000000e+000) (0, 0, 0.00000000000000000000e+000) (0, 0, 0.00000000000000000000e+000) (0, 0, 0.00000000000000000000e+000) (0, 0, 0.00000000000000000000e+000) (0, 0, 0.00000000000000000000e+000) (0, 0, 0.00000000000000000000e+000) (0, 0, 0.00000000000000000000e+000) (0, 0, 0.00000000000000000000e+000) (0, 0, 0.00000000000000000000e+000) (0, 0, 0.00000000000000000000e+000) (0, 0, 0.00000000000000000000e+000) (0, 0, 0.00000000000000000000e+000) (0, 0, 0.00000000000000000000e+000) (0, 0, 0.00000000000000000000e+000) (0, 0, 0.00000000000000000000e+000) (0, 0, 0.00000000000000000000e+000) (0, 0, 0.00000000000000000000e+000) (0, 0, 0.00000000000000000000e+000) (0, 0, 0.00000000000000000000e+000) (0, 0, 0.00000000000000000000e+000) (0, 0, 0.00000000000000000000e+000) (0, 0, 0.00000000000000000000e+000) (0, 0, 0.00000000000000000000e+000) (0, 0, 0.00000000000000000000e+000) (0, 0, 0.00000000000000000000e+000) (0, 0, 0.00000000000000000000e+000) (0, 0, 0.00000000000000000000e+000) (0, 0, 0.00000000000000000000e+000) (0, 0, 0.00000000000000000000e+000) (0, 0, 0.00000000000000000000e+000) (0, 0, 0.00000000000000000000e+000) (0, 0, 0.00000000000000000000e+000) (0, 0, 0.00000000000000000000e+000) (0, 0, 0.00000000000000000000e+000) (0, 0, 0.00000000000000000000e+000) (0, 0, 0.00000000000000000000e+000) (0, 0, 0.00000000000000000000e+000) (0, 0, 0.00000000000000000000e+000) (0, 0, 0.00000000000000000000e+000) (0, 0, 0.00000000000000000000e+000) (0, 0, 0.00000000000000000000e+000) (0, 0, 0.00000000000000000000e+000) (0, 0, 0.00000000000000000000e+000) (0, 0, 0.00000000000000000000e+000) (0, 0, 0.00000000000000000000e+000) (0, 0, 0.00000000000000000000e+000) (0, 0, 0.00000000000000000000e+000) (0, 0, 0.00000000000000000000e+000) (0, 0, 0.00000000000000000000e+000) (0, 0, 0.00000000000000000000e+000) (0, 0, 0.00000000000000000000e+000) (0, 0, 0.00000000000000000000e+000) (0, 0, 0.00000000000000000000e+000) (0, 0, 0.00000000000000000000e+000) (0, 0, 0.00000000000000000000e+000) (0, 0, 0.00000000000000000000e+000) (0, 0, 0.00000000000000000000e+000) (0, 0, 0.00000000000000000000e+000) (0, 0, 0.00000000000000000000e+000) (0, 0, 0.00000000000000000000e+000) (0, 0, 0.00000000000000000000e+000) (0, 0, 0.00000000000000000000e+000) (0, 0, 0.00000000000000000000e+000) (0, 0, 0.00000000000000000000e+000) (0, 0, 0.00000000000000000000e+000) (0, 0, 0.00000000000000000000e+000) (0, 0, 0.00000000000000000000e+000) (0, 0, 0.00000000000000000000e+000) (0, 0, 0.00000000000000000000e+000) (0, 0, 0.00000000000000000000e+000) (0, 0, 0.00000000000000000000e+000) (0, 0, 0.00000000000000000000e+000) (0, 0, 0.00000000000000000000e+000) (0, 0, 0.00000000000000000000e+000) (0, 0, 0.00000000000000000000e+000) (0, 0, 0.00000000000000000000e+000) (0, 0, 0.00000000000000000000e+000) (0, 0, 0.00000000000000000000e+000) (0, 0, 0.00000000000000000000e+000) (0, 0, 0.00000000000000000000e+000) (0, 0, 0.00000000000000000000e+000) (0, 0, 0.00000000000000000000e+000) (0, 0, 0.00000000000000000000e+000) (0, 0, 0.00000000000000000000e+000) (0, 0, 0.00000000000000000000e+000) (0, 0, 0.00000000000000000000e+000) (0, 0, 0.00000000000000000000e+000) (0, 0, 0.00000000000000000000e+000) (0, 0, 0.00000000000000000000e+000) (0, 0, 0.00000000000000000000e+000) (0, 0, 0.00000000000000000000e+000) (0, 0, 0.00000000000000000000e+000) (0, 0, 0.00000000000000000000e+000) (0, 0, 0.00000000000000000000e+000) (0, 0, 0.00000000000000000000e+000) (0, 0, 0.00000000000000000000e+000) (0, 0, 0.00000000000000000000e+000) (0, 0, 0.00000000000000000000e+000) (0, 0, 0.00000000000000000000e+000) (0, 0, 0.00000000000000000000e+000) (0, 0, 0.00000000000000000000e+000) (0, 0, 0.00000000000000000000e+000) (0, 0, 0.00000000000000000000e+000) (0, 0, 0.00000000000000000000e+000) (0, 0, 0.00000000000000000000e+000) (0, 0, 0.00000000000000000000e+000) (0, 0, 0.00000000000000000000e+000) (257, 10, 5.00000000000000000000e-001) (257, 10, 5.00000000000000000000e-001) (257, 10, 5.00000000000000000000e-001) (257, 10, 5.00000000000000000000e-001) (257, 10, 5.00000000000000000000e-001) (257, 10, 5.00000000000000000000e-001) (257, 10, 5.00000000000000000000e-001) (257, 10, 5.00000000000000000000e-001) (257, 10, 5.00000000000000000000e-001) (257, 10, 5.00000000000000000000e-001) (257, 10, 5.00000000000000000000e-001) (257, 10, 5.00000000000000000000e-001) (257, 10, 5.00000000000000000000e-001) (257, 10, 5.00000000000000000000e-001) (257, 10, 5.00000000000000000000e-001) (257, 10, 5.00000000000000000000e-001) (257, 10, 5.00000000000000000000e-001) (257, 10, 5.00000000000000000000e-001) (257, 10, 5.00000000000000000000e-001) (257, 10, 5.00000000000000000000e-001) (257, 10, 5.00000000000000000000e-001) (257, 10, 5.00000000000000000000e-001) (257, 10, 5.00000000000000000000e-001) (257, 10, 5.00000000000000000000e-001) (257, 10, 5.00000000000000000000e-001) (257, 10, 5.00000000000000000000e-001) (257, 10, 5.00000000000000000000e-001) (257, 10, 5.00000000000000000000e-001) (257, 10, 5.00000000000000000000e-001) (257, 10, 5.00000000000000000000e-001) (257, 10, 5.00000000000000000000e-001) (257, 10, 5.00000000000000000000e-001) (257, 10, 5.00000000000000000000e-001) (257, 10, 5.00000000000000000000e-001) (257, 10, 5.00000000000000000000e-001) (257, 10, 5.00000000000000000000e-001) (257, 10, 5.00000000000000000000e-001) (257, 10, 5.00000000000000000000e-001) (257, 10, 5.00000000000000000000e-001) (257, 10, 5.00000000000000000000e-001) (257, 10, 5.00000000000000000000e-001) (257, 10, 5.00000000000000000000e-001) (257, 10, 5.00000000000000000000e-001) (257, 10, 5.00000000000000000000e-001) (257, 10, 5.00000000000000000000e-001) (257, 10, 5.00000000000000000000e-001) (257, 10, 5.00000000000000000000e-001) (257, 10, 5.00000000000000000000e-001) (257, 10, 5.00000000000000000000e-001) (257, 10, 5.00000000000000000000e-001) (257, 10, 5.00000000000000000000e-001) (257, 10, 5.00000000000000000000e-001) (257, 10, 5.00000000000000000000e-001) (257, 10, 5.00000000000000000000e-001) (257, 10, 5.00000000000000000000e-001) (257, 10, 5.00000000000000000000e-001) (257, 10, 5.00000000000000000000e-001) (257, 10, 5.00000000000000000000e-001) (257, 10, 5.00000000000000000000e-001) (257, 10, 5.00000000000000000000e-001) (257, 10, 5.00000000000000000000e-001) (257, 10, 5.00000000000000000000e-001) (257, 10, 5.00000000000000000000e-001) (257, 10, 5.00000000000000000000e-001) (257, 10, 5.00000000000000000000e-001) (257, 10, 5.00000000000000000000e-001) (257, 10, 5.00000000000000000000e-001) (257, 10, 5.00000000000000000000e-001) (257, 10, 5.00000000000000000000e-001) (257, 10, 5.00000000000000000000e-001) (257, 10, 5.00000000000000000000e-001) (257, 10, 5.00000000000000000000e-001) (257, 10, 5.00000000000000000000e-001) (257, 10, 5.00000000000000000000e-001) (257, 10, 5.00000000000000000000e-001) (257, 10, 5.00000000000000000000e-001) (257, 10, 5.00000000000000000000e-001) (257, 10, 5.00000000000000000000e-001) (257, 10, 5.00000000000000000000e-001) (257, 10, 5.00000000000000000000e-001) (0, 10, 5.00000000000000000000e-001) (81, 5, 5.00000000000000000000e-001) (81, 5, 5.00000000000000000000e-001) (81, 5, 5.00000000000000000000e-001) (81, 5, 5.00000000000000000000e-001) (81, 5, 5.00000000000000000000e-001) (81, 5, 5.00000000000000000000e-001) (81, 5, 5.00000000000000000000e-001) (81, 5, 5.00000000000000000000e-001) (81, 5, 5.00000000000000000000e-001) (81, 5, 5.00000000000000000000e-001) (81, 5, 5.00000000000000000000e-001) (81, 5, 5.00000000000000000000e-001) (81, 5, 5.00000000000000000000e-001) (81, 5, 5.00000000000000000000e-001) (81, 5, 5.00000000000000000000e-001) (81, 5, 5.00000000000000000000e-001) (81, 5, 5.00000000000000000000e-001) (81, 5, 5.00000000000000000000e-001) (81, 5, 5.00000000000000000000e-001) (81, 5, 5.00000000000000000000e-001) (81, 5, 5.00000000000000000000e-001) (81, 5, 5.00000000000000000000e-001) (81, 5, 5.00000000000000000000e-001) (81, 5, 5.00000000000000000000e-001) (81, 5, 5.00000000000000000000e-001) (81, 5, 5.00000000000000000000e-001) (81, 5, 5.00000000000000000000e-001) (81, 5, 5.00000000000000000000e-001) (81, 5, 5.00000000000000000000e-001) (81, 5, 5.00000000000000000000e-001) (81, 5, 5.00000000000000000000e-001) (81, 5, 5.00000000000000000000e-001) (81, 5, 5.00000000000000000000e-001) (81, 5, 5.00000000000000000000e-001) (81, 5, 5.00000000000000000000e-001) (81, 5, 5.00000000000000000000e-001) (81, 5, 5.00000000000000000000e-001) (81, 5, 5.00000000000000000000e-001) (81, 5, 5.00000000000000000000e-001) (81, 5, 5.00000000000000000000e-001) (81, 5, 5.00000000000000000000e-001) (81, 5, 5.00000000000000000000e-001) (81, 5, 5.00000000000000000000e-001) (81, 5, 5.00000000000000000000e-001) (81, 5, 5.00000000000000000000e-001) (81, 5, 5.00000000000000000000e-001) (81, 5, 5.00000000000000000000e-001) (81, 5, 5.00000000000000000000e-001) (81, 5, 5.00000000000000000000e-001) (81, 5, 5.00000000000000000000e-001) (81, 5, 5.00000000000000000000e-001) (81, 5, 5.00000000000000000000e-001) (81, 5, 5.00000000000000000000e-001) (81, 5, 5.00000000000000000000e-001) (81, 5, 5.00000000000000000000e-001) (81, 5, 5.00000000000000000000e-001) (81, 5, 5.00000000000000000000e-001) (81, 5, 5.00000000000000000000e-001) (81, 5, 5.00000000000000000000e-001) (81, 5, 5.00000000000000000000e-001) (81, 5, 5.00000000000000000000e-001) (81, 5, 5.00000000000000000000e-001) (81, 5, 5.00000000000000000000e-001) (81, 5, 5.00000000000000000000e-001) (81, 5, 5.00000000000000000000e-001) (81, 5, 5.00000000000000000000e-001) (81, 5, 5.00000000000000000000e-001) (81, 5, 5.00000000000000000000e-001) (81, 5, 5.00000000000000000000e-001) (81, 5, 5.00000000000000000000e-001) (81, 5, 5.00000000000000000000e-001) (81, 5, 5.00000000000000000000e-001) (81, 5, 5.00000000000000000000e-001) (81, 5, 5.00000000000000000000e-001) (81, 5, 5.00000000000000000000e-001) (81, 5, 5.00000000000000000000e-001) (81, 5, 5.00000000000000000000e-001) (81, 5, 5.00000000000000000000e-001) (81, 5, 5.00000000000000000000e-001) (81, 5, 5.00000000000000000000e-001) (81, 5, 5.00000000000000000000e-001) (81, 5, 5.00000000000000000000e-001) (81, 5, 5.00000000000000000000e-001) (81, 5, 5.00000000000000000000e-001) (81, 5, 5.00000000000000000000e-001) (81, 5, 5.00000000000000000000e-001) (81, 5, 5.00000000000000000000e-001) (81, 5, 5.00000000000000000000e-001) (81, 5, 5.00000000000000000000e-001) (81, 5, 5.00000000000000000000e-001) (81, 5, 5.00000000000000000000e-001) (81, 5, 5.00000000000000000000e-001) (81, 5, 5.00000000000000000000e-001) (81, 5, 5.00000000000000000000e-001) (81, 5, 5.00000000000000000000e-001) (0, 5, 5.00000000000000000000e-001) 
connections (connected_to_neuron, weight)=(0, -1.34181365966796870000e+002) (1, -5.62118577957153320000e+000) (2, -4.80690050125122070000e+000) (3, 4.00102958679199220000e+001) (4, 5.84556427001953130000e+001) (5, -2.19814422607421870000e+002) (6, 1.23667015075683590000e+002) (7, -3.48766174316406250000e+001) (8, -1.68509464263916020000e+001) (9, 2.02480220794677730000e+000) (10, -2.62054805755615230000e+001) (11, 3.75079822540283200000e+000) (12, 2.50217170715332030000e+001) (13, -1.97477127075195310000e+002) (14, -1.50000000000000000000e+003) (15, -2.86882476806640620000e+001) (16, -2.75856246948242190000e+001) (17, -4.37678956985473630000e+000) (18, -2.60612201690673830000e+000) (19, 2.03069839477539060000e+001) (20, 2.88966035842895510000e+000) (21, 1.57735490798950200000e+000) (22, 5.80218029022216800000e+000) (23, -5.90350341796875000000e+000) (24, -8.93543064594268800000e-002) (25, 4.01878833770751950000e+000) (26, -5.51286792755126950000e+000) (27, -5.55207443237304690000e+000) (28, -1.79655158519744870000e+000) (29, -8.76424121856689450000e+000) (30, -2.94399223327636720000e+001) (31, -1.29110298156738280000e+001) (32, -2.04388523101806640000e+000) (33, -6.48307418823242190000e+000) (34, -1.71626777648925780000e+001) (35, -1.35161581039428710000e+001) (36, -5.66112804412841800000e+000) (37, 2.31883287429809570000e-001) (38, -8.14316749572753910000e+000) (39, 9.11887073516845700000e+000) (40, -1.74652993679046630000e+000) (41, -2.78751873970031740000e+000) (42, -9.37342107295989990000e-001) (43, -3.29260706901550290000e+000) (44, -6.04869842529296870000e+000) (45, 1.58416366577148440000e+001) (46, -4.93472909927368160000e+000) (47, -7.36939489841461180000e-001) (48, 8.30777549743652340000e+000) (49, -4.65458297729492190000e+001) (50, -2.44434066772460940000e+002) (51, -2.17743721008300780000e+001) (52, -1.53180141448974610000e+001) (53, -1.13337764739990230000e+001) (54, -1.31565914154052730000e+001) (55, 1.55783195495605470000e+001) (56, 4.95928497314453130000e+001) (57, 4.36690896749496460000e-001) (58, 2.93034702539443970000e-001) (59, 1.43084888458251950000e+001) (60, -6.74761352539062500000e+001) (61, -1.39094133377075200000e+001) (62, 1.12907922267913820000e+000) (63, -4.83754062652587890000e+000) (64, 1.83158912658691410000e+001) (65, -1.77496013641357420000e+001) (66, 6.76430821418762210000e-001) (67, -1.50000000000000000000e+003) (68, 2.96683645248413090000e+000) (69, 2.68235054016113280000e+001) (70, -1.47271682739257810000e+002) (71, 5.46770324707031250000e+001) (72, -7.71268768310546880000e+001) (73, 2.18969402313232420000e+001) (74, -5.53796529769897460000e+000) (75, 1.01737155914306640000e+001) (76, 7.16466856002807620000e+000) (77, 5.57269382476806640000e+000) (78, 3.30762076377868650000e+000) (79, 3.56745028495788570000e+000) (80, -2.10625004768371580000e+000) (81, 1.94197902679443360000e+001) (82, 4.19500160217285160000e+001) (83, -3.81597328186035160000e+001) (84, 3.70028710365295410000e+000) (85, 5.37568397521972660000e+001) (86, -3.33058357238769530000e+001) (87, -9.28041915893554690000e+001) (88, -4.82656173706054690000e+001) (89, 3.72892608642578130000e+001) (90, -4.33759927749633790000e+000) (91, 6.43173742294311520000e+000) (92, 5.04626893997192380000e+000) (93, 3.60290312767028810000e+000) (94, 4.89890193939208980000e+000) (95, -1.94266188144683840000e+000) (96, -9.09644317626953120000e+001) (97, -1.57317190170288090000e+001) (98, 2.84872460365295410000e+000) (99, -6.36430969238281250000e+001) (100, 1.17228679656982420000e+001) (101, -8.13206386566162110000e+000) (102, -6.41001987457275390000e+000) (103, 2.44248523712158200000e+001) (104, 3.64350471496582030000e+001) (105, 4.43595046997070310000e+001) (106, 1.23628330230712890000e+001) (107, 9.73266124725341800000e+000) (108, 8.92801952362060550000e+000) (109, 4.70191049575805660000e+000) (110, 5.89146792888641360000e-001) (111, 7.73904228210449220000e+000) (112, -3.02577934265136720000e+001) (113, -6.71884775161743160000e+000) (114, 9.29948616027832030000e+000) (115, -1.94469356536865230000e+001) (116, -1.85465204715728760000e+000) (117, 2.93497872352600100000e+000) (118, -1.20401792526245120000e+001) (119, 5.30053186416625980000e+000) (120, -1.90433731079101560000e+001) (121, -1.21668357849121090000e+001) (122, 1.28679533004760740000e+001) (123, 2.44283366203308110000e+000) (124, 2.94094324111938480000e+000) (125, -2.50429540872573850000e-001) (126, 9.87455666065216060000e-001) (127, -1.55182676315307620000e+001) (128, -3.35800285339355470000e+001) (129, -7.00608015060424800000e+000) (130, 3.32224774360656740000e+000) (131, -2.57382049560546870000e+001) (132, 2.02858710289001460000e+000) (133, 7.12487077713012700000e+000) (134, 2.76598033905029300000e+001) (135, 2.33313846588134770000e+000) (136, -9.24125671386718750000e+000) (137, -1.18059282302856450000e+001) (138, 3.18588781356811520000e+000) (139, 3.18741822242736820000e+000) (140, 7.01556921005249020000e+000) (141, 5.45307350158691410000e+000) (142, 5.64181447029113770000e-001) (143, -4.07208710908889770000e-001) (144, 2.17843856811523440000e+001) (145, -1.37649983167648320000e-001) (146, 3.57977342605590820000e+000) (147, 1.62936000823974610000e+001) (148, 2.67637324333190920000e+000) (149, 1.94169578552246090000e+001) (150, -1.30139122009277340000e+001) (151, -5.63778209686279300000e+000) (152, -5.29719448089599610000e+000) (153, -8.19929218292236330000e+000) (154, -4.66209948062896730000e-002) (155, 1.69032168388366700000e+000) (156, 2.35850071907043460000e+000) (157, 2.79628419876098630000e+000) (158, 4.23408746719360350000e+000) (159, -3.35872125625610350000e+000) (160, 6.19314050674438480000e+000) (161, -4.74844408035278320000e+000) (162, 3.16394281387329100000e+000) (163, 4.53366584777832030000e+001) (164, 3.46862125396728520000e+000) (165, -6.67903470993041990000e+000) (166, -7.42341995239257810000e+001) (167, 2.70730266571044920000e+001) (168, 3.73881578445434570000e+000) (169, 1.82021605968475340000e+000) (170, 2.34645633697509770000e+001) (171, 7.79044485092163090000e+000) (172, 8.48415470123291020000e+000) (173, 6.56214666366577150000e+000) (174, 5.47528314590454100000e+000) (175, 3.76073884963989260000e+000) (176, -2.59926635742187500000e+002) (177, 8.86501922607421880000e+001) (178, 3.52875685691833500000e+000) (179, -1.23666083812713620000e+000) (180, -7.49953746795654300000e+000) (181, 5.94348382949829100000e+000) (182, 5.36285972595214840000e+000) (183, -3.17681941986083980000e+001) (184, 1.23436719179153440000e-001) (185, 2.30783507227897640000e-001) (186, 1.75040416717529300000e+001) (187, 4.57420778274536130000e+000) (188, 5.17772102355957030000e+000) (189, 2.89461350440979000000e+000) (190, -2.84019794464111330000e+001) (191, 9.86514816284179690000e+001) (192, -1.49995117187500000000e+003) (193, -4.10789764404296870000e+002) (194, -6.44904422760009770000e+000) (195, -1.06510276794433590000e+001) (196, 7.79752063751220700000e+000) (197, 4.10845470428466800000e+000) (198, 3.12675833702087400000e+000) (199, -1.17521867752075200000e+001) (200, 4.71807098388671870000e+000) (201, 5.28800725936889650000e+000) (202, 2.32723757624626160000e-001) (203, 1.67067483067512510000e-001) (204, 2.50835716724395750000e-001) (205, -2.12376758456230160000e-001) (206, -1.00065040588378910000e+002) (207, -1.28892135620117190000e+001) (208, 1.19891212463378910000e+002) (209, -2.89194049835205080000e+001) (210, -1.25692806243896480000e+001) (211, 4.90856742858886720000e+000) (212, -6.89759826660156250000e+000) (213, 3.34462666511535640000e+000) (214, 3.43164730072021480000e+000) (215, 5.24732303619384770000e+000) (216, 4.84227657318115230000e+000) (217, 5.16388797760009770000e+000) (218, 7.33139514923095700000e+000) (219, 4.13529300689697270000e+000) (220, 1.00460729598999020000e+001) (221, -3.22492645263671880000e+002) (222, -3.17212238311767580000e+001) (223, 3.03177764892578120000e+002) (224, -3.82943572998046880000e+001) (225, 1.21489791870117190000e+001) (226, -1.97827112674713130000e+000) (227, -1.83550786972045900000e+000) (228, 1.49206531047821040000e+000) (229, 4.18738269805908200000e+000) (230, 5.34485864639282230000e+000) (231, -3.91704350709915160000e-001) (232, 5.75323534011840820000e+000) (233, 5.76008653640747070000e+000) (234, 5.12379884719848630000e+000) (235, 3.95012831687927250000e+000) (236, -2.25739105224609370000e+002) (237, -1.71405899047851560000e+002) (238, -1.20890655517578120000e+002) (239, -2.93058563232421870000e+002) (240, -4.99490318298339840000e+001) (241, -5.33688392639160160000e+001) (242, 6.33224716186523440000e+001) (243, -1.65504745483398440000e+002) (244, 1.25280904769897460000e+001) (245, 2.66608734130859370000e+001) (246, 4.66526985168457030000e+000) (247, 3.81612563133239750000e+000) (248, 1.01563663482666020000e+001) (249, 1.07496738433837890000e+001) (250, -8.54187297821044920000e+000) (251, 2.40271701812744140000e+001) (252, 4.33012390136718750000e+002) (253, 9.31305389404296880000e+001) (254, 6.30110664367675780000e+001) (255, -3.09544281005859370000e+002) (256, -3.55158591270446780000e+000) (0, 4.47641134262084960000e+000) (1, -7.13505220413208010000e+000) (2, 2.16170907020568850000e+000) (3, -2.02451801300048830000e+000) (4, -2.00901699066162110000e+001) (5, -2.63569736480712890000e+000) (6, -7.27812862396240230000e+000) (7, -1.04765958786010740000e+001) (8, 1.97669535875320430000e-001) (9, -7.16264581680297850000e+000) (10, -1.83007698059082030000e+001) (11, -1.23172512054443360000e+001) (12, -5.73451876640319820000e-001) (13, 1.25110876560211180000e+000) (14, -4.66508522033691410000e+001) (15, 3.55191421508789060000e+001) (16, 1.51163852214813230000e+000) (17, 2.99059844017028810000e+000) (18, 1.40361893177032470000e+000) (19, 1.68781876564025880000e-002) (20, 6.44875705242156980000e-001) (21, 1.25086617469787600000e+000) (22, -1.30021595954895020000e+000) (23, -3.77615481615066530000e-001) (24, -6.87723010778427120000e-002) (25, 5.66922068595886230000e-001) (26, 3.68464159965515140000e+000) (27, 3.27607440948486330000e+000) (28, -7.72741198539733890000e-001) (29, -2.61848020553588870000e+000) (30, 2.28122997283935550000e+000) (31, -3.27060890197753910000e+000) (32, 1.11482572555541990000e+001) (33, 2.40436315536499020000e+000) (34, 1.63672935962677000000e+000) (35, -9.77304637432098390000e-001) (36, 1.71316468715667720000e+000) (37, -1.29208758473396300000e-001) (38, -1.94378423690795900000e+000) (39, 1.76960778236389160000e+000) (40, -1.73179820179939270000e-001) (41, 7.09432139992713930000e-002) (42, -8.03956091403961180000e-001) (43, 2.48993802070617680000e+000) (44, -1.88385319709777830000e+000) (45, 9.66548824310302730000e+000) (46, -5.87104022502899170000e-001) (47, -5.94837141036987300000e+000) (48, 6.92038595676422120000e-001) (49, 8.43473732471466060000e-001) (50, 7.93969988822937010000e-001) (51, 5.03028774261474610000e+000) (52, 4.62011322379112240000e-002) (53, 2.30276584625244140000e-001) (54, -1.38244259357452390000e+000) (55, 6.25770151615142820000e-001) (56, -3.08811974525451660000e+000) (57, -1.54949176311492920000e+000) (58, -1.98420619964599610000e+000) (59, 1.55918951034545900000e+001) (60, -5.75680694580078130000e+001) (61, 4.79459911584854130000e-001) (62, -2.10553913116455080000e+001) (63, 2.42118034362792970000e+001) (64, 2.61864566802978520000e+001) (65, -4.71154632568359380000e+001) (66, -6.76230049133300780000e+000) (67, -5.87765741348266600000e+000) (68, 4.60507726669311520000e+000) (69, 3.84215068817138670000e+000) (70, -1.12789988517761230000e+000) (71, -1.73398375511169430000e+000) (72, -1.91764438152313230000e+000) (73, -4.71102714538574220000e+000) (74, -6.53391778469085690000e-001) (75, -2.64733672142028810000e+000) (76, -3.16008625030517580000e+001) (77, 1.78856048583984380000e+001) (78, 2.96750450134277340000e+001) (79, -4.01599502563476560000e+001) (80, 4.89793586730957030000e+000) (81, 7.18935951590538020000e-002) (82, -1.10678310394287110000e+001) (83, 1.09684038162231450000e+000) (84, 1.49385893344879150000e+000) (85, 7.27402353286743160000e+000) (86, 3.86403584480285640000e+000) (87, 3.26698422431945800000e+000) (88, -1.20169334411621090000e+001) (89, -1.74246387481689450000e+001) (90, -3.11470317840576170000e+000) (91, 1.02744197845458980000e+000) (92, 1.23565235137939450000e+001) (93, -2.27232432365417480000e+000) (94, -2.03039264678955080000e+001) (95, -5.23063964843750000000e+001) (96, -2.05824996948242190000e+002) (97, -1.64000579833984370000e+002) (98, -2.39514312744140630000e+001) (99, -1.71505224704742430000e+000) (100, -3.28368544578552250000e-002) (101, 6.40820360183715820000e+000) (102, 4.87207889556884770000e+000) (103, 2.76778388023376460000e+000) (104, 7.40247488021850590000e+000) (105, -5.30611753463745120000e+000) (106, -5.77900743484497070000e+000) (107, -4.41079664230346680000e+000) (108, -1.17451667785644530000e+001) (109, 4.50158548355102540000e+000) (110, -6.00245018005371090000e+001) (111, 2.54669551849365230000e+001) (112, -8.82542724609375000000e+001) (113, -1.07068433761596680000e+001) (114, -3.42860565185546880000e+001) (115, 4.20022726058959960000e+000) (116, -3.25155448913574220000e+001) (117, -3.72085404396057130000e+000) (118, -4.16101574897766110000e-001) (119, -2.33490729331970210000e+000) (120, 1.29041838645935060000e+000) (121, 3.64523902535438540000e-002) (122, -2.54709053039550780000e+000) (123, -5.85526466369628910000e+000) (124, -6.94323205947875980000e+000) (125, -6.44702959060668950000e+000) (126, 3.87001204490661620000e+000) (127, 4.44720306396484370000e+001) (128, 4.07990347594022750000e-003) (129, -7.06686019897460940000e+000) (130, -7.76801776885986330000e+000) (131, 6.91915273666381840000e+000) (132, -1.22587738037109380000e+001) (133, -5.41156387329101560000e+001) (134, -1.73351612091064450000e+001) (135, -1.45513772964477540000e+001) (136, 1.77722108364105220000e+000) (137, -7.72153759002685550000e+000) (138, 3.69796776771545410000e+000) (139, 4.64311420917510990000e-001) (140, -2.82709836959838870000e+000) (141, -2.39085841178894040000e+000) (142, 1.29853796958923340000e+000) (143, 5.60795021057128910000e+000) (144, 3.52342758178710940000e+001) (145, 6.53374338150024410000e+000) (146, 6.12125873565673830000e-001) (147, 1.68605957031250000000e+001) (148, 1.40981674194335940000e+002) (149, -1.69492172241210940000e+002) (150, -9.48187637329101560000e+000) (151, 4.33876067399978640000e-001) (152, -7.54432439804077150000e-001) (153, 1.19035160541534420000e+000) (154, 1.80252742767333980000e+000) (155, 8.30465793609619140000e+000) (156, 9.08312034606933590000e+000) (157, -2.54454326629638670000e+000) (158, 2.43562984466552730000e+000) (159, 2.68487858772277830000e+000) (160, 7.72830057144165040000e+000) (161, 6.84770202636718750000e+000) (162, -1.44556903839111330000e+000) (163, -4.40197563171386720000e+001) (164, -7.62268218994140630000e+001) (165, 1.00678415298461910000e+001) (166, 1.44389362335205080000e+001) (167, -2.93512654304504390000e+000) (168, 4.33071851730346680000e-001) (169, -1.58500647544860840000e+000) (170, -5.45661330223083500000e-001) (171, 3.31086635589599610000e+000) (172, 1.30757970809936520000e+001) (173, 4.68081049621105190000e-003) (174, -1.86635687947273250000e-001) (175, -1.68150401115417480000e+000) (176, -2.39161453247070310000e+001) (177, -1.93190727233886720000e+001) (178, -4.67324066162109380000e+001) (179, -1.42701501846313480000e+001) (180, 8.14110755920410160000e+000) (181, -3.00075840950012210000e+000) (182, 2.11189198493957520000e+000) (183, -4.03406667709350590000e+000) (184, -1.18169021606445310000e+000) (185, -1.51401805877685550000e+000) (186, 1.55154764652252200000e+000) (187, -2.61669659614562990000e+000) (188, 3.70985984802246090000e+000) (189, -6.44079819321632390000e-002) (190, 1.95794975757598880000e+000) (191, -1.93095874786376950000e+000) (192, 2.17453186035156250000e+002) (193, -2.53954528808593750000e+002) (194, 6.12398872375488280000e+001) (195, -8.62201995849609370000e+001) (196, -1.09391677856445310000e+002) (197, 5.29965286254882810000e+001) (198, -6.97402877807617190000e+001) (199, -1.08942813873291020000e+001) (200, -2.12744951248168950000e+000) (201, 5.86656570434570310000e+000) (202, -3.01629066467285160000e+000) (203, 1.19599664211273190000e+000) (204, 4.54512977600097660000e+000) (205, 4.27202177047729490000e+000) (206, 8.17374765872955320000e-001) (207, -2.28113099932670590000e-001) (208, -1.43618164062500000000e+002) (209, 2.90749025344848630000e+000) (210, -2.38346314430236820000e+000) (211, -4.16142578125000000000e+001) (212, -1.17867207527160640000e+000) (213, -1.73866691589355470000e+001) (214, -6.89871120452880860000e+000) (215, 1.35265004634857180000e+000) (216, 2.93994641304016110000e+000) (217, -7.41095602512359620000e-001) (218, -3.56613874435424800000e+000) (219, -4.13924008607864380000e-001) (220, 4.42272472381591800000e+000) (221, 7.28690147399902340000e-001) (222, 1.00226974487304690000e+000) (223, 4.77187442779541020000e+000) (224, 3.20151405334472660000e+001) (225, 1.27948827743530270000e+001) (226, -1.41711835861206050000e+001) (227, 2.35475993156433110000e+000) (228, 1.03174591064453120000e+000) (229, -5.13015270233154300000e-001) (230, -2.85634231567382810000e+001) (231, -1.94567146301269530000e+001) (232, 3.93399536609649660000e-001) (233, -2.00258374214172360000e+000) (234, 1.28015775680541990000e+001) (235, 1.17292940616607670000e+000) (236, 2.08357858657836910000e+000) (237, 2.10351181030273440000e+000) (238, 2.91209936141967770000e+000) (239, 5.66254377365112300000e+000) (240, -8.69117050170898440000e+001) (241, 1.99592857360839840000e+001) (242, -3.06888542175292970000e+001) (243, -4.79983043670654300000e+000) (244, 7.97896270751953130000e+001) (245, 1.55558500289916990000e+001) (246, 1.93791809082031250000e+001) (247, 5.78916320800781250000e+001) (248, -4.89860820770263670000e+000) (249, 2.38422155380249020000e+000) (250, 3.30784263610839840000e+001) (251, -2.41229965209960940000e+002) (252, -6.70475673675537110000e+000) (253, 1.93769052624702450000e-001) (254, 2.84383058547973630000e+000) (255, 1.37884283065795900000e+001) (256, -1.50765066146850590000e+001) (0, 3.29870330810546870000e+002) (1, 1.48885180664062500000e+003) (2, 1.50000000000000000000e+003) (3, 1.01348535156250000000e+003) (4, 5.10514068603515620000e+002) (5, -1.50000000000000000000e+003) (6, -1.50000000000000000000e+003) (7, -1.50000000000000000000e+003) (8, -1.50000000000000000000e+003) (9, -1.50000000000000000000e+003) (10, -1.50000000000000000000e+003) (11, 1.50000000000000000000e+003) (12, 1.50000000000000000000e+003) (13, 1.50000000000000000000e+003) (14, 1.50000000000000000000e+003) (15, 1.35499230957031250000e+003) (16, -1.49999841308593750000e+003) (17, 9.06362819671630860000e+000) (18, 3.24443078041076660000e+000) (19, 4.03172779083251950000e+000) (20, 3.22730612754821780000e+000) (21, -1.50000000000000000000e+003) (22, -1.50000000000000000000e+003) (23, -1.50000000000000000000e+003) (24, -1.49993981933593750000e+003) (25, -1.50000000000000000000e+003) (26, -1.49999804687500000000e+003) (27, -1.49956958007812500000e+003) (28, -1.49999963378906250000e+003) (29, -1.48410473632812500000e+003) (30, -6.12784912109375000000e+002) (31, 1.50000000000000000000e+003) (32, -1.50000000000000000000e+003) (33, 5.27476024627685550000e+000) (34, 4.11498689651489260000e+000) (35, 3.53596472740173340000e+000) (36, 7.61036348342895510000e+000) (37, -1.44220565795898440000e+002) (38, -1.50000000000000000000e+003) (39, -1.50000000000000000000e+003) (40, 9.28558715820312500000e+002) (41, -1.49999963378906250000e+003) (42, -1.49999987792968750000e+003) (43, -1.50000000000000000000e+003) (44, -1.49999755859375000000e+003) (45, -1.49999438476562500000e+003) (46, 6.42863159179687500000e+002) (47, 1.50000000000000000000e+003) (48, -7.00309570312500000000e+002) (49, 1.50000000000000000000e+003) (50, 3.54925628662109370000e+002) (51, 4.71343231201171870000e+002) (52, 3.71968293190002440000e+000) (53, 1.50000000000000000000e+003) (54, 4.64649543762207030000e+001) (55, 1.50000000000000000000e+003) (56, 1.50000000000000000000e+003) (57, 1.50000000000000000000e+003) (58, -2.46251724243164060000e+002) (59, -1.50000000000000000000e+003) (60, -1.48502441406250000000e+003) (61, -1.49800073242187500000e+003) (62, 8.31038818359375000000e+002) (63, -1.49999987792968750000e+003) (64, -6.06852865219116210000e+000) (65, 1.35602697753906250000e+003) (66, -3.16036987304687500000e+002) (67, -1.50000000000000000000e+003) (68, 1.36430444335937500000e+003) (69, 2.84718189239501950000e+001) (70, 1.49487719726562500000e+003) (71, 1.49220971679687500000e+003) (72, -3.80513122558593750000e+002) (73, 6.02783203125000000000e+002) (74, -1.05631298828125000000e+003) (75, -6.03795318603515620000e+001) (76, -2.61514617919921870000e+002) (77, -1.50000000000000000000e+003) (78, -1.50000000000000000000e+003) (79, -1.50000000000000000000e+003) (80, -2.86726646423339840000e+001) (81, -4.58776903152465820000e+000) (82, 1.49927734375000000000e+003) (83, 1.32860400390625000000e+003) (84, 2.94333324432373050000e+001) (85, 1.48259509277343750000e+003) (86, 1.49998010253906250000e+003) (87, 1.49999951171875000000e+003) (88, 8.80141845703125000000e+002) (89, -2.90385794639587400000e+000) (90, -6.62437963485717770000e+000) (91, -1.49993115234375000000e+003) (92, -4.79877502441406250000e+002) (93, -1.01214984130859370000e+003) (94, -9.81373840332031250000e+002) (95, -7.22983764648437500000e+002) (96, -6.78928588867187500000e+002) (97, -1.50000000000000000000e+003) (98, -1.50000000000000000000e+003) (99, -1.49759313964843750000e+003) (100, 1.48250228881835940000e+002) (101, 5.58492469787597660000e+001) (102, 1.49999853515625000000e+003) (103, 4.72154937744140620000e+002) (104, 1.25617752075195310000e+001) (105, 1.32376663208007810000e+002) (106, -2.67238861083984370000e+002) (107, 5.94262145996093750000e+002) (108, -2.95365844726562500000e+002) (109, -8.29364929199218750000e+001) (110, -1.50000000000000000000e+003) (111, -1.50000000000000000000e+003) (112, -6.89639221191406250000e+002) (113, -1.49999987792968750000e+003) (114, -3.18548248291015620000e+002) (115, 1.50000000000000000000e+003) (116, 6.21793395996093750000e+002) (117, -1.40819860839843750000e+003) (118, 6.31925903320312500000e+002) (119, 3.42184638977050780000e+001) (120, 3.74708770751953120000e+002) (121, 1.33374374389648440000e+002) (122, 1.50000000000000000000e+003) (123, 1.50000000000000000000e+003) (124, 1.14326501464843750000e+003) (125, -1.50000000000000000000e+003) (126, -1.50000000000000000000e+003) (127, -2.24495834350585940000e+002) (128, -4.92715215682983400000e+000) (129, -1.50000000000000000000e+003) (130, 1.50000000000000000000e+003) (131, 1.50000000000000000000e+003) (132, 1.50000000000000000000e+003) (133, -1.41131030273437500000e+003) (134, -8.84402160644531250000e+002) (135, 1.84533381462097170000e+000) (136, 1.66097198486328120000e+002) (137, 1.50000000000000000000e+003) (138, 1.40075012207031250000e+003) (139, -1.43863366699218750000e+003) (140, 1.50000000000000000000e+003) (141, -1.49729125976562500000e+003) (142, -8.14797180175781250000e+002) (143, -2.00907135009765620000e+000) (144, -3.28505065917968750000e+002) (145, -1.50000000000000000000e+003) (146, -1.24048779296875000000e+003) (147, 1.45957739257812500000e+003) (148, 9.35883789062500000000e+002) (149, -9.76310119628906250000e+001) (150, -1.28725137710571290000e+001) (151, 7.90617513656616210000e+000) (152, 9.90438476562500000000e+002) (153, 1.50000000000000000000e+003) (154, 7.21094604492187500000e+002) (155, -1.49996936035156250000e+003) (156, 1.50000000000000000000e+003) (157, -1.81826171875000000000e+002) (158, -8.27768798828125000000e+002) (159, -2.08972473144531250000e+001) (160, -6.64168701171875000000e+001) (161, 8.28031692504882810000e+001) (162, -1.49999987792968750000e+003) (163, -2.47688690185546870000e+002) (164, -1.50000000000000000000e+003) (165, -3.90193290710449220000e+001) (166, 3.23070240020751950000e+000) (167, 1.34686498641967770000e+001) (168, 1.50000000000000000000e+003) (169, 1.50000000000000000000e+003) (170, 1.49999951171875000000e+003) (171, -8.99390258789062500000e+002) (172, -1.50000000000000000000e+003) (173, 5.76276367187500000000e+002) (174, -1.48257570266723630000e+001) (175, -2.35405254364013670000e+001) (176, -2.34812438964843750000e+002) (177, -1.31713781738281250000e+003) (178, -5.82524375915527340000e+001) (179, 1.49229077148437500000e+003) (180, 1.27567970752716060000e+000) (181, 2.62069463729858400000e+000) (182, 3.85084581375122070000e+000) (183, -1.49820324707031250000e+003) (184, -1.49568786621093750000e+003) (185, -1.49999987792968750000e+003) (186, 6.00147644042968750000e+002) (187, -1.50000000000000000000e+003) (188, -1.50000000000000000000e+003) (189, -8.05313903808593750000e+002) (190, 8.41734741210937500000e+002) (191, -1.49990222167968750000e+003) (192, -2.57250285148620610000e+000) (193, -2.04050308227539060000e+002) (194, -1.49988146972656250000e+003) (195, -1.49992749023437500000e+003) (196, -1.49999938964843750000e+003) (197, -3.13245272636413570000e+000) (198, -5.94411010742187500000e+001) (199, -1.50000000000000000000e+003) (200, -1.50000000000000000000e+003) (201, -1.50000000000000000000e+003) (202, -1.50000000000000000000e+003) (203, -1.50000000000000000000e+003) (204, -1.50000000000000000000e+003) (205, -1.50000000000000000000e+003) (206, -1.20176544189453130000e+001) (207, -1.49999768066406250000e+003) (208, 3.99283480644226070000e+000) (209, -1.49999792480468750000e+003) (210, -2.75621914863586430000e+000) (211, -1.33801136016845700000e+001) (212, -2.84941959381103520000e+000) (213, -1.24698314666748050000e+001) (214, -1.50000000000000000000e+003) (215, -1.50000000000000000000e+003) (216, -1.50000000000000000000e+003) (217, -1.50000000000000000000e+003) (218, -1.50000000000000000000e+003) (219, -1.50000000000000000000e+003) (220, -1.50000000000000000000e+003) (221, -1.31064392089843750000e+003) (222, 1.39244250488281250000e+003) (223, -1.50000000000000000000e+003) (224, -1.48180712890625000000e+003) (225, 8.07252693176269530000e+000) (226, -2.04693470001220700000e+001) (227, -1.14148547363281250000e+003) (228, -1.09253002929687500000e+003) (229, -1.50000000000000000000e+003) (230, -1.50000000000000000000e+003) (231, -1.50000000000000000000e+003) (232, -1.50000000000000000000e+003) (233, -1.50000000000000000000e+003) (234, -1.50000000000000000000e+003) (235, -1.50000000000000000000e+003) (236, -1.50000000000000000000e+003) (237, -1.33783190917968750000e+003) (238, -6.10998962402343750000e+002) (239, -1.50000000000000000000e+003) (240, 1.50000000000000000000e+003) (241, 1.50000000000000000000e+003) (242, 1.50000000000000000000e+003) (243, 1.74578964233398440000e+002) (244, 1.28272094726562500000e+003) (245, -1.50000000000000000000e+003) (246, -1.50000000000000000000e+003) (247, -1.50000000000000000000e+003) (248, -1.50000000000000000000e+003) (249, -1.50000000000000000000e+003) (250, -1.50000000000000000000e+003) (251, -1.50000000000000000000e+003) (252, -1.49998742675781250000e+003) (253, -1.50000000000000000000e+003) (254, -1.49999938964843750000e+003) (255, 1.75475189208984370000e+002) (256, -6.85360193252563480000e+000) (0, 5.36437950134277340000e+001) (1, 1.29396057128906250000e+002) (2, -8.94954376220703130000e+001) (3, -2.89541381835937500000e+002) (4, 4.62398004531860350000e+000) (5, 1.58360900878906250000e+001) (6, 2.01265888214111330000e+001) (7, 8.83951282501220700000e+000) (8, 4.11472415924072270000e+000) (9, 1.75972213745117190000e+001) (10, 1.28475010395050050000e+000) (11, 5.57422218322753910000e+001) (12, -2.15740909576416020000e+001) (13, -9.04607467651367190000e+001) (14, 1.30494413375854490000e+001) (15, -1.05465393066406250000e+001) (16, -6.95505294799804690000e+001) (17, -1.25470344543457030000e+002) (18, -7.28803939819335940000e+001) (19, 1.32720050811767580000e+001) (20, 9.90611648559570310000e+000) (21, 1.35971307754516600000e+001) (22, 8.85924625396728520000e+000) (23, 5.35374307632446290000e+000) (24, 1.80363540649414060000e+001) (25, 4.46625852584838870000e+000) (26, -9.09088492393493650000e-001) (27, -6.79783153533935550000e+000) (28, -3.66348433494567870000e+000) (29, -1.03949600219726560000e+002) (30, -4.57194042205810550000e+000) (31, -8.39401817321777340000e+000) (32, 5.63606414794921870000e+001) (33, 1.33214092254638670000e+001) (34, -6.70886468887329100000e+000) (35, -1.62371551990509030000e+000) (36, -7.01770925521850590000e+000) (37, 6.74387836456298830000e+000) (38, -1.50641841888427730000e+001) (39, 5.22445201873779300000e+000) (40, 1.78162727355957030000e+001) (41, 1.23745737075805660000e+001) (42, -3.72931885719299320000e+000) (43, -8.17114353179931640000e+000) (44, -5.11620559692382810000e+001) (45, -5.40183639526367190000e+000) (46, -6.70158565044403080000e-001) (47, -1.38705329895019530000e+001) (48, 4.24123704433441160000e-001) (49, -6.46882553100585940000e+001) (50, -1.46534359455108640000e+000) (51, 8.27901077270507810000e+000) (52, -3.46650466918945310000e+001) (53, 2.23753223419189450000e+001) (54, 1.54245531558990480000e+000) (55, -2.20768523216247560000e+000) (56, -6.49480724334716800000e+000) (57, -2.60322165489196780000e+000) (58, -7.97547483444213870000e+000) (59, -3.70685315132141110000e+000) (60, -3.26405410766601560000e+001) (61, -6.43534231185913090000e+000) (62, 1.08926665782928470000e+000) (63, -1.50807380676269530000e-001) (64, 5.58695852756500240000e-001) (65, -1.70548076629638670000e+001) (66, -8.22078628540039060000e+001) (67, -7.32226276397705080000e+000) (68, 2.70429859161376950000e+001) (69, -6.65739822387695310000e+001) (70, -1.89935237169265750000e-001) (71, 5.27579450607299800000e+000) (72, 6.89903688430786130000e+000) (73, 8.05001163482666020000e+000) (74, 8.04881668090820310000e+000) (75, -6.06429138183593750000e+001) (76, -2.54606652259826660000e+000) (77, 9.68096351623535160000e+000) (78, -2.62806224822998050000e+000) (79, -5.58800935745239260000e+000) (80, 2.24849700927734380000e+000) (81, -1.97229135036468510000e+000) (82, 3.89876008033752440000e-001) (83, -4.20549201965332030000e+000) (84, 4.72698898315429690000e+001) (85, -4.62421188354492190000e+001) (86, -6.46856546401977540000e+000) (87, 8.03379631042480470000e+000) (88, 1.00358400344848630000e+001) (89, -4.09241962432861330000e+000) (90, -1.55635681152343750000e+001) (91, -1.99535427093505860000e+001) (92, 8.28637897968292240000e-001) (93, 4.97986984252929690000e+000) (94, -2.35867619514465330000e+000) (95, -2.76411676406860350000e+000) (96, 1.16391286849975590000e+001) (97, -1.38259668350219730000e+001) (98, -6.57756447792053220000e-001) (99, 1.20794200897216800000e+001) (100, 6.24415874481201170000e+000) (101, 2.48268127441406250000e+000) (102, 5.42799186706542970000e+000) (103, -1.22088098526000980000e+000) (104, -4.70526361465454100000e+000) (105, -1.13167834281921390000e+000) (106, 3.09922409057617190000e+000) (107, 3.48825311660766600000e+000) (108, 8.15845870971679690000e+000) (109, 4.11612272262573240000e+000) (110, -6.25776767730712890000e+000) (111, -2.06530690193176270000e+000) (112, -3.67087531089782710000e+000) (113, -1.55561006069183350000e+000) (114, -1.17153453826904300000e+000) (115, -1.24939537048339840000e+000) (116, -1.89148008823394780000e+000) (117, -4.19926452636718750000e+000) (118, -8.96984767913818360000e+000) (119, -3.50482788085937500000e+001) (120, -6.68261909484863280000e+000) (121, -1.91839206218719480000e+000) (122, 5.25112581253051760000e+000) (123, 1.42794494628906250000e+001) (124, 5.61626291275024410000e+000) (125, 8.61514186859130860000e+000) (126, -1.19945454597473140000e+000) (127, 2.69804787635803220000e+000) (128, -2.39125585556030270000e+000) (129, -2.06877875328063960000e+000) (130, 3.71104884147644040000e+000) (131, -2.57061920166015630000e+001) (132, -2.67567157745361330000e+001) (133, 4.37532615661621090000e+001) (134, 2.84112954139709470000e+000) (135, -2.66617274284362790000e+000) (136, -1.39384293556213380000e+000) (137, -1.80136680603027340000e+000) (138, 5.00974750518798830000e+000) (139, 6.20970630645751950000e+000) (140, -3.72606635093688960000e+000) (141, 2.96321249008178710000e+000) (142, -3.91754269599914550000e-001) (143, 2.01061800122261050000e-001) (144, -2.15326213836669920000e+000) (145, -1.41909849643707280000e+000) (146, -3.30256485939025880000e+000) (147, -2.35164451599121090000e+001) (148, -1.43948165893554690000e+002) (149, -1.66064056396484370000e+002) (150, -5.60361862182617190000e+000) (151, -5.45796489715576170000e+000) (152, -6.87183022499084470000e-001) (153, -7.58792310953140260000e-002) (154, 1.88039455413818360000e+001) (155, 9.76606607437133790000e-001) (156, -6.07996273040771480000e+000) (157, -9.69554615020751950000e+000) (158, -3.00105309486389160000e+000) (159, 3.92689347267150880000e-001) (160, 2.50018167495727540000e+000) (161, 8.63622725009918210000e-001) (162, -2.11508083343505860000e+000) (163, -3.47993397712707520000e+000) (164, 2.92013301849365230000e+001) (165, 7.61788940429687500000e+001) (166, -1.32919502258300780000e+000) (167, -2.11477613449096680000e+000) (168, 1.93210926055908200000e+001) (169, 2.48315167427062990000e+000) (170, 6.33541488647460940000e+000) (171, -6.81719064712524410000e+000) (172, -3.95800304412841800000e+000) (173, 3.25420260429382320000e+000) (174, 4.25324112176895140000e-001) (175, -1.00097236633300780000e+001) (176, 2.35270237922668460000e+000) (177, 6.05089128017425540000e-001) (178, -1.16206979751586910000e+001) (179, -9.95558547973632810000e+000) (180, -3.34898681640625000000e+001) (181, -7.99691619873046880000e+001) (182, -1.51668298244476320000e+000) (183, -9.25144255161285400000e-001) (184, 9.96522235870361330000e+000) (185, 1.15459942817687990000e+000) (186, 2.79547333717346190000e+000) (187, -9.55284118652343750000e+000) (188, -2.34235739707946780000e+000) (189, -2.08019161224365230000e+000) (190, -9.88609045743942260000e-002) (191, -1.67404139041900630000e+000) (192, 2.72936439514160160000e+000) (193, -2.46871486306190490000e-001) (194, -1.60957086086273190000e+000) (195, -1.46154415607452390000e+000) (196, 1.33370122909545900000e+001) (197, -1.86269454956054690000e+001) (198, -5.71898758411407470000e-001) (199, 1.58959960937500000000e+000) (200, -4.13319158554077150000e+000) (201, 2.24291658401489260000e+000) (202, 2.55565929412841800000e+000) (203, 1.25565695762634280000e+000) (204, 5.12918710708618160000e+000) (205, -4.12256288528442380000e+000) (206, -6.56759786605834960000e+000) (207, -2.31036305427551270000e+000) (208, 1.70128238201141360000e+000) (209, -2.91023993492126460000e+000) (210, -2.79623961448669430000e+000) (211, -1.22920808792114260000e+001) (212, 5.12960338592529300000e+000) (213, 4.31961679458618160000e+000) (214, -2.72756385803222660000e+001) (215, 6.24516582489013670000e+000) (216, 5.27252197265625000000e-001) (217, 9.10717105865478520000e+000) (218, 9.25292301177978520000e+000) (219, 2.80070781707763670000e+000) (220, 5.57737874984741210000e+000) (221, 8.72309803962707520000e-001) (222, 2.25928688049316410000e+001) (223, 3.47111206054687500000e+001) (224, -3.54058408737182620000e+000) (225, -3.37946557998657230000e+000) (226, -2.79886174201965330000e+000) (227, 4.74137783050537110000e-001) (228, -8.65554690361022950000e-001) (229, 6.43267822265625000000e+000) (230, 3.19854974746704100000e+000) (231, 2.03212523460388180000e+000) (232, 1.08754169940948490000e+000) (233, 2.97451448440551760000e+000) (234, -1.91007661819458010000e+000) (235, 1.37809669971466060000e+000) (236, -1.50758352279663090000e+001) (237, -6.80377149581909180000e+000) (238, -4.32698440551757810000e+000) (239, 4.61047315597534180000e+000) (240, -1.73483061790466310000e+000) (241, -3.69854003190994260000e-001) (242, -2.88649034500122070000e+000) (243, 5.63382492065429690000e+001) (244, 5.91037864685058590000e+001) (245, -1.09729553222656250000e+002) (246, 2.81594783067703250000e-001) (247, 2.12027668952941890000e+000) (248, 9.47882652282714840000e+000) (249, 6.26047492027282710000e-001) (250, 2.75679512023925780000e+001) (251, -7.78994560241699220000e+000) (252, -4.55440378189086910000e+000) (253, -7.30213308334350590000e+000) (254, -1.06873168945312500000e+001) (255, -6.42620086669921880000e+001) (256, -1.10302934646606450000e+001) (0, 3.50517344474792480000e+000) (1, -3.53896403312683110000e+000) (2, -4.56829756498336790000e-001) (3, -1.80928826332092290000e+000) (4, 3.06552791595458980000e+000) (5, -9.73857498168945310000e+000) (6, 2.14699244499206540000e+000) (7, -1.29528582096099850000e+000) (8, -1.58490335941314700000e+000) (9, 3.81806945800781250000e+000) (10, 2.36341881752014160000e+000) (11, 4.12798166275024410000e+000) (12, 1.28368628025054930000e+000) (13, 2.19411444664001460000e+000) (14, 7.64839828014373780000e-001) (15, 2.26615667343139650000e+000) (16, 9.66712713241577150000e-001) (17, -1.61583185195922850000e+000) (18, -8.98041248321533200000e+000) (19, -2.50024032592773440000e+000) (20, -4.35004234313964840000e+000) (21, -1.34762859344482420000e+000) (22, -1.34763967990875240000e+000) (23, -1.53273832798004150000e+000) (24, -2.15109491348266600000e+000) (25, 9.75427508354187010000e-001) (26, 6.65373086929321290000e-001) (27, -1.61497622728347780000e-001) (28, 5.41472341865301130000e-003) (29, -3.61647158861160280000e-001) (30, -4.44832265377044680000e-001) (31, -1.48762869834899900000e+000) (32, -5.52540659904479980000e-001) (33, -3.70375180244445800000e+000) (34, -5.63963174819946290000e+000) (35, -3.37481617927551270000e+000) (36, 1.19270980358123780000e+000) (37, -1.58086562156677250000e+000) (38, 8.81739974021911620000e-001) (39, 3.71547013521194460000e-001) (40, 4.76186841726303100000e-001) (41, 2.95159721374511720000e+000) (42, 2.88424468040466310000e+000) (43, -4.33040094375610350000e+000) (44, -1.68259859085083010000e+000) (45, 1.24942243099212650000e+000) (46, -4.51316148042678830000e-001) (47, -4.91093873977661130000e+000) (48, -5.41277790069580080000e+000) (49, -5.50960540771484380000e+000) (50, -4.13850831985473630000e+000) (51, -5.25939893722534180000e+000) (52, 1.26781606674194340000e+000) (53, 9.40675795078277590000e-001) (54, 3.50058764219284060000e-001) (55, -4.08561897277832030000e+000) (56, 1.82633399963378910000e-001) (57, 1.27007341384887700000e+000) (58, 3.17132639884948730000e+000) (59, 1.42541313171386720000e+000) (60, -3.61966878175735470000e-001) (61, 2.15818309783935550000e+000) (62, 1.53453788757324220000e+001) (63, -1.03289241790771480000e+001) (64, 1.64575729370117190000e+001) (65, 2.81946754455566410000e+000) (66, -9.68918704986572270000e+000) (67, -5.34393119812011720000e+000) (68, 5.60225820541381840000e+000) (69, -7.84056854248046870000e+000) (70, -1.19219532012939450000e+001) (71, -1.16855561733245850000e+000) (72, 4.52383899688720700000e+000) (73, 2.98250269889831540000e+000) (74, 1.51606059074401860000e+000) (75, 4.49021965265274050000e-001) (76, -2.99935364723205570000e+000) (77, -2.17293529510498050000e+001) (78, -2.27683296203613280000e+001) (79, 4.92147369384765630000e+001) (80, -6.95189905166625980000e+000) (81, -1.67805976867675780000e+001) (82, 2.40986299514770510000e+000) (83, -5.88097000122070310000e+000) (84, 1.51734483242034910000e+000) (85, 1.38249421119689940000e+000) (86, 2.17929029464721680000e+000) (87, 4.06120002269744870000e-001) (88, 2.16242074966430660000e+000) (89, -1.65521407127380370000e+000) (90, 9.46855068206787110000e-001) (91, -4.88583660125732420000e+000) (92, -4.19664344787597660000e+001) (93, 2.10109081268310550000e+001) (94, 3.01496429443359370000e+002) (95, -4.14304595947265620000e+002) (96, -4.28654956817626950000e+000) (97, -3.20179462432861330000e+000) (98, 1.50608313083648680000e+000) (99, 1.08808374404907230000e+001) (100, -1.32992911338806150000e+000) (101, -1.11723833084106450000e+001) (102, -4.36983728408813480000e+000) (103, -6.79746985435485840000e-001) (104, -2.16263461112976070000e+000) (105, 7.69527435302734380000e-001) (106, -9.70431208610534670000e-001) (107, -8.19848327636718750000e+001) (108, -2.34368606567382810000e+002) (109, 1.41136047363281250000e+002) (110, -1.50000000000000000000e+003) (111, -1.50000000000000000000e+003) (112, -5.26399910449981690000e-001) (113, -2.41422986984252930000e+000) (114, 2.20442056655883790000e+000) (115, -9.36434328556060790000e-001) (116, -1.16817581653594970000e+000) (117, -2.83119392395019530000e+000) (118, -4.02233505249023440000e+000) (119, -1.12132205963134770000e+001) (120, -1.88598489761352540000e+000) (121, 3.90157556533813480000e+000) (122, -7.19663667678833010000e+000) (123, 9.22349739074707030000e+000) (124, -8.95904254913330080000e+000) (125, -8.27264690399169920000e+000) (126, -4.82453346252441410000e+000) (127, 1.36600747704505920000e-001) (128, 9.50501561164855960000e-001) (129, -1.11036701202392580000e+001) (130, 2.19679325819015500000e-001) (131, 2.44205522537231450000e+000) (132, 6.52531337738037110000e+000) (133, 3.95797181129455570000e+000) (134, 5.01068495213985440000e-002) (135, -4.23161178827285770000e-001) (136, -3.15530806779861450000e-001) (137, -9.72278594970703120000e+000) (138, -2.07571926116943360000e+001) (139, -1.46412124633789060000e+001) (140, 3.85659370422363280000e+001) (141, 1.38326311111450200000e+001) (142, 3.57578396797180180000e+000) (143, 4.50574684143066410000e+000) (144, -2.03408002853393550000e+000) (145, -1.66149449348449710000e+000) (146, 3.19423770904541020000e+000) (147, -8.92943382263183590000e+000) (148, 1.89778864383697510000e+000) (149, 1.62557852268218990000e+000) (150, 1.53192830085754390000e+000) (151, -2.79784321784973140000e-001) (152, 1.94258594512939450000e+000) (153, -9.53853702545166020000e+000) (154, -3.52375555038452150000e+000) (155, 2.03591976165771480000e+001) (156, -1.50000000000000000000e+003) (157, -1.83240402221679690000e+002) (158, -1.26118164062500000000e+003) (159, 1.21116137695312500000e+003) (160, -1.88731968402862550000e+000) (161, -2.39736747741699220000e+000) (162, -9.15154075622558590000e+000) (163, -2.19263267517089840000e+000) (164, -1.13989424705505370000e+000) (165, 2.43345665931701660000e+000) (166, 4.08549070358276370000e+000) (167, 2.72853732109069820000e+000) (168, -1.81764686107635500000e+000) (169, -1.88560664653778080000e+000) (170, -1.62882480621337890000e+001) (171, -4.86618375778198240000e+000) (172, 5.29339637756347660000e+001) (173, -7.64348144531250000000e+001) (174, -6.38940238952636720000e+001) (175, 1.04196228027343750000e+002) (176, -2.68661737442016600000e+000) (177, -3.62518334388732910000e+000) (178, 2.61387515068054200000e+000) (179, -2.98135828971862790000e+000) (180, 2.66997981071472170000e+000) (181, 1.18369948863983150000e+000) (182, -7.88837099075317380000e+000) (183, 1.60845458507537840000e+000) (184, 1.52629971504211430000e+000) (185, -7.92565643787384030000e-002) (186, 3.09870266914367680000e+000) (187, -3.07602310180664060000e+000) (188, -6.81367826461791990000e+000) (189, -1.00673770904541020000e+001) (190, 4.50614051818847660000e+001) (191, -2.98017311096191410000e+001) (192, -1.86978397369384770000e+001) (193, -4.62160491943359380000e+000) (194, 5.37849962711334230000e-001) (195, 2.62580037117004390000e+000) (196, 4.28126716613769530000e+000) (197, -5.44461107254028320000e+000) (198, -1.15547122955322270000e+001) (199, -4.17335939407348630000e+000) (200, 1.21566271781921390000e+000) (201, 2.63923954963684080000e+000) (202, 2.74011039733886720000e+000) (203, 8.60403537750244140000e+000) (204, -7.39558172225952150000e+000) (205, -2.86387395858764650000e+000) (206, -3.35459852218627930000e+000) (207, 8.74598860740661620000e-001) (208, 5.80464363098144530000e+000) (209, -3.07069253921508790000e+000) (210, 6.24086439609527590000e-001) (211, 3.84384894371032710000e+000) (212, 1.67608857154846190000e+000) (213, 2.17411860823631290000e-001) (214, -3.12865519523620610000e+000) (215, -7.06000566482543950000e-001) (216, 1.79236495494842530000e+000) (217, 4.42207908630371090000e+000) (218, 2.64483952522277830000e+000) (219, 3.33455371856689450000e+000) (220, 3.30067396163940430000e+000) (221, -3.01036089658737180000e-002) (222, 5.26973828673362730000e-002) (223, 5.29391384124755860000e+000) (224, 8.67371141910552980000e-001) (225, -3.15148487091064450000e+001) (226, -3.63930082321166990000e+000) (227, -3.76692628860473630000e+000) (228, 6.03414118289947510000e-001) (229, 6.89342617988586430000e-001) (230, -1.49626421928405760000e+000) (231, -9.81555521488189700000e-001) (232, 6.56696930527687070000e-002) (233, 6.09558284282684330000e-001) (234, 4.58703804016113280000e+000) (235, 1.13388955593109130000e+000) (236, 1.74171197414398190000e+000) (237, 3.47137522697448730000e+000) (238, 1.01630210876464840000e+000) (239, 1.43297886848449710000e+000) (240, -1.44043228149414060000e+002) (241, -2.43817424774169920000e+001) (242, -9.31851730346679690000e+001) (243, 4.67933311462402340000e+001) (244, -5.50785362720489500000e-001) (245, 8.09769821166992190000e+000) (246, 1.86136245727539060000e+000) (247, 5.39761447906494140000e+000) (248, 4.91894912719726560000e+000) (249, 4.42139387130737300000e+000) (250, 4.66870737075805660000e+000) (251, 5.11629343032836910000e-001) (252, 1.52659630775451660000e+000) (253, 3.03729128837585450000e+000) (254, 1.30084049701690670000e+000) (255, -7.66467690467834470000e-001) (256, -1.02608671188354490000e+001) (0, -5.53015365600585940000e+001) (1, -5.34895420074462890000e-001) (2, 8.54616832733154300000e+000) (3, 5.19070148468017580000e-001) (4, -3.86785626411437990000e-001) (5, 1.58156111836433410000e-001) (6, 5.42951583862304690000e-001) (7, -2.21971678733825680000e+000) (8, 8.34001779556274410000e-001) (9, 9.16192233562469480000e-002) (10, -4.19366080313920970000e-003) (11, 2.21354675292968750000e+000) (12, 1.46588444709777830000e+000) (13, 1.07312893867492680000e+000) (14, -3.66541206836700440000e-001) (15, -2.56793498992919920000e-001) (16, -2.41037726402282710000e+000) (17, -2.39647962152957920000e-002) (18, 7.40220010280609130000e-001) (19, -7.19427466392517090000e-001) (20, -2.02614378929138180000e+000) (21, -7.37783730030059810000e-001) (22, -6.63228154182434080000e-001) (23, -6.55924856662750240000e-001) (24, 1.78617393970489500000e+000) (25, 1.61831665039062500000e+000) (26, -3.12328606843948360000e-001) (27, -7.34803318977355960000e-001) (28, 8.09264719486236570000e-001) (29, 8.62261533737182620000e-001) (30, -1.82523369789123540000e-001) (31, -1.42009034752845760000e-001) (32, 3.84391427040100100000e-001) (33, 8.11890512704849240000e-002) (34, -2.78311443328857420000e+000) (35, 9.89946722984313960000e-002) (36, 2.70874887704849240000e-001) (37, 1.53029486536979680000e-001) (38, -8.78353193402290340000e-002) (39, 3.35891574621200560000e-001) (40, -7.19996511936187740000e-001) (41, 1.89111304283142090000e+000) (42, 1.18408286571502690000e+000) (43, -2.83169090747833250000e-001) (44, -8.38828146457672120000e-001) (45, 3.37557375431060790000e-001) (46, -3.26418876647949220000e-001) (47, -2.32480602264404300000e+001) (48, -4.39400523900985720000e-001) (49, 1.18972035124897960000e-003) (50, -1.76306158304214480000e-001) (51, 1.94407272338867190000e+000) (52, -1.37268936634063720000e+000) (53, -6.97836577892303470000e-001) (54, -2.97564888000488280000e+000) (55, 4.34800446033477780000e-001) (56, 1.75768458843231200000e+000) (57, -4.69382464885711670000e-001) (58, 3.51302057504653930000e-001) (59, 2.07557463645935060000e+000) (60, 1.30965411663055420000e-001) (61, 1.70874640345573430000e-001) (62, -2.39604592323303220000e-001) (63, -1.04069434106349950000e-001) (64, -1.13812780380249020000e+000) (65, 2.45711803436279300000e+000) (66, -9.65880775451660160000e+000) (67, 6.30680418014526370000e+000) (68, -1.62449491024017330000e+000) (69, -5.36307001113891600000e+000) (70, 7.05352687835693360000e+000) (71, -1.07898652553558350000e+000) (72, -7.37634837627410890000e-001) (73, 2.57388383150100710000e-001) (74, -2.63797068595886230000e+000) (75, -2.14299941062927250000e+000) (76, 1.31162509918212890000e+001) (77, -9.27246475219726560000e+001) (78, 5.32919347286224370000e-001) (79, 1.22555015563964840000e+002) (80, -5.43639602661132810000e+001) (81, -6.33455390930175780000e+001) (82, 3.01782398223876950000e+001) (83, -2.44690012931823730000e+000) (84, -2.32512702941894530000e+001) (85, 9.94490909576416020000e+000) (86, -1.10596132278442380000e+001) (87, -1.24607694149017330000e+000) (88, 1.30578815937042240000e+000) (89, 1.07964289188385010000e+000) (90, -6.89495086669921880000e+001) (91, 2.88839607238769530000e+001) (92, -1.55214366912841800000e+001) (93, -1.53078603744506840000e+001) (94, 2.27295013427734370000e+002) (95, -4.30173278808593750000e+002) (96, 8.42642498016357420000e+000) (97, 9.11430001258850100000e-001) (98, -1.47541689872741700000e+000) (99, 5.01118850708007810000e+001) (100, -3.88530654907226560000e+001) (101, 8.21074104309082030000e+000) (102, -1.04787263870239260000e+001) (103, 1.19152569770812990000e+000) (104, 7.59364217519760130000e-002) (105, 7.70486176013946530000e-001) (106, -4.94144868850708010000e+000) (107, -1.63432144165039060000e+002) (108, -1.56421813964843750000e+002) (109, 3.63849372863769530000e+001) (110, -3.74134033203125000000e+002) (111, -7.71735534667968750000e+001) (112, -4.89816627502441410000e+001) (113, 4.26878929138183590000e-001) (114, 4.23821830749511720000e+000) (115, 2.30153465270996090000e+000) (116, -8.85187816619873050000e+000) (117, -3.41939697265625000000e+001) (118, -1.21976065635681150000e+000) (119, -2.95737951993942260000e-001) (120, -8.04982364177703860000e-001) (121, -1.03920853137969970000e+000) (122, -3.40593261718750000000e+001) (123, 4.90071601867675780000e+001) (124, 1.01353752136230470000e+002) (125, -1.62547607421875000000e+002) (126, 4.14260597229003910000e+001) (127, -2.44051203131675720000e-001) (128, -1.69489002227783200000e+001) (129, -2.32688579559326170000e+001) (130, -7.99105501174926760000e+000) (131, 1.45752630233764650000e+001) (132, 2.41220980882644650000e-001) (133, 3.37050628662109370000e+001) (134, 1.73866729736328130000e+001) (135, 7.51873373985290530000e-001) (136, -2.14728546142578130000e+000) (137, -9.05574299395084380000e-003) (138, -1.49170389175415040000e+001) (139, -1.32312822341918950000e+001) (140, 2.61534080505371090000e+001) (141, 1.51986637115478520000e+001) (142, -3.91102164983749390000e-001) (143, -2.31901049613952640000e-001) (144, 3.83361315727233890000e+000) (145, 8.85629117488861080000e-001) (146, -1.50759477615356450000e+001) (147, 1.08996067047119140000e+001) (148, 1.48256778717041020000e+000) (149, 8.00598716735839840000e+000) (150, -3.06022014617919920000e+001) (151, -6.10919058322906490000e-001) (152, 1.38350442051887510000e-001) (153, 5.02530515193939210000e-001) (154, -1.57010574340820310000e+001) (155, -4.58774299621582030000e+001) (156, -2.58045288085937500000e+002) (157, 6.03201985359191890000e-001) (158, -2.12270832061767580000e+000) (159, -3.14254045486450200000e+000) (160, -8.08978557586669920000e+000) (161, -4.09155035018920900000e+000) (162, 1.80932369232177730000e+001) (163, 2.45042076110839840000e+001) (164, 8.66380035877227780000e-001) (165, -1.40797090530395510000e+001) (166, -2.33823919296264650000e+000) (167, -1.83091074228286740000e-001) (168, 4.74378429353237150000e-002) (169, 6.24699401855468750000e+000) (170, -1.14293212890625000000e+001) (171, -2.16307640075683590000e+000) (172, 5.25542545318603520000e+000) (173, -4.91522407531738280000e+000) (174, -2.19794750213623050000e+000) (175, 4.86209726333618160000e+000) (176, 1.86553642153739930000e-001) (177, 2.12686181068420410000e+000) (178, 2.68976736068725590000e+000) (179, -1.62049144506454470000e-001) (180, 2.13170957565307620000e+000) (181, 3.19304347038269040000e-001) (182, -2.69895339012146000000e+000) (183, -1.02684819698333740000e+000) (184, -4.58894878625869750000e-001) (185, 2.67468261718750000000e+000) (186, -2.41946911811828610000e+000) (187, -3.42750310897827150000e+000) (188, 2.76814460754394530000e-001) (189, 2.54546612501144410000e-001) (190, -6.33750581741333010000e+000) (191, -1.23435554504394530000e+002) (192, 1.84472680091857910000e-001) (193, -1.73385918140411380000e-001) (194, 1.78990757465362550000e+000) (195, 2.24331474304199220000e+000) (196, 4.29762676358222960000e-002) (197, -4.04606342315673830000e+000) (198, -3.42683553695678710000e+000) (199, -5.82810997962951660000e-001) (200, -2.79507136344909670000e+000) (201, -2.93322348594665530000e+000) (202, 2.75504207611083980000e+000) (203, 2.08567166328430180000e+000) (204, 3.26942420005798340000e+000) (205, 3.40766131877899170000e-001) (206, 9.65455472469329830000e-002) (207, -8.71623694896698000000e-001) (208, -1.40696197509765620000e+002) (209, -1.38940775394439700000e+000) (210, -8.92409443855285640000e-001) (211, 2.02640938758850100000e+000) (212, 2.01362395286560060000e+000) (213, -5.17483651638031010000e-001) (214, 4.91896986961364750000e-001) (215, 9.35424804687500000000e-001) (216, -9.10006880760192870000e-001) (217, -7.61685907840728760000e-001) (218, -6.79997384548187260000e-001) (219, -1.03433740139007570000e+000) (220, -8.72973501682281490000e-001) (221, 5.32734692096710210000e-002) (222, 1.34202182292938230000e+000) (223, -1.60041201114654540000e+000) (224, -3.70701522827148440000e+001) (225, -1.07471597194671630000e+000) (226, -1.66714775562286380000e+000) (227, 1.88630306720733640000e+000) (228, 9.29373800754547120000e-001) (229, 8.35260152816772460000e-001) (230, 4.68234628438949580000e-001) (231, 8.04353952407836910000e-001) (232, 1.78411674499511720000e+000) (233, 1.95215463638305660000e+000) (234, -6.51541575789451600000e-002) (235, 1.58196854591369630000e+000) (236, 1.72255110740661620000e+000) (237, 5.80206036567687990000e-001) (238, 7.16882526874542240000e-001) (239, -3.24188575744628910000e+001) (240, -2.76147064208984370000e+002) (241, -1.67288818359375000000e+001) (242, -6.61499214172363280000e+000) (243, -9.95066612958908080000e-002) (244, 1.01080808639526370000e+001) (245, -6.56296825408935550000e+000) (246, 2.88360178470611570000e-001) (247, 1.06231451034545900000e+000) (248, 2.26894330978393550000e+000) (249, 3.53921316564083100000e-002) (250, 2.09009718894958500000e+000) (251, 2.22193384170532230000e+000) (252, 2.15960645675659180000e+000) (253, 2.01398849487304690000e+000) (254, 1.40623307228088380000e+000) (255, -1.77472095489501950000e+001) (256, -9.92849349975585940000e+000) (0, -9.01197570800781250000e+002) (1, 3.29541816711425780000e+001) (2, -2.12012634277343750000e+001) (3, 4.35140441894531250000e+002) (4, 9.79651794433593750000e+001) (5, -1.67011797428131100000e+000) (6, 2.55951843261718750000e+002) (7, 4.14362144470214840000e+000) (8, -8.60603866577148440000e+001) (9, -1.72862548828125000000e+002) (10, 1.79314403533935550000e+001) (11, 6.13050994873046880000e+001) (12, -1.20496831834316250000e-001) (13, -1.33951175212860110000e+000) (14, 1.54557144165039060000e+002) (15, 1.75967803955078120000e+002) (16, 1.44933013916015620000e+002) (17, 1.68597183227539060000e+002) (18, -2.05029891967773440000e+002) (19, -5.08433258056640620000e+002) (20, 2.74113726615905760000e+000) (21, -1.25774550437927250000e+000) (22, -2.25964069366455080000e+000) (23, -2.51359391212463380000e+000) (24, -3.99693908691406250000e+001) (25, 1.21352586746215820000e+001) (26, 3.21660385131835940000e+001) (27, 2.26971569061279300000e+001) (28, -1.83073627948760990000e+000) (29, 4.20222759246826170000e+000) (30, -6.91664962768554690000e+001) (31, -1.08171949386596680000e+001) (32, 8.03578918457031250000e+002) (33, -8.46797729492187500000e+002) (34, 1.79539825439453120000e+002) (35, -5.74656343460083010000e+000) (36, -1.68294155597686770000e+000) (37, 9.50653374195098880000e-001) (38, -2.79608035087585450000e+000) (39, -8.45871627330780030000e-001) (40, -2.19635391235351560000e+001) (41, -1.05214767456054690000e+001) (42, 2.01335000991821290000e+000) (43, 2.02248191833496090000e+001) (44, -2.87895941734313960000e+000) (45, -1.29512763023376460000e+000) (46, -1.72699813842773440000e+002) (47, -2.40603561401367190000e+002) (48, 1.80054656982421870000e+002) (49, -3.03740173339843750000e+002) (50, 7.25686883926391600000e+000) (51, -7.80730581283569340000e+000) (52, 2.50491881370544430000e+000) (53, -1.66817986965179440000e+000) (54, -9.93793129920959470000e-001) (55, 6.09356760978698730000e-001) (56, -2.60083446502685550000e+001) (57, 9.11409378051757810000e+000) (58, 2.12062716484069820000e+000) (59, -8.73010218143463130000e-001) (60, -3.39890527725219730000e+000) (61, -1.20081167221069340000e+001) (62, 8.39723968505859370000e+000) (63, 2.08961502075195310000e+002) (64, -5.40731506347656250000e+002) (65, -4.93413591384887700000e+000) (66, -1.27901029586791990000e+000) (67, -3.55085563659667970000e+000) (68, -4.52587890625000000000e+000) (69, 9.41365361213684080000e-001) (70, -5.67099952697753910000e+000) (71, -2.89209914207458500000e+000) (72, -2.01528728008270260000e-001) (73, 3.97546267509460450000e+000) (74, -1.80272746086120610000e+000) (75, -5.45835351943969730000e+000) (76, -3.98048019409179690000e+000) (77, -1.02428805828094480000e+000) (78, -4.94232714176177980000e-001) (79, -1.50631875991821290000e+001) (80, 3.16768956184387210000e+000) (81, -6.11566591262817380000e+000) (82, -1.54288876056671140000e+000) (83, 6.51955175399780270000e+000) (84, -4.86756420135498050000e+000) (85, -5.35949850082397460000e+000) (86, 4.76811456680297850000e+000) (87, 4.99075031280517580000e+000) (88, 1.27785980701446530000e+000) (89, -1.74625360965728760000e+000) (90, -3.64858484268188480000e+000) (91, 7.12922394275665280000e-001) (92, 7.57004737854003910000e+000) (93, 6.52996253967285160000e+000) (94, -1.12394511699676510000e+000) (95, -6.76392173767089840000e+000) (96, -1.10294437408447270000e+000) (97, -5.30812788009643550000e+000) (98, 5.02440786361694340000e+000) (99, 7.96425342559814450000e+000) (100, 1.42275404930114750000e+000) (101, 1.31574404239654540000e+000) (102, 1.13024842739105220000e+000) (103, -2.72720718383789060000e+000) (104, -6.94979715347290040000e+000) (105, -7.89236927032470700000e+000) (106, -1.76702821254730220000e+000) (107, 2.87859892845153810000e+000) (108, 2.83705735206604000000e+000) (109, 6.11771631240844730000e+000) (110, -1.21767592430114750000e+000) (111, -6.58816814422607420000e+000) (112, -4.85643911361694340000e+000) (113, -1.01216545104980470000e+001) (114, 6.58388328552246090000e+000) (115, -4.77566337585449220000e+000) (116, -2.32331609725952150000e+000) (117, -2.11604785919189450000e+000) (118, -4.93885803222656250000e+000) (119, -1.85251388549804690000e+001) (120, -8.84309482574462890000e+000) (121, -3.47303128242492680000e+000) (122, 8.21191883087158200000e+000) (123, 2.60387420654296870000e+000) (124, 1.42250239849090580000e+000) (125, -3.52702379226684570000e-001) (126, 1.13503599166870120000e+000) (127, -6.80438089370727540000e+000) (128, -3.12047624588012700000e+000) (129, -2.87829446792602540000e+000) (130, -6.11913681030273440000e+000) (131, -5.05136311054229740000e-001) (132, 4.65715312957763670000e+000) (133, 1.41369187831878660000e+000) (134, -2.12801918387413020000e-001) (135, -2.43700885772705080000e+001) (136, -5.59932613372802730000e+000) (137, 8.76169443130493160000e-001) (138, -1.26522186279296870000e+002) (139, 4.72819757461547850000e+000) (140, 6.08907842636108400000e+000) (141, -8.64229649305343630000e-002) (142, -9.90624160766601560000e+001) (143, -2.29394111633300780000e+001) (144, 1.39178714752197270000e+001) (145, -5.10501098632812500000e+000) (146, 2.58937859535217290000e+000) (147, 7.90278816223144530000e+000) (148, 5.47507429122924800000e+000) (149, 1.09632101058959960000e+001) (150, 2.96163678169250490000e-001) (151, -4.96590042114257810000e+000) (152, -1.30870473384857180000e+000) (153, -4.47010612487792970000e+000) (154, -3.42548727989196780000e+000) (155, 7.50530242919921880000e+000) (156, 7.19140052795410160000e+000) (157, 7.85584688186645510000e-001) (158, 3.32594323158264160000e+000) (159, 6.41159677505493160000e+000) (160, 6.27271556854248050000e+000) (161, -8.47699928283691410000e+000) (162, 1.69655799865722660000e+001) (163, 6.40430641174316410000e+000) (164, 1.39606440067291260000e+000) (165, 2.27580475807189940000e+000) (166, 5.06529426574707030000e+001) (167, -1.29744648933410640000e+000) (168, 6.99835395812988280000e+000) (169, 4.57331705093383790000e+000) (170, -7.85500183105468750000e+001) (171, 5.45466613769531250000e+000) (172, 7.07465553283691410000e+000) (173, 2.91232800483703610000e+000) (174, -6.64529647827148440000e+001) (175, 7.64837932586669920000e+000) (176, -4.32035255432128910000e+001) (177, -1.77860963344573970000e+000) (178, -5.21418304443359380000e+001) (179, -1.26761114597320560000e+000) (180, -6.29063653945922850000e+000) (181, 6.82897377014160160000e+000) (182, 7.12858486175537110000e+000) (183, -1.84451967477798460000e-001) (184, -1.11513336181640620000e+002) (185, 2.22046041488647460000e+000) (186, -1.13739776611328120000e+000) (187, -7.16198959350585940000e+001) (188, -3.66349148750305180000e+000) (189, 1.17955529689788820000e+000) (190, -6.72959365844726560000e+001) (191, 1.08425807952880860000e+000) (192, -7.53865203857421880000e+001) (193, -1.28298711776733400000e+001) (194, -8.44674408435821530000e-001) (195, -3.49555873870849610000e+000) (196, -1.59224593639373780000e+000) (197, 6.98035526275634770000e+000) (198, 8.38898468017578130000e+000) (199, 6.69218015670776370000e+000) (200, -1.98795356750488280000e+001) (201, 6.39808177947998050000e+000) (202, -1.92158237099647520000e-001) (203, -1.52614536285400390000e+001) (204, 1.19825899600982670000e+000) (205, 3.11745667457580570000e+000) (206, -2.07896118164062500000e+002) (207, -8.05834197998046880000e+001) (208, 2.10445327758789060000e+002) (209, 8.64294469356536870000e-001) (210, 2.38093433380126950000e+001) (211, 9.40440750122070310000e+000) (212, 1.18121208190917970000e+002) (213, 5.48687267303466800000e+000) (214, 7.11846618652343750000e+001) (215, -1.80246794223785400000e+000) (216, -9.66240692138671880000e+001) (217, -7.70618867874145510000e+000) (218, -1.34948000311851500000e-001) (219, 4.99546165466308590000e+001) (220, 8.34768772125244140000e+000) (221, -8.95701599121093750000e+000) (222, 4.19562263488769530000e+001) (223, 1.01638793945312500000e+002) (224, -2.97582607269287110000e+001) (225, -4.13559150695800780000e+000) (226, -2.69017295837402340000e+001) (227, 8.65794849395751950000e+000) (228, -9.34841690063476560000e+001) (229, -4.92811279296875000000e+001) (230, 6.35121231079101560000e+001) (231, -3.48661184310913090000e+000) (232, -8.38512837886810300000e-001) (233, -7.60076045989990230000e-001) (234, -5.16994619369506840000e+000) (235, -1.11468267440795900000e+000) (236, -3.49550127983093260000e+000) (237, -4.70516471862792970000e+001) (238, -3.95131164550781250000e+002) (239, 4.33442764282226560000e+001) (240, 5.91837921142578120000e+001) (241, -1.68447448730468750000e+002) (242, -3.32769813537597660000e+001) (243, 7.75728654861450200000e+000) (244, 4.47140502929687500000e+001) (245, 3.34048233032226560000e+001) (246, -1.06208770751953120000e+002) (247, -1.77017913818359370000e+002) (248, 3.38477396965026860000e+000) (249, 2.42568090558052060000e-001) (250, -4.43837341308593750000e+002) (251, 2.06332263946533200000e+001) (252, 5.09504547119140620000e+001) (253, -4.38275177001953120000e+002) (254, 8.97984161376953130000e+001) (255, 1.56137374877929690000e+002) (256, -1.22556037902832030000e+001) (0, -7.44500517845153810000e-001) (1, -3.47982406616210940000e+000) (2, -1.74231684207916260000e+000) (3, 6.80549144744873050000e-001) (4, 6.35177803039550780000e+000) (5, -1.65060058593750000000e+002) (6, 2.67193084716796870000e+002) (7, -2.33209793090820310000e+002) (8, -4.67473678588867190000e+001) (9, 2.14201583862304690000e+002) (10, 1.82389770507812500000e+002) (11, 6.97808227539062500000e+002) (12, -2.20727043151855470000e+001) (13, -1.32410478591918950000e+000) (14, -4.65896081924438480000e+000) (15, -3.15713558197021480000e+001) (16, 2.20806550979614260000e+000) (17, 1.02242898941040040000e+000) (18, -1.11526235938072200000e-001) (19, -2.67788910865783690000e+000) (20, 3.86440730094909670000e+000) (21, -9.22013759613037110000e+000) (22, 1.82166919708251950000e+001) (23, -4.29116744995117190000e+001) (24, -4.09253692626953120000e+000) (25, 2.15015655517578120000e+002) (26, -3.13797119140625000000e+002) (27, -9.81203735351562500000e+002) (28, 2.08965740203857420000e+001) (29, -9.88860988616943360000e+000) (30, -6.23961162567138670000e+000) (31, 2.03429460525512700000e+000) (32, -1.60568416118621830000e+000) (33, -1.75520941615104680000e-001) (34, 1.08349430561065670000e+000) (35, -2.66430711746215820000e+000) (36, -1.73131847381591800000e+000) (37, 9.88002419471740720000e-001) (38, 1.45066702365875240000e+000) (39, 4.90612566471099850000e-001) (40, 5.44788694381713870000e+000) (41, -4.49090423583984370000e+002) (42, 3.14908081054687500000e+002) (43, -6.09844207763671880000e+001) (44, -6.73189163208007810000e+000) (45, -1.33948888778686520000e+001) (46, 7.77771830558776860000e-001) (47, -1.19490230083465580000e+000) (48, 5.11438407897949220000e+001) (49, -5.32858562469482420000e+000) (50, 4.72595900297164920000e-001) (51, -5.83111822605133060000e-001) (52, 5.45401573181152340000e-001) (53, -7.96508610248565670000e-001) (54, -7.59275436401367190000e+000) (55, -2.16647553443908690000e+000) (56, -1.31640415191650390000e+001) (57, 3.51917910575866700000e+000) (58, -5.19961786270141600000e+000) (59, -2.10669755935668950000e+000) (60, 1.39975285530090330000e+000) (61, 9.02498066425323490000e-001) (62, -7.08385646343231200000e-001) (63, -2.44967231750488280000e+001) (64, -1.50000000000000000000e+003) (65, -1.45341560244560240000e-001) (66, -1.68246841430664060000e+000) (67, 3.90634775161743160000e+000) (68, 6.76157474517822270000e+000) (69, 7.57096052169799800000e-001) (70, 5.27843892574310300000e-001) (71, -1.93969357013702390000e+000) (72, 4.89717292785644530000e+000) (73, -2.29425692558288570000e+000) (74, -1.64619708061218260000e+000) (75, 1.12672615051269530000e+001) (76, 3.12598299980163570000e+000) (77, -1.29126834869384770000e+000) (78, 1.80842113494873050000e+000) (79, 4.78441190719604490000e+000) (80, -1.50000000000000000000e+003) (81, -6.27598476409912110000e+000) (82, -8.86092126369476320000e-001) (83, 7.32495880126953130000e+000) (84, 2.64259648323059080000e+000) (85, 3.16770672798156740000e-001) (86, 6.74800992012023930000e-001) (87, 7.64573588967323300000e-002) (88, 3.73726511001586910000e+000) (89, -1.00601377487182620000e+001) (90, -4.10801982879638670000e+000) (91, 9.42763745784759520000e-001) (92, 6.50581026077270510000e+000) (93, 8.92020702362060550000e-001) (94, -1.95546746253967290000e+000) (95, -3.08777117729187010000e+000) (96, -1.50000000000000000000e+003) (97, 3.79596042633056640000e+000) (98, 9.02744293212890630000e+000) (99, 1.28871178627014160000e+000) (100, -2.99335050582885740000e+000) (101, 1.02978396415710450000e+000) (102, 2.62532740831375120000e-001) (103, 7.83409833908081050000e-001) (104, -2.88248491287231450000e+000) (105, -7.73204851150512700000e+000) (106, -6.86577033996582030000e+000) (107, 5.84828090667724610000e+000) (108, 6.56078624725341800000e+000) (109, -4.84347313642501830000e-001) (110, -1.53286159038543700000e+000) (111, -2.92110133171081540000e+000) (112, -1.49168078613281250000e+003) (113, 3.81273254394531250000e+002) (114, 4.06915679931640620000e+002) (115, -1.52249050140380860000e+000) (116, -2.16742038726806640000e+000) (117, -1.55534505844116210000e+000) (118, -2.64696526527404790000e+000) (119, 9.98852729797363280000e-001) (120, -7.06411302089691160000e-001) (121, -2.02221298217773440000e+000) (122, 3.06108713150024410000e+000) (123, 3.41763520240783690000e+000) (124, 8.13379168510437010000e-001) (125, -3.51242780685424800000e+000) (126, -1.58488973975181580000e-001) (127, -2.16963839530944820000e+000) (128, 3.90497283935546870000e+002) (129, -1.41597106933593750000e+003) (130, -3.25190368652343750000e+002) (131, 4.20964527130126950000e+000) (132, 1.12868964672088620000e+000) (133, 3.70591592788696290000e+000) (134, -3.95362234115600590000e+000) (135, -1.57942283153533940000e+000) (136, -1.43494868278503420000e+000) (137, 2.21183919906616210000e+000) (138, -4.36953544616699220000e-001) (139, 3.19383239746093750000e+000) (140, -1.08454360961914060000e+001) (141, 2.50366783142089840000e+000) (142, 1.60289249420166020000e+001) (143, -3.51630310058593750000e+002) (144, 2.06622695922851560000e+002) (145, 2.94463863372802730000e+001) (146, -7.60562896728515630000e+000) (147, 5.33364906311035160000e+001) (148, 2.22949934005737300000e+000) (149, -2.54221916198730470000e+000) (150, 2.61787366867065430000e+000) (151, -1.14541614055633540000e+000) (152, 3.56136822700500490000e+000) (153, 3.59830999374389650000e+000) (154, 3.09862315654754640000e-001) (155, 4.39221113920211790000e-001) (156, -4.73662872314453130000e+001) (157, -1.90923728942871090000e+001) (158, -2.99120569229125980000e+000) (159, 1.99131324887275700000e-001) (160, -2.57244758605957030000e+001) (161, -9.41551113128662110000e+000) (162, 1.31828889846801760000e+001) (163, -4.82923746109008790000e+000) (164, 5.87629699707031250000e+000) (165, -3.98694586753845210000e+000) (166, 1.65782966613769530000e+001) (167, -8.64600658416748050000e-001) (168, 3.01733088493347170000e+000) (169, 4.89927232265472410000e-001) (170, 1.96236824989318850000e+000) (171, 1.89954757690429690000e+000) (172, 2.47274041175842290000e+000) (173, 7.54266917705535890000e-001) (174, 1.59655883908271790000e-001) (175, 3.36205101013183590000e+001) (176, -8.33046493530273440000e+001) (177, -9.77120361328125000000e+001) (178, 6.46196556091308590000e+000) (179, 1.00648374557495120000e+001) (180, -6.44766759872436520000e+000) (181, 3.70962953567504880000e+000) (182, 9.20206546783447270000e-001) (183, -5.64484834671020510000e-001) (184, 2.42798909544944760000e-001) (185, -1.41162014007568360000e+000) (186, -8.30959342420101170000e-003) (187, -3.45539599657058720000e-001) (188, 9.24222946166992190000e+000) (189, -1.29762792587280270000e+001) (190, -3.47041726112365720000e-001) (191, 1.65241603851318360000e+001) (192, 2.83405990600585940000e+001) (193, -4.16527032852172850000e+000) (194, -8.44007670879364010000e-001) (195, -1.10794258117675780000e+001) (196, 2.15220403671264650000e+000) (197, 6.41273260116577150000e-001) (198, 2.13366314768791200000e-001) (199, -4.61283540725708010000e+000) (200, 3.47271013259887700000e+000) (201, 7.49118268489837650000e-001) (202, -6.94514942169189450000e+000) (203, 2.47503471374511720000e+000) (204, 1.06299667358398440000e+001) (205, 5.91709911823272710000e-001) (206, -1.79599797725677490000e+000) (207, -3.57299346923828120000e+001) (208, 2.95701885223388670000e+000) (209, 3.97536468505859370000e+000) (210, -7.87790155410766600000e+000) (211, 2.10652565956115720000e+000) (212, 3.68406534194946290000e+000) (213, 3.32768291234970090000e-001) (214, -2.16434383392333980000e+000) (215, -1.25645542144775390000e+000) (216, 6.81898784637451170000e+000) (217, 2.43075466156005860000e+001) (218, -4.18172874450683590000e+001) (219, -6.23732995986938480000e+000) (220, 6.17280483245849610000e-001) (221, 1.15018618106842040000e+000) (222, 3.88288676738739010000e-001) (223, 1.20089614391326900000e+000) (224, 9.47760939598083500000e-001) (225, 4.68547642230987550000e-001) (226, -7.79928937554359440000e-002) (227, 7.04697191715240480000e-001) (228, 3.12402272224426270000e+000) (229, -4.39799308776855470000e+000) (230, -2.91871881484985350000e+000) (231, 1.74695072174072270000e+001) (232, -4.89405107498168950000e+000) (233, 1.03853731155395510000e+001) (234, -2.02887916564941410000e+000) (235, -1.40501937866210940000e+002) (236, 2.11745738983154300000e+000) (237, 6.62212324142456050000e+000) (238, 1.06732521057128910000e+001) (239, 1.72314949035644530000e+001) (240, -4.41988801956176760000e+000) (241, 1.14899411797523500000e-001) (242, -2.44537377357482910000e+000) (243, -8.23367881774902340000e+000) (244, -1.15571451187133790000e+000) (245, 1.17329683303833010000e+001) (246, 2.17434048652648930000e+000) (247, -7.26495742797851560000e+000) (248, -1.78133888244628910000e+001) (249, 2.99299430847167970000e+001) (250, -1.50000000000000000000e+003) (251, 8.30926895141601560000e+001) (252, 1.02807655334472660000e+001) (253, 1.45396394729614260000e+001) (254, 2.60416736602783200000e+001) (255, -6.36723089218139650000e+000) (256, -9.04117965698242190000e+000) (0, -4.98351074218750000000e+002) (1, 2.61490753173828120000e+002) (2, -2.01429580688476560000e+002) (3, 3.76419944763183590000e+001) (4, 1.08541822433471680000e+001) (5, -3.50516855716705320000e-001) (6, 6.05035781860351560000e+000) (7, -6.31442832946777340000e+000) (8, -7.58870744705200200000e+000) (9, -1.33635902404785160000e+001) (10, -1.64668029785156250000e+002) (11, 8.15325012207031250000e+001) (12, -9.58369064331054690000e+001) (13, 1.51530578613281250000e+002) (14, -7.86225509643554690000e+001) (15, 2.12244110107421870000e+002) (16, 3.22328125000000000000e+002) (17, -2.95203765869140630000e+002) (18, -5.90968751907348630000e+000) (19, -9.31719839572906490000e-001) (20, -1.46837067604064940000e+000) (21, 2.32562327384948730000e+000) (22, -3.51535534858703610000e+000) (23, -4.28589200973510740000e+000) (24, -1.87177157402038570000e+000) (25, -2.54004931449890140000e+000) (26, -1.01950883865356450000e+001) (27, -2.69825668334960940000e+001) (28, -2.83752012252807620000e+000) (29, -7.99230651855468750000e+001) (30, -1.41634689331054690000e+002) (31, -1.18209129333496090000e+002) (32, -3.63624298095703120000e+002) (33, 1.91070520877838130000e+000) (34, -3.31417036056518550000e+000) (35, -5.47648954391479490000e+000) (36, -3.47228145599365230000e+000) (37, -3.10253787040710450000e+000) (38, -8.94771873950958250000e-001) (39, 1.67851281166076660000e+000) (40, 1.75395548343658450000e+000) (41, 1.94733309745788570000e+000) (42, -1.73259103298187260000e+000) (43, -5.92260646820068360000e+000) (44, 1.70791206359863280000e+001) (45, -1.01313796997070310000e+002) (46, -6.76085052490234380000e+001) (47, -1.11963912963867190000e+002) (48, 1.06446762084960940000e+001) (49, 2.12207870483398440000e+001) (50, -7.24711179733276370000e-001) (51, -4.14238977432250980000e+000) (52, 3.47661662101745610000e+000) (53, 9.07958507537841800000e+000) (54, -1.32676258683204650000e-001) (55, -2.40998864173889160000e+000) (56, 7.17691421508789060000e-001) (57, 3.29032897949218750000e+000) (58, 1.12634170055389400000e+000) (59, -4.12016481161117550000e-001) (60, -1.18351078033447270000e+001) (61, 2.82694292068481450000e+000) (62, 1.01512708663940430000e+001) (63, -1.83288421630859380000e+001) (64, -8.02273082733154300000e+000) (65, 1.35825932025909420000e+000) (66, -4.63484477996826170000e+000) (67, 3.43810653686523440000e+001) (68, -3.77167701721191410000e+000) (69, -5.71423196792602540000e+000) (70, -6.41720056533813480000e+000) (71, -2.29205012321472170000e+000) (72, 3.39198231697082520000e+000) (73, 3.43291449546813960000e+000) (74, 9.79725122451782230000e-001) (75, -2.43648600578308110000e+000) (76, -3.88990831375122070000e+000) (77, 1.84094750881195070000e+000) (78, -3.40334510803222660000e+000) (79, -6.04712820053100590000e+000) (80, 3.51854252815246580000e+000) (81, 2.94358634948730470000e+000) (82, -5.64971733093261720000e+000) (83, -1.68687782287597660000e+001) (84, 4.16844797134399410000e+000) (85, 3.48331284523010250000e+000) (86, -1.50636768341064450000e+000) (87, -1.31716012954711910000e+000) (88, 2.00288581848144530000e+000) (89, -2.11556982994079590000e+000) (90, -2.05885386466979980000e+000) (91, -1.25471568107604980000e+000) (92, -1.02090984582901000000e-001) (93, 7.63409852981567380000e+000) (94, -1.04770059585571290000e+001) (95, -2.17606037855148320000e-001) (96, 2.11250543594360350000e+000) (97, -3.47318267822265620000e+000) (98, -4.61659812927246090000e+000) (99, -1.46891534328460690000e-001) (100, 3.91401505470275880000e+000) (101, 2.24150657653808590000e+000) (102, -5.15446949005126950000e+000) (103, -1.76397120952606200000e+000) (104, 9.10153865814208980000e-001) (105, 2.47943639755249020000e+000) (106, 3.69918513298034670000e+000) (107, 4.13308668136596680000e+000) (108, -2.06124877929687500000e+000) (109, 7.63229990005493160000e+000) (110, 7.79868030548095700000e+000) (111, 5.58446347713470460000e-001) (112, -1.57793426513671870000e+000) (113, -3.79437923431396480000e+000) (114, -2.16921061277389530000e-001) (115, -2.59426307678222660000e+000) (116, -1.47194910049438480000e+000) (117, 3.34338617324829100000e+000) (118, 2.26017999649047850000e+000) (119, -5.72511177062988280000e+001) (120, -4.90430164337158200000e+000) (121, 4.02943491935729980000e-001) (122, 3.39956974983215330000e+000) (123, 1.76922881603240970000e+000) (124, 1.25199210643768310000e+000) (125, -1.55159890651702880000e+000) (126, -4.77273416519165040000e+000) (127, -3.94564867019653320000e+000) (128, -3.40180492401123050000e+000) (129, -3.65689206123352050000e+000) (130, 8.66051554679870610000e-001) (131, 6.53608262538909910000e-001) (132, 3.99233126640319820000e+000) (133, 2.78545165061950680000e+000) (134, 2.10456204414367680000e+000) (135, -5.25311565399169920000e+000) (136, 1.19580611586570740000e-001) (137, -2.81195902824401860000e+000) (138, -1.99790906906127930000e+000) (139, 2.13926506042480470000e+000) (140, 9.27880227565765380000e-001) (141, 3.36152166128158570000e-002) (142, 1.82779133319854740000e+000) (143, 1.35614573955535890000e+000) (144, -2.37435722351074220000e+000) (145, -3.62722659111022950000e+000) (146, 3.53049159049987790000e+000) (147, 4.20186668634414670000e-001) (148, -4.18536300659179690000e+001) (149, -1.27485883235931400000e+000) (150, 4.84824466705322270000e+000) (151, 6.12440204620361330000e+000) (152, 4.93455553054809570000e+000) (153, 3.69576841592788700000e-001) (154, -9.24101054668426510000e-001) (155, 1.72511994838714600000e+000) (156, 1.51740741729736330000e+000) (157, -5.94817996025085450000e-001) (158, 3.60764503479003910000e+000) (159, -1.05917143821716310000e+000) (160, -9.24753963947296140000e-001) (161, -4.04478788375854490000e+000) (162, 4.21180343627929690000e+000) (163, -6.82288074493408200000e+000) (164, -3.77277221679687500000e+001) (165, 1.83161973953247070000e+000) (166, -5.09361124038696290000e+000) (167, 1.45715200901031490000e+000) (168, 3.90485405921936040000e+000) (169, 3.85472035408020020000e+000) (170, -1.42980158329010010000e+000) (171, 1.62096297740936280000e+000) (172, 3.60329031944274900000e+000) (173, -1.25413775444030760000e+000) (174, -7.79798126220703130000e+000) (175, 3.59643602371215820000e+000) (176, -4.13307428359985350000e+000) (177, -3.56435418128967290000e+000) (178, -6.84529418945312500000e+001) (179, -3.72537881135940550000e-001) (180, -1.40409398078918460000e+000) (181, 5.22662401199340820000e+000) (182, 1.91281294822692870000e+000) (183, 1.84690821170806880000e+000) (184, 3.10768342018127440000e+000) (185, 4.69016170501708980000e+000) (186, 8.13915252685546870000e+000) (187, -1.00149989128112790000e+000) (188, -1.74560451507568360000e+000) (189, 2.19722658395767210000e-001) (190, -5.40533602237701420000e-001) (191, 1.81143474578857420000e+000) (192, 4.93739624023437500000e+001) (193, -8.11626720428466800000e+000) (194, -7.48300838470458980000e+000) (195, -2.36789512634277340000e+001) (196, 2.74109792709350590000e+000) (197, -1.82294021606445310000e+002) (198, -1.79542465209960940000e+002) (199, -1.38176822662353520000e+000) (200, 7.69173979759216310000e-001) (201, -1.97248589992523190000e+000) (202, 3.10860246419906620000e-001) (203, 3.21574521064758300000e+000) (204, 7.33784675598144530000e+000) (205, -2.81222075223922730000e-001) (206, -1.94631183147430420000e+000) (207, -1.25644898414611820000e+000) (208, -2.86277343750000000000e+002) (209, -2.04059433937072750000e+000) (210, -2.30770683288574220000e+000) (211, 7.19872436523437500000e+001) (212, 2.66295027732849120000e+000) (213, -1.16130903363227840000e-001) (214, -5.28220329284667970000e+001) (215, -4.12863006591796880000e+001) (216, -4.49203348159790040000e+000) (217, -4.50338220596313480000e+000) (218, 4.79334354400634770000e+000) (219, 7.46802282333374020000e+000) (220, 4.10329914093017580000e+000) (221, -5.48590373992919920000e+000) (222, -5.93750774860382080000e-001) (223, -1.22357986401766540000e-003) (224, -1.02524261474609370000e+001) (225, -4.95500946044921870000e+000) (226, 4.72326374053955080000e+000) (227, 1.11254577636718750000e+001) (228, 1.56379890441894530000e+000) (229, 4.51071166992187500000e+000) (230, 6.53897702693939210000e-001) (231, -3.69991612434387210000e+000) (232, -5.78301095962524410000e+000) (233, -4.90352869033813480000e+000) (234, 1.09155769348144530000e+001) (235, 6.43565082550048830000e+000) (236, -5.37595033645629880000e-001) (237, -6.01236820220947270000e+000) (238, -5.48147726058959960000e+000) (239, -6.87076449394226070000e-001) (240, 7.28534221649169920000e+000) (241, 1.01748573303222660000e+002) (242, 1.95829982757568360000e+001) (243, 3.61767482757568360000e+000) (244, 5.51803684234619140000e+000) (245, 1.30834083557128910000e+001) (246, -1.39848375320434570000e+001) (247, 1.62209186553955080000e+001) (248, -2.25196838378906250000e+000) (249, -5.52215993404388430000e-001) (250, -7.07674217224121090000e+000) (251, 9.91840591430664060000e+001) (252, -2.48808609008789060000e+002) (253, -1.04535621643066410000e+002) (254, 3.09116101264953610000e+000) (255, 1.75604581832885740000e+000) (256, -1.45360612869262700000e+001) (0, -8.80665649414062500000e+002) (1, 6.85771107673645020000e-001) (2, 7.47126817703247070000e+000) (3, 1.20128333568573000000e+000) (4, 1.27797067165374760000e+000) (5, 8.19892944335937500000e+002) (6, 6.21195007324218750000e+002) (7, 1.49650720214843750000e+003) (8, -5.46472351074218750000e+002) (9, 6.00008316040039060000e+001) (10, -1.10624641418457030000e+002) (11, -8.94811828613281250000e+002) (12, 1.43478295898437500000e+003) (13, 1.50000000000000000000e+003) (14, -1.50000000000000000000e+003) (15, 8.96974853515625000000e+002) (16, -1.49593957519531250000e+003) (17, -2.26192188262939450000e+000) (18, 1.65846645832061770000e+000) (19, 2.88530468940734860000e-001) (20, 1.07337307929992680000e+000) (21, -7.97650756835937500000e+001) (22, 1.49701660156250000000e+003) (23, -1.10052442550659180000e+000) (24, 3.58059173583984370000e+002) (25, 3.45815825462341310000e+000) (26, -1.49640234375000000000e+003) (27, -1.49506530761718750000e+003) (28, -1.48785314941406250000e+003) (29, 8.93706787109375000000e+002) (30, 5.82723510742187500000e+002) (31, 1.50000000000000000000e+003) (32, -1.32189660644531250000e+003) (33, -2.62959361076354980000e-001) (34, -3.85858345031738280000e+000) (35, -4.09287881851196290000e+000) (36, -2.03310036659240720000e+000) (37, 5.12676620483398440000e+000) (38, 2.06331176757812500000e+002) (39, -2.74692169189453120000e+002) (40, -1.39486804199218750000e+003) (41, 5.97200202941894530000e+001) (42, 1.50000000000000000000e+003) (43, 5.85311949253082280000e-002) (44, 7.19696187973022460000e+000) (45, -1.30521191406250000000e+003) (46, -1.99885940551757810000e+002) (47, 