FANN_FLO_2.1
num_layers=3
learning_rate=0.700000
connection_rate=1.000000
network_type=0
learning_momentum=0.000000
training_algorithm=1
train_error_function=0
train_stop_function=0
cascade_output_change_fraction=0.010000
quickprop_decay=-0.000100
quickprop_mu=1.750000
rprop_increase_factor=1.200000
rprop_decrease_factor=0.500000
rprop_delta_min=0.000000
rprop_delta_max=50.000000
rprop_delta_zero=0.100000
cascade_output_stagnation_epochs=12
cascade_candidate_change_fraction=0.010000
cascade_candidate_stagnation_epochs=12
cascade_max_out_epochs=150
cascade_min_out_epochs=50
cascade_max_cand_epochs=150
cascade_min_cand_epochs=50
cascade_num_candidate_groups=2
bit_fail_limit=3.49999994039535520000e-001
cascade_candidate_limit=1.00000000000000000000e+003
cascade_weight_multiplier=4.00000005960464480000e-001
cascade_activation_functions_count=10
cascade_activation_functions=3 5 7 8 10 11 14 15 16 17 
cascade_activation_steepnesses_count=4
cascade_activation_steepnesses=2.50000000000000000000e-001 5.00000000000000000000e-001 7.50000000000000000000e-001 1.00000000000000000000e+000 
layer_sizes=257 81 96 
scale_included=0
neurons (num_inputs, activation_function, activation_steepness)=(0, 0, 0.00000000000000000000e+000) (0, 0, 0.00000000000000000000e+000) (0, 0, 0.00000000000000000000e+000) (0, 0, 0.00000000000000000000e+000) (0, 0, 0.00000000000000000000e+000) (0, 0, 0.00000000000000000000e+000) (0, 0, 0.00000000000000000000e+000) (0, 0, 0.00000000000000000000e+000) (0, 0, 0.00000000000000000000e+000) (0, 0, 0.00000000000000000000e+000) (0, 0, 0.00000000000000000000e+000) (0, 0, 0.00000000000000000000e+000) (0, 0, 0.00000000000000000000e+000) (0, 0, 0.00000000000000000000e+000) (0, 0, 0.00000000000000000000e+000) (0, 0, 0.00000000000000000000e+000) (0, 0, 0.00000000000000000000e+000) (0, 0, 0.00000000000000000000e+000) (0, 0, 0.00000000000000000000e+000) (0, 0, 0.00000000000000000000e+000) (0, 0, 0.00000000000000000000e+000) (0, 0, 0.00000000000000000000e+000) (0, 0, 0.00000000000000000000e+000) (0, 0, 0.00000000000000000000e+000) (0, 0, 0.00000000000000000000e+000) (0, 0, 0.00000000000000000000e+000) (0, 0, 0.00000000000000000000e+000) (0, 0, 0.00000000000000000000e+000) (0, 0, 0.00000000000000000000e+000) (0, 0, 0.00000000000000000000e+000) (0, 0, 0.00000000000000000000e+000) (0, 0, 0.00000000000000000000e+000) (0, 0, 0.00000000000000000000e+000) (0, 0, 0.00000000000000000000e+000) (0, 0, 0.00000000000000000000e+000) (0, 0, 0.00000000000000000000e+000) (0, 0, 0.00000000000000000000e+000) (0, 0, 0.00000000000000000000e+000) (0, 0, 0.00000000000000000000e+000) (0, 0, 0.00000000000000000000e+000) (0, 0, 0.00000000000000000000e+000) (0, 0, 0.00000000000000000000e+000) (0, 0, 0.00000000000000000000e+000) (0, 0, 0.00000000000000000000e+000) (0, 0, 0.00000000000000000000e+000) (0, 0, 0.00000000000000000000e+000) (0, 0, 0.00000000000000000000e+000) (0, 0, 0.00000000000000000000e+000) (0, 0, 0.00000000000000000000e+000) (0, 0, 0.00000000000000000000e+000) (0, 0, 0.00000000000000000000e+000) (0, 0, 0.00000000000000000000e+000) (0, 0, 0.00000000000000000000e+000) (0, 0, 0.00000000000000000000e+000) (0, 0, 0.00000000000000000000e+000) (0, 0, 0.00000000000000000000e+000) (0, 0, 0.00000000000000000000e+000) (0, 0, 0.00000000000000000000e+000) (0, 0, 0.00000000000000000000e+000) (0, 0, 0.00000000000000000000e+000) (0, 0, 0.00000000000000000000e+000) (0, 0, 0.00000000000000000000e+000) (0, 0, 0.00000000000000000000e+000) (0, 0, 0.00000000000000000000e+000) (0, 0, 0.00000000000000000000e+000) (0, 0, 0.00000000000000000000e+000) (0, 0, 0.00000000000000000000e+000) (0, 0, 0.00000000000000000000e+000) (0, 0, 0.00000000000000000000e+000) (0, 0, 0.00000000000000000000e+000) (0, 0, 0.00000000000000000000e+000) (0, 0, 0.00000000000000000000e+000) (0, 0, 0.00000000000000000000e+000) (0, 0, 0.00000000000000000000e+000) (0, 0, 0.00000000000000000000e+000) (0, 0, 0.00000000000000000000e+000) (0, 0, 0.00000000000000000000e+000) (0, 0, 0.00000000000000000000e+000) (0, 0, 0.00000000000000000000e+000) (0, 0, 0.00000000000000000000e+000) (0, 0, 0.00000000000000000000e+000) (0, 0, 0.00000000000000000000e+000) (0, 0, 0.00000000000000000000e+000) (0, 0, 0.00000000000000000000e+000) (0, 0, 0.00000000000000000000e+000) (0, 0, 0.00000000000000000000e+000) (0, 0, 0.00000000000000000000e+000) (0, 0, 0.00000000000000000000e+000) (0, 0, 0.00000000000000000000e+000) (0, 0, 0.00000000000000000000e+000) (0, 0, 0.00000000000000000000e+000) (0, 0, 0.00000000000000000000e+000) (0, 0, 0.00000000000000000000e+000) (0, 0, 0.00000000000000000000e+000) (0, 0, 0.00000000000000000000e+000) (0, 0, 0.00000000000000000000e+000) (0, 0, 0.00000000000000000000e+000) (0, 0, 0.00000000000000000000e+000) (0, 0, 0.00000000000000000000e+000) (0, 0, 0.00000000000000000000e+000) (0, 0, 0.00000000000000000000e+000) (0, 0, 0.00000000000000000000e+000) (0, 0, 0.00000000000000000000e+000) (0, 0, 0.00000000000000000000e+000) (0, 0, 0.00000000000000000000e+000) (0, 0, 0.00000000000000000000e+000) (0, 0, 0.00000000000000000000e+000) (0, 0, 0.00000000000000000000e+000) (0, 0, 0.00000000000000000000e+000) (0, 0, 0.00000000000000000000e+000) (0, 0, 0.00000000000000000000e+000) (0, 0, 0.00000000000000000000e+000) (0, 0, 0.00000000000000000000e+000) (0, 0, 0.00000000000000000000e+000) (0, 0, 0.00000000000000000000e+000) (0, 0, 0.00000000000000000000e+000) (0, 0, 0.00000000000000000000e+000) (0, 0, 0.00000000000000000000e+000) (0, 0, 0.00000000000000000000e+000) (0, 0, 0.00000000000000000000e+000) (0, 0, 0.00000000000000000000e+000) (0, 0, 0.00000000000000000000e+000) (0, 0, 0.00000000000000000000e+000) (0, 0, 0.00000000000000000000e+000) (0, 0, 0.00000000000000000000e+000) (0, 0, 0.00000000000000000000e+000) (0, 0, 0.00000000000000000000e+000) (0, 0, 0.00000000000000000000e+000) (0, 0, 0.00000000000000000000e+000) (0, 0, 0.00000000000000000000e+000) (0, 0, 0.00000000000000000000e+000) (0, 0, 0.00000000000000000000e+000) (0, 0, 0.00000000000000000000e+000) (0, 0, 0.00000000000000000000e+000) (0, 0, 0.00000000000000000000e+000) (0, 0, 0.00000000000000000000e+000) (0, 0, 0.00000000000000000000e+000) (0, 0, 0.00000000000000000000e+000) (0, 0, 0.00000000000000000000e+000) (0, 0, 0.00000000000000000000e+000) (0, 0, 0.00000000000000000000e+000) (0, 0, 0.00000000000000000000e+000) (0, 0, 0.00000000000000000000e+000) (0, 0, 0.00000000000000000000e+000) (0, 0, 0.00000000000000000000e+000) (0, 0, 0.00000000000000000000e+000) (0, 0, 0.00000000000000000000e+000) (0, 0, 0.00000000000000000000e+000) (0, 0, 0.00000000000000000000e+000) (0, 0, 0.00000000000000000000e+000) (0, 0, 0.00000000000000000000e+000) (0, 0, 0.00000000000000000000e+000) (0, 0, 0.00000000000000000000e+000) (0, 0, 0.00000000000000000000e+000) (0, 0, 0.00000000000000000000e+000) (0, 0, 0.00000000000000000000e+000) (0, 0, 0.00000000000000000000e+000) (0, 0, 0.00000000000000000000e+000) (0, 0, 0.00000000000000000000e+000) (0, 0, 0.00000000000000000000e+000) (0, 0, 0.00000000000000000000e+000) (0, 0, 0.00000000000000000000e+000) (0, 0, 0.00000000000000000000e+000) (0, 0, 0.00000000000000000000e+000) (0, 0, 0.00000000000000000000e+000) (0, 0, 0.00000000000000000000e+000) (0, 0, 0.00000000000000000000e+000) (0, 0, 0.00000000000000000000e+000) (0, 0, 0.00000000000000000000e+000) (0, 0, 0.00000000000000000000e+000) (0, 0, 0.00000000000000000000e+000) (0, 0, 0.00000000000000000000e+000) (0, 0, 0.00000000000000000000e+000) (0, 0, 0.00000000000000000000e+000) (0, 0, 0.00000000000000000000e+000) (0, 0, 0.00000000000000000000e+000) (0, 0, 0.00000000000000000000e+000) (0, 0, 0.00000000000000000000e+000) (0, 0, 0.00000000000000000000e+000) (0, 0, 0.00000000000000000000e+000) (0, 0, 0.00000000000000000000e+000) (0, 0, 0.00000000000000000000e+000) (0, 0, 0.00000000000000000000e+000) (0, 0, 0.00000000000000000000e+000) (0, 0, 0.00000000000000000000e+000) (0, 0, 0.00000000000000000000e+000) (0, 0, 0.00000000000000000000e+000) (0, 0, 0.00000000000000000000e+000) (0, 0, 0.00000000000000000000e+000) (0, 0, 0.00000000000000000000e+000) (0, 0, 0.00000000000000000000e+000) (0, 0, 0.00000000000000000000e+000) (0, 0, 0.00000000000000000000e+000) (0, 0, 0.00000000000000000000e+000) (0, 0, 0.00000000000000000000e+000) (0, 0, 0.00000000000000000000e+000) (0, 0, 0.00000000000000000000e+000) (0, 0, 0.00000000000000000000e+000) (0, 0, 0.00000000000000000000e+000) (0, 0, 0.00000000000000000000e+000) (0, 0, 0.00000000000000000000e+000) (0, 0, 0.00000000000000000000e+000) (0, 0, 0.00000000000000000000e+000) (0, 0, 0.00000000000000000000e+000) (0, 0, 0.00000000000000000000e+000) (0, 0, 0.00000000000000000000e+000) (0, 0, 0.00000000000000000000e+000) (0, 0, 0.00000000000000000000e+000) (0, 0, 0.00000000000000000000e+000) (0, 0, 0.00000000000000000000e+000) (0, 0, 0.00000000000000000000e+000) (0, 0, 0.00000000000000000000e+000) (0, 0, 0.00000000000000000000e+000) (0, 0, 0.00000000000000000000e+000) (0, 0, 0.00000000000000000000e+000) (0, 0, 0.00000000000000000000e+000) (0, 0, 0.00000000000000000000e+000) (0, 0, 0.00000000000000000000e+000) (0, 0, 0.00000000000000000000e+000) (0, 0, 0.00000000000000000000e+000) (0, 0, 0.00000000000000000000e+000) (0, 0, 0.00000000000000000000e+000) (0, 0, 0.00000000000000000000e+000) (0, 0, 0.00000000000000000000e+000) (0, 0, 0.00000000000000000000e+000) (0, 0, 0.00000000000000000000e+000) (0, 0, 0.00000000000000000000e+000) (0, 0, 0.00000000000000000000e+000) (0, 0, 0.00000000000000000000e+000) (0, 0, 0.00000000000000000000e+000) (0, 0, 0.00000000000000000000e+000) (0, 0, 0.00000000000000000000e+000) (0, 0, 0.00000000000000000000e+000) (0, 0, 0.00000000000000000000e+000) (0, 0, 0.00000000000000000000e+000) (0, 0, 0.00000000000000000000e+000) (0, 0, 0.00000000000000000000e+000) (0, 0, 0.00000000000000000000e+000) (0, 0, 0.00000000000000000000e+000) (0, 0, 0.00000000000000000000e+000) (0, 0, 0.00000000000000000000e+000) (0, 0, 0.00000000000000000000e+000) (0, 0, 0.00000000000000000000e+000) (0, 0, 0.00000000000000000000e+000) (0, 0, 0.00000000000000000000e+000) (0, 0, 0.00000000000000000000e+000) (0, 0, 0.00000000000000000000e+000) (0, 0, 0.00000000000000000000e+000) (0, 0, 0.00000000000000000000e+000) (0, 0, 0.00000000000000000000e+000) (0, 0, 0.00000000000000000000e+000) (0, 0, 0.00000000000000000000e+000) (0, 0, 0.00000000000000000000e+000) (0, 0, 0.00000000000000000000e+000) (0, 0, 0.00000000000000000000e+000) (0, 0, 0.00000000000000000000e+000) (0, 0, 0.00000000000000000000e+000) (257, 10, 5.00000000000000000000e-001) (257, 10, 5.00000000000000000000e-001) (257, 10, 5.00000000000000000000e-001) (257, 10, 5.00000000000000000000e-001) (257, 10, 5.00000000000000000000e-001) (257, 10, 5.00000000000000000000e-001) (257, 10, 5.00000000000000000000e-001) (257, 10, 5.00000000000000000000e-001) (257, 10, 5.00000000000000000000e-001) (257, 10, 5.00000000000000000000e-001) (257, 10, 5.00000000000000000000e-001) (257, 10, 5.00000000000000000000e-001) (257, 10, 5.00000000000000000000e-001) (257, 10, 5.00000000000000000000e-001) (257, 10, 5.00000000000000000000e-001) (257, 10, 5.00000000000000000000e-001) (257, 10, 5.00000000000000000000e-001) (257, 10, 5.00000000000000000000e-001) (257, 10, 5.00000000000000000000e-001) (257, 10, 5.00000000000000000000e-001) (257, 10, 5.00000000000000000000e-001) (257, 10, 5.00000000000000000000e-001) (257, 10, 5.00000000000000000000e-001) (257, 10, 5.00000000000000000000e-001) (257, 10, 5.00000000000000000000e-001) (257, 10, 5.00000000000000000000e-001) (257, 10, 5.00000000000000000000e-001) (257, 10, 5.00000000000000000000e-001) (257, 10, 5.00000000000000000000e-001) (257, 10, 5.00000000000000000000e-001) (257, 10, 5.00000000000000000000e-001) (257, 10, 5.00000000000000000000e-001) (257, 10, 5.00000000000000000000e-001) (257, 10, 5.00000000000000000000e-001) (257, 10, 5.00000000000000000000e-001) (257, 10, 5.00000000000000000000e-001) (257, 10, 5.00000000000000000000e-001) (257, 10, 5.00000000000000000000e-001) (257, 10, 5.00000000000000000000e-001) (257, 10, 5.00000000000000000000e-001) (257, 10, 5.00000000000000000000e-001) (257, 10, 5.00000000000000000000e-001) (257, 10, 5.00000000000000000000e-001) (257, 10, 5.00000000000000000000e-001) (257, 10, 5.00000000000000000000e-001) (257, 10, 5.00000000000000000000e-001) (257, 10, 5.00000000000000000000e-001) (257, 10, 5.00000000000000000000e-001) (257, 10, 5.00000000000000000000e-001) (257, 10, 5.00000000000000000000e-001) (257, 10, 5.00000000000000000000e-001) (257, 10, 5.00000000000000000000e-001) (257, 10, 5.00000000000000000000e-001) (257, 10, 5.00000000000000000000e-001) (257, 10, 5.00000000000000000000e-001) (257, 10, 5.00000000000000000000e-001) (257, 10, 5.00000000000000000000e-001) (257, 10, 5.00000000000000000000e-001) (257, 10, 5.00000000000000000000e-001) (257, 10, 5.00000000000000000000e-001) (257, 10, 5.00000000000000000000e-001) (257, 10, 5.00000000000000000000e-001) (257, 10, 5.00000000000000000000e-001) (257, 10, 5.00000000000000000000e-001) (257, 10, 5.00000000000000000000e-001) (257, 10, 5.00000000000000000000e-001) (257, 10, 5.00000000000000000000e-001) (257, 10, 5.00000000000000000000e-001) (257, 10, 5.00000000000000000000e-001) (257, 10, 5.00000000000000000000e-001) (257, 10, 5.00000000000000000000e-001) (257, 10, 5.00000000000000000000e-001) (257, 10, 5.00000000000000000000e-001) (257, 10, 5.00000000000000000000e-001) (257, 10, 5.00000000000000000000e-001) (257, 10, 5.00000000000000000000e-001) (257, 10, 5.00000000000000000000e-001) (257, 10, 5.00000000000000000000e-001) (257, 10, 5.00000000000000000000e-001) (257, 10, 5.00000000000000000000e-001) (0, 10, 5.00000000000000000000e-001) (81, 5, 5.00000000000000000000e-001) (81, 5, 5.00000000000000000000e-001) (81, 5, 5.00000000000000000000e-001) (81, 5, 5.00000000000000000000e-001) (81, 5, 5.00000000000000000000e-001) (81, 5, 5.00000000000000000000e-001) (81, 5, 5.00000000000000000000e-001) (81, 5, 5.00000000000000000000e-001) (81, 5, 5.00000000000000000000e-001) (81, 5, 5.00000000000000000000e-001) (81, 5, 5.00000000000000000000e-001) (81, 5, 5.00000000000000000000e-001) (81, 5, 5.00000000000000000000e-001) (81, 5, 5.00000000000000000000e-001) (81, 5, 5.00000000000000000000e-001) (81, 5, 5.00000000000000000000e-001) (81, 5, 5.00000000000000000000e-001) (81, 5, 5.00000000000000000000e-001) (81, 5, 5.00000000000000000000e-001) (81, 5, 5.00000000000000000000e-001) (81, 5, 5.00000000000000000000e-001) (81, 5, 5.00000000000000000000e-001) (81, 5, 5.00000000000000000000e-001) (81, 5, 5.00000000000000000000e-001) (81, 5, 5.00000000000000000000e-001) (81, 5, 5.00000000000000000000e-001) (81, 5, 5.00000000000000000000e-001) (81, 5, 5.00000000000000000000e-001) (81, 5, 5.00000000000000000000e-001) (81, 5, 5.00000000000000000000e-001) (81, 5, 5.00000000000000000000e-001) (81, 5, 5.00000000000000000000e-001) (81, 5, 5.00000000000000000000e-001) (81, 5, 5.00000000000000000000e-001) (81, 5, 5.00000000000000000000e-001) (81, 5, 5.00000000000000000000e-001) (81, 5, 5.00000000000000000000e-001) (81, 5, 5.00000000000000000000e-001) (81, 5, 5.00000000000000000000e-001) (81, 5, 5.00000000000000000000e-001) (81, 5, 5.00000000000000000000e-001) (81, 5, 5.00000000000000000000e-001) (81, 5, 5.00000000000000000000e-001) (81, 5, 5.00000000000000000000e-001) (81, 5, 5.00000000000000000000e-001) (81, 5, 5.00000000000000000000e-001) (81, 5, 5.00000000000000000000e-001) (81, 5, 5.00000000000000000000e-001) (81, 5, 5.00000000000000000000e-001) (81, 5, 5.00000000000000000000e-001) (81, 5, 5.00000000000000000000e-001) (81, 5, 5.00000000000000000000e-001) (81, 5, 5.00000000000000000000e-001) (81, 5, 5.00000000000000000000e-001) (81, 5, 5.00000000000000000000e-001) (81, 5, 5.00000000000000000000e-001) (81, 5, 5.00000000000000000000e-001) (81, 5, 5.00000000000000000000e-001) (81, 5, 5.00000000000000000000e-001) (81, 5, 5.00000000000000000000e-001) (81, 5, 5.00000000000000000000e-001) (81, 5, 5.00000000000000000000e-001) (81, 5, 5.00000000000000000000e-001) (81, 5, 5.00000000000000000000e-001) (81, 5, 5.00000000000000000000e-001) (81, 5, 5.00000000000000000000e-001) (81, 5, 5.00000000000000000000e-001) (81, 5, 5.00000000000000000000e-001) (81, 5, 5.00000000000000000000e-001) (81, 5, 5.00000000000000000000e-001) (81, 5, 5.00000000000000000000e-001) (81, 5, 5.00000000000000000000e-001) (81, 5, 5.00000000000000000000e-001) (81, 5, 5.00000000000000000000e-001) (81, 5, 5.00000000000000000000e-001) (81, 5, 5.00000000000000000000e-001) (81, 5, 5.00000000000000000000e-001) (81, 5, 5.00000000000000000000e-001) (81, 5, 5.00000000000000000000e-001) (81, 5, 5.00000000000000000000e-001) (81, 5, 5.00000000000000000000e-001) (81, 5, 5.00000000000000000000e-001) (81, 5, 5.00000000000000000000e-001) (81, 5, 5.00000000000000000000e-001) (81, 5, 5.00000000000000000000e-001) (81, 5, 5.00000000000000000000e-001) (81, 5, 5.00000000000000000000e-001) (81, 5, 5.00000000000000000000e-001) (81, 5, 5.00000000000000000000e-001) (81, 5, 5.00000000000000000000e-001) (81, 5, 5.00000000000000000000e-001) (81, 5, 5.00000000000000000000e-001) (81, 5, 5.00000000000000000000e-001) (81, 5, 5.00000000000000000000e-001) (81, 5, 5.00000000000000000000e-001) (0, 5, 5.00000000000000000000e-001) 
connections (connected_to_neuron, weight)=(0, -1.16446241736412050000e-001) (1, -2.63562619686126710000e-001) (2, -1.53887793421745300000e-001) (3, 8.46488848328590390000e-002) (4, -2.76549458503723140000e-002) (5, 2.73422807455062870000e-001) (6, -1.80114164948463440000e-001) (7, -2.03845441341400150000e-001) (8, -1.77071273326873780000e-001) (9, -7.86693207919597630000e-003) (10, -1.21386721730232240000e-002) (11, -2.54827309399843220000e-002) (12, -1.68888792395591740000e-001) (13, -6.84744045138359070000e-002) (14, 2.03631408512592320000e-002) (15, 1.48217722773551940000e-001) (16, -1.63417711853981020000e-001) (17, 7.14617520570755000000e-002) (18, 7.39135267212986950000e-003) (19, 8.12293589115142820000e-002) (20, -1.84378162026405330000e-001) (21, -6.09359256923198700000e-002) (22, -1.56172579154372220000e-002) (23, -1.84552893042564390000e-001) (24, 2.27781504392623900000e-001) (25, 7.51446858048439030000e-002) (26, 2.16902002692222600000e-001) (27, -3.54341082274913790000e-002) (28, 8.18457975983619690000e-002) (29, 1.12624451518058780000e-001) (30, 5.27083463966846470000e-002) (31, 4.16725128889083860000e-002) (32, 5.68904504179954530000e-002) (33, -1.02924890816211700000e-001) (34, -1.63388505578041080000e-001) (35, 3.53328675031661990000e-001) (36, 1.68441042304039000000e-001) (37, -5.41818328201770780000e-002) (38, -1.56490609049797060000e-001) (39, 8.53611603379249570000e-002) (40, -1.92193374037742610000e-001) (41, -1.79703962057828900000e-002) (42, 9.25016328692436220000e-002) (43, -2.20213867723941800000e-002) (44, 2.23715100437402730000e-002) (45, -2.43294224143028260000e-001) (46, 2.39635095000267030000e-001) (47, 3.48646678030490880000e-002) (48, -2.31937229633331300000e-001) (49, 8.13434422016143800000e-002) (50, -3.80341820418834690000e-002) (51, 1.53067216277122500000e-001) (52, -8.46932381391525270000e-002) (53, -2.58297808468341830000e-002) (54, -2.62791849672794340000e-002) (55, 2.79391463845968250000e-002) (56, -3.18703621625900270000e-001) (57, 5.81166930496692660000e-002) (58, -3.72849367558956150000e-002) (59, -4.66025285422801970000e-002) (60, -2.16565951704978940000e-001) (61, -3.57859246432781220000e-002) (62, -6.13785423338413240000e-002) (63, 5.71189820766448970000e-002) (64, 5.35144656896591190000e-002) (65, -3.24982330203056340000e-002) (66, -2.70343929529190060000e-001) (67, 5.59878684580326080000e-002) (68, -8.38268920779228210000e-002) (69, 1.05818592011928560000e-001) (70, 2.73033440113067630000e-001) (71, -1.45896198228001590000e-002) (72, -8.48227292299270630000e-002) (73, 3.12956906855106350000e-002) (74, -1.66213184595108030000e-001) (75, -6.57787322998046880000e-002) (76, 4.01376886293292050000e-003) (77, 1.73128128051757810000e-001) (78, -6.55554309487342830000e-002) (79, -7.37319737672805790000e-002) (80, 9.92117226123809810000e-002) (81, 1.38608306646347050000e-001) (82, -6.96798264980316160000e-002) (83, -1.25799879431724550000e-001) (84, -1.02845795452594760000e-001) (85, 3.97852994501590730000e-002) (86, 8.33787471055984500000e-002) (87, -9.12887603044509890000e-002) (88, 1.21908485889434810000e-001) (89, 1.72133937478065490000e-001) (90, 1.96151062846183780000e-001) (91, 1.19777806103229520000e-001) (92, 1.73134729266166690000e-001) (93, 1.30018725991249080000e-001) (94, -5.96033520996570590000e-002) (95, 1.49060368537902830000e-001) (96, -3.46588678658008580000e-002) (97, -2.34631389379501340000e-001) (98, 2.03423544764518740000e-001) (99, 9.87874194979667660000e-002) (100, 7.69091993570327760000e-002) (101, -6.20046025142073630000e-003) (102, -7.48217701911926270000e-002) (103, -1.24682284891605380000e-001) (104, 3.69541123509407040000e-002) (105, -1.25261142849922180000e-001) (106, 3.79941388964653020000e-002) (107, -9.73922375123947860000e-004) (108, 1.10011294484138490000e-001) (109, -2.91275959461927410000e-002) (110, -3.45884100534021850000e-003) (111, -7.94527158141136170000e-002) (112, -6.06960467994213100000e-002) (113, 5.39648765698075290000e-003) (114, -2.19962783157825470000e-002) (115, 2.15042382478713990000e-002) (116, -1.92781269550323490000e-001) (117, 1.15167476236820220000e-001) (118, 2.63209521770477290000e-001) (119, 1.42467603087425230000e-001) (120, 7.59994462132453920000e-002) (121, -1.84338614344596860000e-001) (122, 2.24467396736145020000e-001) (123, 1.62854373455047610000e-001) (124, -2.19562247395515440000e-001) (125, -5.23233972489833830000e-002) (126, 8.89744237065315250000e-002) (127, -1.24035641551017760000e-001) (128, 3.90119589865207670000e-002) (129, -2.08977945148944850000e-002) (130, -4.08381402492523190000e-001) (131, 6.14778622984886170000e-002) (132, 8.03185030817985530000e-002) (133, 1.73674896359443660000e-001) (134, 7.96367228031158450000e-002) (135, -2.35967382788658140000e-001) (136, 2.19138920307159420000e-001) (137, 2.98917777836322780000e-002) (138, -1.17275258526206020000e-002) (139, -3.50933820009231570000e-002) (140, -6.76926746964454650000e-002) (141, -3.37286875583231450000e-003) (142, 7.09948092699050900000e-002) (143, -1.74958080053329470000e-001) (144, 4.81782704591751100000e-002) (145, 2.87275910377502440000e-002) (146, -3.50642912089824680000e-002) (147, 2.68569979816675190000e-002) (148, 2.09457367658615110000e-001) (149, -4.82898019254207610000e-003) (150, -1.36146485805511470000e-001) (151, -7.58636817336082460000e-002) (152, -9.98793728649616240000e-003) (153, 3.30239869654178620000e-002) (154, -1.85576334595680240000e-001) (155, -2.08396743983030320000e-002) (156, 5.67553564906120300000e-002) (157, 4.67773601412773130000e-002) (158, -1.54525842517614360000e-002) (159, -2.47627682983875270000e-002) (160, -1.61906838417053220000e-001) (161, 5.14711365103721620000e-002) (162, 3.55812441557645800000e-003) (163, -1.84551775455474850000e-001) (164, -1.73034101724624630000e-001) (165, 1.03091940283775330000e-001) (166, -2.20884948968887330000e-001) (167, 1.06522500514984130000e-001) (168, 1.72326236963272090000e-001) (169, -2.81563282012939450000e-001) (170, 1.61932304501533510000e-001) (171, 4.41854179371148350000e-004) (172, -5.59204295277595520000e-002) (173, -2.15020313858985900000e-001) (174, 8.05637240409851070000e-002) (175, 4.08378057181835170000e-002) (176, -1.90191298723220830000e-001) (177, 1.14927805960178380000e-001) (178, -1.96114316582679750000e-001) (179, -1.37220948934555050000e-001) (180, 2.56787538528442380000e-001) (181, 1.36660009622573850000e-001) (182, 1.33796587586402890000e-001) (183, -1.32619425654411320000e-001) (184, 7.38903239835053680000e-004) (185, -2.56326705217361450000e-001) (186, 8.36709290742874150000e-002) (187, -5.55185265839099880000e-002) (188, -1.87905505299568180000e-001) (189, 1.00644282996654510000e-001) (190, -1.24009512364864350000e-001) (191, -1.42051681876182560000e-001) (192, 3.53261023759841920000e-001) (193, 2.04613089561462400000e-001) (194, -9.29714739322662350000e-002) (195, -1.10495254397392270000e-001) (196, -1.29672959446907040000e-001) (197, 3.29565964639186860000e-002) (198, 1.97397187352180480000e-001) (199, -1.20145805180072780000e-001) (200, 3.94468866288661960000e-002) (201, -6.53995722532272340000e-002) (202, 7.48277232050895690000e-002) (203, -6.13932646811008450000e-002) (204, -4.17916141450405120000e-002) (205, 2.36798659898340700000e-003) (206, 2.26126670837402340000e-001) (207, -4.70941178500652310000e-002) (208, 8.99689421057701110000e-002) (209, -2.95647799968719480000e-001) (210, -8.59793424606323240000e-002) (211, -3.73673695139586930000e-003) (212, 1.82945113629102710000e-002) (213, -4.38849180936813350000e-002) (214, 1.16570871323347090000e-002) (215, -8.36278945207595830000e-002) (216, 4.35427799820899960000e-002) (217, -5.91638311743736270000e-002) (218, 1.96733191609382630000e-001) (219, 1.04880779981613160000e-001) (220, 1.15407817065715790000e-001) (221, -6.37742951512336730000e-002) (222, 5.04152514040470120000e-002) (223, -1.14904940128326420000e-001) (224, -2.46184337884187700000e-002) (225, -7.12995380163192750000e-002) (226, 1.36897832155227660000e-001) (227, 3.36030870676040650000e-002) (228, -9.49006006121635440000e-002) (229, 2.83221304416656490000e-001) (230, 5.85158504545688630000e-002) (231, -1.79575517773628230000e-001) (232, -2.74020910263061520000e-001) (233, 1.42207726836204530000e-001) (234, -1.10926426947116850000e-001) (235, -1.47955352440476420000e-002) (236, 1.07513658702373500000e-001) (237, -1.39751940965652470000e-001) (238, 2.68417924642562870000e-001) (239, 4.08713705837726590000e-002) (240, -1.45051315426826480000e-001) (241, 1.85809418559074400000e-001) (242, 3.80372256040573120000e-002) (243, 4.48179012164473530000e-003) (244, 8.40841829776763920000e-002) (245, 2.50055670738220210000e-001) (246, -1.51297986507415770000e-001) (247, -6.30153715610504150000e-002) (248, 1.25498116016387940000e-001) (249, 9.23750773072242740000e-002) (250, -5.18769547343254090000e-002) (251, -4.52071567997336390000e-003) (252, 2.35869899392127990000e-001) (253, -8.28157365322113040000e-002) (254, -5.81515915691852570000e-002) (255, 2.31012791395187380000e-001) (256, 1.38045996427536010000e-001) (0, 2.32139974832534790000e-001) (1, 4.68693040311336520000e-002) (2, -2.02316164970397950000e-001) (3, 1.75523504614830020000e-001) (4, -1.20105870068073270000e-001) (5, -4.36910204589366910000e-002) (6, 2.03726112842559810000e-001) (7, -8.24361145496368410000e-002) (8, 1.44298955798149110000e-001) (9, -5.61869926750659940000e-002) (10, -1.78471237421035770000e-001) (11, -6.83665201067924500000e-002) (12, -2.39254757761955260000e-001) (13, 1.74737855792045590000e-001) (14, -1.29961207509040830000e-001) (15, 2.25580424070358280000e-001) (16, -5.52044482901692390000e-004) (17, -1.88094541430473330000e-001) (18, 6.60897195339202880000e-002) (19, 1.65615260601043700000e-001) (20, 2.40311086177825930000e-001) (21, 1.12952314317226410000e-001) (22, 1.58676952123641970000e-001) (23, -1.11176915466785430000e-001) (24, -1.88512708991765980000e-002) (25, 2.37541213631629940000e-001) (26, 3.07227987796068190000e-002) (27, -6.68737515807151790000e-002) (28, 1.26630991697311400000e-001) (29, 1.16616308689117430000e-001) (30, 1.73244237899780270000e-001) (31, 5.23858927190303800000e-002) (32, 1.45701810717582700000e-001) (33, -1.05385400354862210000e-001) (34, 1.25672258436679840000e-002) (35, 2.43247732520103450000e-001) (36, 6.50004968047142030000e-002) (37, -9.28703695535659790000e-002) (38, -1.76589302718639370000e-002) (39, 9.01441201567649840000e-002) (40, -1.22354939579963680000e-001) (41, -7.17780515551567080000e-002) (42, -9.54501405358314510000e-002) (43, 1.96794882416725160000e-001) (44, -2.89526879787445070000e-001) (45, 7.57675468921661380000e-002) (46, 9.98987406492233280000e-002) (47, -9.54971164464950560000e-002) (48, -2.70236134529113770000e-001) (49, -6.63980767130851750000e-002) (50, -1.14663885906338690000e-002) (51, 2.06486493349075320000e-001) (52, 5.24420551955699920000e-002) (53, 6.03161985054612160000e-003) (54, 1.20553812012076380000e-002) (55, 1.24018006026744840000e-001) (56, -6.26137331128120420000e-002) (57, -9.58897843956947330000e-002) (58, -3.00573799759149550000e-002) (59, -2.80996225774288180000e-002) (60, 1.33010715246200560000e-001) (61, 1.61469317972660060000e-002) (62, -1.29468202590942380000e-001) (63, -7.23137781023979190000e-002) (64, 5.59880882501602170000e-002) (65, -1.95460021495819090000e-001) (66, -1.11919194459915160000e-001) (67, 2.11238816380500790000e-001) (68, 1.89067989587783810000e-001) (69, 3.24740111827850340000e-001) (70, 1.30069032311439510000e-001) (71, 6.93465536460280420000e-003) (72, 7.47473016381263730000e-002) (73, -1.10918834805488590000e-001) (74, 2.15230986475944520000e-001) (75, 7.21220150589942930000e-002) (76, -1.41717702150344850000e-001) (77, -5.96047379076480870000e-002) (78, -9.25166904926300050000e-003) (79, 2.32222918421030040000e-002) (80, -1.93461686372756960000e-001) (81, -8.62523168325424190000e-002) (82, -4.20816522091627120000e-003) (83, 1.23154349625110630000e-001) (84, 2.92769186198711400000e-002) (85, 1.50597497820854190000e-001) (86, 1.69159471988677980000e-001) (87, -2.14618906378746030000e-001) (88, -1.33191078901290890000e-001) (89, 1.32690921425819400000e-001) (90, -2.83309817314147950000e-001) (91, 7.27932080626487730000e-002) (92, 1.16814421489834790000e-002) (93, 7.39987567067146300000e-002) (94, 2.16902911663055420000e-001) (95, 1.50146752595901490000e-001) (96, -9.33775231242179870000e-002) (97, 8.03165230900049210000e-003) (98, 1.82253435254096980000e-001) (99, 9.05673950910568240000e-002) (100, 7.73564577102661130000e-002) (101, 1.05645045638084410000e-001) (102, 1.39938756823539730000e-001) (103, 7.69344046711921690000e-002) (104, 1.86145212501287460000e-002) (105, 3.18332388997077940000e-002) (106, -1.05944849550724030000e-001) (107, 1.11007466912269590000e-001) (108, -1.52943864464759830000e-001) (109, 3.33860181272029880000e-002) (110, 2.82116889953613280000e-001) (111, -8.89773294329643250000e-002) (112, 3.33968400955200200000e-001) (113, -3.14873546361923220000e-001) (114, 4.70366701483726500000e-002) (115, -1.38187766075134280000e-001) (116, 8.81256014108657840000e-002) (117, -1.64395034313201900000e-001) (118, -1.03356823325157170000e-001) (119, 1.10651869326829910000e-002) (120, 8.06199610233306880000e-002) (121, -1.37975677847862240000e-001) (122, -2.38188225775957110000e-002) (123, -1.01492106914520260000e-002) (124, -5.57350888848304750000e-002) (125, 1.06622062623500820000e-001) (126, 1.87944099307060240000e-001) (127, -1.96188002824783330000e-001) (128, 9.11711752414703370000e-002) (129, -3.60892087221145630000e-001) (130, 7.23357498645782470000e-002) (131, -6.36422038078308110000e-002) (132, 1.53026401996612550000e-001) (133, -1.27556920051574710000e-001) (134, 1.08753889799118040000e-001) (135, 6.91338405013084410000e-002) (136, -2.43199709802865980000e-002) (137, 1.69685468077659610000e-001) (138, -9.66317504644393920000e-002) (139, 1.14985592663288120000e-001) (140, -1.64725199341773990000e-001) (141, -1.23540140688419340000e-001) (142, 9.05603170394897460000e-003) (143, 1.48468673229217530000e-001) (144, 1.57543599605560300000e-001) (145, -3.02453190088272090000e-001) (146, 9.92047712206840520000e-002) (147, 8.21918100118637080000e-002) (148, -1.86568975448608400000e-001) (149, 6.28893002867698670000e-002) (150, -1.34920421987771990000e-002) (151, -1.82140663266181950000e-001) (152, 7.47454985976219180000e-002) (153, -5.56573309004306790000e-002) (154, -2.79041558504104610000e-001) (155, -3.69544960558414460000e-002) (156, -1.93096138536930080000e-002) (157, 6.54491782188415530000e-002) (158, -1.37081488966941830000e-001) (159, 1.62573873996734620000e-001) (160, 1.83284237980842590000e-001) (161, 1.00606091320514680000e-001) (162, 5.17530143260955810000e-002) (163, 5.26517257094383240000e-002) (164, -7.25319832563400270000e-002) (165, 1.41629233956336980000e-001) (166, -3.87681946158409120000e-002) (167, -1.08624003827571870000e-001) (168, -1.45014077425003050000e-001) (169, -1.58360198140144350000e-001) (170, 2.94833723455667500000e-002) (171, -3.25860222801566120000e-003) (172, -1.84655740857124330000e-001) (173, -1.97021484375000000000e-001) (174, 8.10549631714820860000e-002) (175, -1.06519404798746110000e-002) (176, 5.24316914379596710000e-002) (177, -2.21328318119049070000e-001) (178, -1.21178597211837770000e-001) (179, -5.24779222905635830000e-002) (180, 1.24558970332145690000e-001) (181, -1.27192467451095580000e-001) (182, 1.15443162620067600000e-001) (183, -1.40302553772926330000e-001) (184, -1.05242341756820680000e-001) (185, 3.94198149442672730000e-002) (186, -3.25911715626716610000e-002) (187, -6.91718161106109620000e-002) (188, 2.03017562627792360000e-001) (189, 1.35126948356628420000e-001) (190, 1.85900211334228520000e-001) (191, -1.99870899319648740000e-001) (192, -2.56943423300981520000e-002) (193, -1.68819740414619450000e-001) (194, -5.54608507081866260000e-003) (195, -5.57862175628542900000e-003) (196, 3.36706526577472690000e-002) (197, 5.45238740742206570000e-002) (198, 2.38294899463653560000e-002) (199, -2.51105730421841140000e-003) (200, -1.33833497762680050000e-001) (201, -9.97825041413307190000e-002) (202, -1.12822182476520540000e-001) (203, -6.70928657054901120000e-002) (204, -7.29084014892578130000e-002) (205, -2.84858167171478270000e-001) (206, 1.18162594735622410000e-001) (207, -6.77505061030387880000e-002) (208, -1.37409448623657230000e-001) (209, 2.25550588220357890000e-002) (210, -1.56757961958646770000e-002) (211, -7.45157599449157710000e-002) (212, -2.26016081869602200000e-002) (213, 3.40995304286479950000e-002) (214, -1.65818277746438980000e-002) (215, -1.27199903130531310000e-001) (216, -1.90765395760536190000e-001) (217, -3.00657227635383610000e-002) (218, 1.25371053814888000000e-001) (219, -1.01640403270721440000e-001) (220, -8.90248641371726990000e-002) (221, -1.74582097679376600000e-002) (222, -1.58608466386795040000e-001) (223, -3.97323817014694210000e-001) (224, -1.81064262986183170000e-001) (225, -6.35641142725944520000e-002) (226, 1.02334544062614440000e-002) (227, 1.34497815743088720000e-002) (228, -1.64606794714927670000e-001) (229, 2.36151576042175290000e-001) (230, 8.01076442003250120000e-002) (231, 6.76681175827980040000e-002) (232, -1.25354841351509090000e-001) (233, 1.63916163146495820000e-002) (234, -1.63701087236404420000e-001) (235, -8.22647474706172940000e-004) (236, 1.80950254201889040000e-001) (237, 1.09390448778867720000e-003) (238, -2.56276875734329220000e-001) (239, 7.80974254012107850000e-002) (240, 1.68817520141601560000e-001) (241, -7.17451497912406920000e-002) (242, -2.00129181146621700000e-001) (243, -2.14051216840744020000e-001) (244, 1.03611141443252560000e-001) (245, 8.91761574894189830000e-003) (246, -8.53972975164651870000e-003) (247, -3.96564751863479610000e-002) (248, -2.29722559452056880000e-002) (249, 3.20181883871555330000e-002) (250, -1.63748532533645630000e-001) (251, 4.60535809397697450000e-002) (252, -1.51888474822044370000e-001) (253, 2.03706368803977970000e-001) (254, 1.76465287804603580000e-001) (255, 1.66371837258338930000e-002) (256, -2.57555693387985230000e-001) (0, 4.38181534409523010000e-002) (1, -1.23497851192951200000e-001) (2, -4.02400605380535130000e-002) (3, 3.99914644658565520000e-002) (4, -6.47000819444656370000e-002) (5, -1.41465187072753910000e-001) (6, 8.91018062829971310000e-002) (7, 9.85539183020591740000e-002) (8, -1.45975142717361450000e-001) (9, -1.78010359406471250000e-001) (10, -7.21496120095252990000e-002) (11, -5.56249208748340610000e-002) (12, -8.63134488463401790000e-002) (13, -4.92401234805583950000e-003) (14, -4.11504730582237240000e-002) (15, -1.36203408241271970000e-001) (16, -1.42704593017697330000e-002) (17, 2.31311962008476260000e-001) (18, -8.96185934543609620000e-002) (19, 2.47451886534690860000e-002) (20, 6.97053372859954830000e-002) (21, 9.07480940222740170000e-002) (22, -1.87739059329032900000e-001) (23, -6.44748508930206300000e-002) (24, -1.87924042344093320000e-001) (25, -1.92225739359855650000e-001) (26, -7.52767622470855710000e-002) (27, 6.62205070257186890000e-002) (28, 1.62594541907310490000e-001) (29, -4.10481095314025880000e-002) (30, -2.59749572724103930000e-002) (31, 2.70465821027755740000e-001) (32, 1.40908747911453250000e-001) (33, -6.26342147588729860000e-002) (34, -1.75395831465721130000e-001) (35, 7.70571902394294740000e-002) (36, 6.29861503839492800000e-002) (37, -1.60328716039657590000e-001) (38, -2.26043969392776490000e-001) (39, 1.34869351983070370000e-001) (40, 8.79091098904609680000e-002) (41, 9.30081703700125220000e-004) (42, -1.20787709951400760000e-001) (43, 6.55501037836074830000e-002) (44, 1.00031644105911250000e-001) (45, -8.49096402525901790000e-002) (46, 3.43341603875160220000e-002) (47, 3.46135459840297700000e-002) (48, 3.44651699066162110000e-001) (49, -1.57815888524055480000e-001) (50, 1.50168873369693760000e-002) (51, 6.28390610218048100000e-002) (52, 1.00189059972763060000e-001) (53, -6.05464540421962740000e-002) (54, -1.71793270856142040000e-002) (55, 1.46070778369903560000e-001) (56, -1.31782755255699160000e-001) (57, 1.18876723572611810000e-002) (58, -2.54018336534500120000e-001) (59, -2.24025130271911620000e-001) (60, 9.29652526974678040000e-002) (61, -1.48735925555229190000e-001) (62, -5.85467293858528140000e-002) (63, 1.10173530876636510000e-001) (64, -1.54387161135673520000e-001) (65, -1.33858144283294680000e-001) (66, -1.38754755258560180000e-001) (67, -2.68725842237472530000e-001) (68, 8.17349255084991460000e-002) (69, -1.70720219612121580000e-001) (70, -1.94532975554466250000e-001) (71, 5.09225158020854000000e-003) (72, -1.79713875055313110000e-001) (73, 1.92141592502593990000e-001) (74, -5.12440614402294160000e-002) (75, 2.03648179769515990000e-001) (76, 2.22937837243080140000e-001) (77, 6.13198131322860720000e-002) (78, 1.58673167228698730000e-001) (79, 2.21157267689704900000e-001) (80, -8.07251557707786560000e-002) (81, -1.75422772765159610000e-001) (82, -8.83952677249908450000e-002) (83, 3.74407954514026640000e-002) (84, 3.05244158953428270000e-002) (85, -1.17090426385402680000e-001) (86, 9.54364910721778870000e-002) (87, 2.62860357761383060000e-001) (88, 1.36013329029083250000e-001) (89, -7.80852138996124270000e-002) (90, -3.57056200504302980000e-001) (91, -1.23306192457675930000e-001) (92, -4.96028363704681400000e-002) (93, 1.49194061756134030000e-001) (94, -5.78168891370296480000e-002) (95, 7.67310112714767460000e-002) (96, 1.36752307415008540000e-001) (97, -5.69816194474697110000e-002) (98, 1.71178400516510010000e-001) (99, -2.13476382195949550000e-002) (100, -2.77918390929698940000e-002) (101, -6.27114176750183110000e-002) (102, 1.19232617318630220000e-001) (103, -2.85506024956703190000e-002) (104, -2.55761474370956420000e-001) (105, -1.97383761405944820000e-002) (106, 3.18479500710964200000e-002) (107, 1.11202541738748550000e-002) (108, 1.91421791911125180000e-001) (109, -8.37133824825286870000e-002) (110, 3.90458583831787110000e-001) (111, -5.32383434474468230000e-002) (112, -2.36088022589683530000e-001) (113, -1.85222610831260680000e-001) (114, -1.33069694042205810000e-001) (115, 3.30567173659801480000e-002) (116, -4.16029430925846100000e-002) (117, -3.55448760092258450000e-002) (118, 7.71248191595077510000e-002) (119, 1.02421224117279050000e-001) (120, 2.21078246831893920000e-001) (121, 1.11494079232215880000e-001) (122, -5.67415952682495120000e-002) (123, 2.86534801125526430000e-002) (124, -1.12819992005825040000e-001) (125, 2.88081113249063490000e-002) (126, -1.16361863911151890000e-003) (127, 6.72269016504287720000e-002) (128, -1.78128436207771300000e-001) (129, 6.96441531181335450000e-002) (130, 1.29168093204498290000e-001) (131, -2.01578550040721890000e-002) (132, 1.98576644062995910000e-001) (133, 5.57518675923347470000e-002) (134, -5.05899190902709960000e-002) (135, -1.34100839495658870000e-001) (136, 1.49928644299507140000e-001) (137, -9.51110124588012700000e-002) (138, 4.32085208594799040000e-002) (139, 3.98381538689136510000e-002) (140, 5.55279925465583800000e-002) (141, 6.42394705209881070000e-004) (142, 9.69025567173957820000e-002) (143, 2.58189171552658080000e-001) (144, 1.39685973525047300000e-001) (145, -1.09511665999889370000e-001) (146, 2.73797605186700820000e-002) (147, -2.74728417396545410000e-001) (148, 5.23176044225692750000e-002) (149, -2.92640528641641140000e-003) (150, -1.11159287393093110000e-001) (151, -2.57029801607131960000e-001) (152, -7.44721889495849610000e-002) (153, 2.94402182102203370000e-001) (154, -4.00366745889186860000e-002) (155, 2.51536995172500610000e-001) (156, -2.20702126622200010000e-001) (157, -2.06252746284008030000e-002) (158, 2.22570989280939100000e-002) (159, 6.19148947298526760000e-002) (160, 1.54139116406440730000e-001) (161, -2.98616260290145870000e-001) (162, -1.26785784959793090000e-001) (163, -2.19130865298211570000e-003) (164, 4.59553673863410950000e-002) (165, -1.33356228470802310000e-001) (166, 1.38161271810531620000e-001) (167, -1.53481185436248780000e-001) (168, -1.60860061645507810000e-001) (169, 1.44385293126106260000e-001) (170, -8.11318680644035340000e-002) (171, 8.50260406732559200000e-002) (172, 1.70052028261125090000e-003) (173, 1.00671872496604920000e-001) (174, 1.74819938838481900000e-002) (175, 9.52322259545326230000e-002) (176, 4.09084744751453400000e-002) (177, -1.03788055479526520000e-001) (178, -3.15670073032379150000e-001) (179, 2.11780756711959840000e-001) (180, -1.26693353056907650000e-001) (181, -1.33226051926612850000e-001) (182, 1.61391329020261760000e-002) (183, -9.06711369752883910000e-002) (184, 3.19027937948703770000e-002) (185, -3.87085318565368650000e-001) (186, -2.15776935219764710000e-001) (187, 8.70943292975425720000e-002) (188, -2.26954743266105650000e-001) (189, -6.22395388782024380000e-002) (190, -3.21675464510917660000e-002) (191, 4.98524531722068790000e-002) (192, 9.17922332882881160000e-002) (193, -1.20744876563549040000e-001) (194, 2.72364854812622070000e-001) (195, 1.27056658267974850000e-001) (196, -1.11106492578983310000e-001) (197, 9.58590419031679630000e-004) (198, -1.94708611816167830000e-002) (199, 2.57071584463119510000e-001) (200, -8.11248552054166790000e-003) (201, 7.22160190343856810000e-002) (202, 4.81624342501163480000e-002) (203, 7.72577226161956790000e-002) (204, -1.33473008871078490000e-001) (205, -3.48101519048213960000e-002) (206, -1.10558412969112400000e-001) (207, 4.57433536648750310000e-002) (208, 1.31945788860321040000e-001) (209, -3.26315239071846010000e-002) (210, -9.89819914102554320000e-002) (211, 1.48247867822647090000e-001) (212, -5.87846487760543820000e-002) (213, -5.43565899133682250000e-002) (214, 2.11639001965522770000e-001) (215, -6.95224776864051820000e-002) (216, -2.08632033318281170000e-002) (217, 3.25633250176906590000e-002) (218, 3.64980071783065800000e-001) (219, -1.55377760529518130000e-001) (220, -7.87485092878341670000e-002) (221, -4.88981977105140690000e-002) (222, -3.87071967124938960000e-002) (223, 4.47425805032253270000e-002) (224, -4.84144017100334170000e-002) (225, -1.05629257857799530000e-001) (226, 2.16547623276710510000e-001) (227, -1.69102802872657780000e-001) (228, -1.00400611758232120000e-001) (229, -2.94686019420623780000e-001) (230, 7.97555893659591670000e-002) (231, -3.42586152255535130000e-002) (232, 1.06059260666370390000e-001) (233, 2.05537900328636170000e-002) (234, 7.28237032890319820000e-002) (235, 2.84406635910272600000e-002) (236, -1.44746616482734680000e-001) (237, -4.21056263148784640000e-002) (238, -1.64027974009513850000e-001) (239, -9.80654805898666380000e-002) (240, 1.33761435747146610000e-001) (241, 2.29892432689666750000e-002) (242, -3.87610755860805510000e-002) (243, -8.75796079635620120000e-002) (244, 9.32115688920021060000e-002) (245, -1.44405618309974670000e-001) (246, 1.05326632037758830000e-002) (247, -1.41345694661140440000e-001) (248, -1.01257957518100740000e-001) (249, -1.64384856820106510000e-001) (250, -9.96380001306533810000e-002) (251, 5.56390509009361270000e-002) (252, 1.57062523066997530000e-002) (253, 2.45761554688215260000e-002) (254, 1.05663120746612550000e-001) (255, 1.48424029350280760000e-001) (256, 1.16338752210140230000e-001) (0, 1.33913844823837280000e-001) (1, 9.96912196278572080000e-002) (2, 9.17394366115331650000e-003) (3, -1.04223474860191350000e-001) (4, 2.94376194477081300000e-001) (5, 7.50477090477943420000e-002) (6, -2.25056614726781850000e-002) (7, 1.24688282608985900000e-001) (8, -2.01092258095741270000e-001) (9, -6.61188550293445590000e-003) (10, -8.99407267570495610000e-002) (11, -1.24583654105663300000e-001) (12, -9.83962789177894590000e-002) (13, 6.83570727705955510000e-002) (14, 1.97669252753257750000e-001) (15, 1.65978059172630310000e-001) (16, 1.52831047773361210000e-001) (17, -4.49167639017105100000e-002) (18, 7.33321681618690490000e-002) (19, -1.50232255458831790000e-001) (20, 1.72270566225051880000e-001) (21, -7.65539258718490600000e-002) (22, -1.50808259844779970000e-001) (23, 1.44629433751106260000e-001) (24, -3.75547185540199280000e-002) (25, -4.69426736235618590000e-002) (26, 7.74599909782409670000e-002) (27, 6.97036534547805790000e-002) (28, -1.82909667491912840000e-001) (29, -2.19937950372695920000e-001) (30, 1.62393167614936830000e-001) (31, -8.79162736237049100000e-003) (32, -1.43926054239273070000e-001) (33, 1.80685251951217650000e-001) (34, 1.55731558799743650000e-001) (35, -1.12259730696678160000e-001) (36, -3.94261144101619720000e-002) (37, -9.90004986524581910000e-002) (38, -5.89472129940986630000e-002) (39, -1.68685242533683780000e-002) (40, -1.78649693727493290000e-001) (41, -1.32848218083381650000e-001) (42, 5.29594272375106810000e-002) (43, -2.34413594007492070000e-001) (44, -7.48410224914550780000e-002) (45, 2.26895421743392940000e-001) (46, 1.17761559784412380000e-001) (47, -1.89841128885746000000e-002) (48, -1.94208920001983640000e-001) (49, 5.10199815034866330000e-002) (50, -4.92120422422885890000e-002) (51, 4.90953698754310610000e-002) (52, 1.24243739992380140000e-002) (53, 1.19382277131080630000e-001) (54, -1.73550978302955630000e-001) (55, -3.54597046971321110000e-002) (56, -7.43528604507446290000e-002) (57, -2.11030878126621250000e-002) (58, 4.94092628359794620000e-002) (59, 8.30186977982521060000e-002) (60, -1.47270202636718750000e-001) (61, 1.96687549352645870000e-001) (62, -7.04453140497207640000e-002) (63, -7.99477193504571910000e-003) (64, 1.02348342537879940000e-001) (65, 2.91249603033065800000e-001) (66, 3.95980849862098690000e-003) (67, 4.43509444594383240000e-002) (68, -9.50217060744762420000e-003) (69, -7.58074000477790830000e-002) (70, -2.15931385755538940000e-001) (71, -1.94630101323127750000e-001) (72, 5.88210150599479680000e-002) (73, 3.36208902299404140000e-002) (74, 2.21803020685911180000e-002) (75, -3.06365340948104860000e-002) (76, 1.46902203559875490000e-001) (77, 4.61055666208267210000e-001) (78, -4.84079159796237950000e-002) (79, 1.81591302156448360000e-001) (80, -1.78403779864311220000e-002) (81, -1.37705177068710330000e-001) (82, 1.95673182606697080000e-001) (83, 9.23886969685554500000e-002) (84, 1.95565655827522280000e-001) (85, 3.07992160320281980000e-001) (86, 3.15384805202484130000e-001) (87, -1.30618229508399960000e-001) (88, -2.80616693198680880000e-002) (89, 1.32782340049743650000e-001) (90, 3.97863127291202550000e-002) (91, 1.60538747906684880000e-001) (92, -1.04350626468658450000e-001) (93, -2.51998245716094970000e-001) (94, 4.49239499866962430000e-002) (95, 6.84133693575859070000e-002) (96, 3.43293249607086180000e-002) (97, 2.10005827248096470000e-002) (98, -1.07522830367088320000e-001) (99, 5.72275780141353610000e-002) (100, 4.18959781527519230000e-002) (101, 6.80488869547843930000e-002) (102, -2.62813627719879150000e-001) (103, 1.39879703521728520000e-001) (104, 2.75279760360717770000e-001) (105, -1.18812851607799530000e-001) (106, -7.68638700246810910000e-002) (107, 3.57121080160140990000e-002) (108, 7.25574716925621030000e-002) (109, 1.44333615899086000000e-001) (110, 1.82821657508611680000e-002) (111, 1.76761746406555180000e-001) (112, -1.93403482437133790000e-001) (113, 2.46563583612442020000e-001) (114, -6.71216696500778200000e-002) (115, -5.63406534492969510000e-002) (116, -1.98685958981513980000e-001) (117, -4.24407832324504850000e-002) (118, 1.15088514983654020000e-001) (119, 7.04034715890884400000e-002) (120, -7.30783194303512570000e-002) (121, -8.00054818391799930000e-002) (122, 1.04163624346256260000e-002) (123, 1.05731882154941560000e-001) (124, -2.19464655965566640000e-002) (125, -1.68919429183006290000e-001) (126, 1.28829717636108400000e-001) (127, 1.20781958103179930000e-001) (128, 2.42799535393714900000e-001) (129, -1.01562306284904480000e-001) (130, -1.38780787587165830000e-001) (131, 6.63814097642898560000e-002) (132, -1.94208160042762760000e-001) (133, 1.38837099075317380000e-001) (134, -4.54023554921150210000e-002) (135, -1.28567725419998170000e-001) (136, 1.69885843992233280000e-001) (137, 1.85413196682929990000e-001) (138, -1.03440783917903900000e-001) (139, 1.33391410112380980000e-001) (140, 5.86815271526575090000e-003) (141, 2.97720413655042650000e-002) (142, -1.68993785977363590000e-001) (143, -4.18971292674541470000e-002) (144, 8.82475078105926510000e-002) (145, 1.47878915071487430000e-001) (146, -1.44538968801498410000e-001) (147, 4.93133664131164550000e-002) (148, -9.30794477462768550000e-002) (149, 8.07437449693679810000e-002) (150, -1.33423864841461180000e-001) (151, -1.01099833846092220000e-001) (152, 1.10866166651248930000e-001) (153, 5.99896796047687530000e-002) (154, -9.66555625200271610000e-002) (155, 2.23024282604455950000e-002) (156, 9.57405194640159610000e-002) (157, 3.04987076669931410000e-002) (158, -1.68209627270698550000e-001) (159, 2.79034197330474850000e-001) (160, -1.73483610153198240000e-001) (161, -6.23770151287317280000e-003) (162, 9.14947316050529480000e-002) (163, 1.70982763171195980000e-001) (164, 4.79217432439327240000e-002) (165, -3.82808968424797060000e-002) (166, 1.55331805348396300000e-001) (167, 1.22821457684040070000e-001) (168, -2.66162425279617310000e-001) (169, 3.86306121945381160000e-002) (170, -1.98500320315361020000e-001) (171, -1.43908604979515080000e-001) (172, -1.06281980872154240000e-001) (173, 2.81151793897151950000e-002) (174, -2.40139979869127270000e-002) (175, -1.64187297224998470000e-001) (176, 7.46717453002929690000e-002) (177, -9.22504067420959470000e-002) (178, -1.43749460577964780000e-001) (179, 1.94506451487541200000e-001) (180, -5.18008470535278320000e-002) (181, 1.04056717827916150000e-002) (182, -9.12921130657196040000e-002) (183, -3.33344489336013790000e-001) (184, -6.98364377021789550000e-002) (185, 3.71859595179557800000e-002) (186, 1.03707939386367800000e-001) (187, -1.97277613915503030000e-003) (188, -1.28475174307823180000e-001) (189, -1.36694274842739110000e-002) (190, -9.47525128722190860000e-002) (191, -7.33587052673101430000e-003) (192, 6.10902309417724610000e-002) (193, -8.85783880949020390000e-002) (194, 2.13257551193237300000e-001) (195, 1.30667150020599370000e-001) (196, -9.72448661923408510000e-003) (197, 2.78060715645551680000e-002) (198, 2.61398077011108400000e-001) (199, 2.30679035186767580000e-001) (200, 1.21441870927810670000e-001) (201, -1.53788536787033080000e-001) (202, 2.95239500701427460000e-002) (203, 1.78819611668586730000e-001) (204, -1.29902511835098270000e-001) (205, 6.66641369462013240000e-002) (206, -2.56212383508682250000e-001) (207, 2.79338862746953960000e-002) (208, 1.74506515264511110000e-001) (209, -1.40383997932076450000e-002) (210, 7.41181746125221250000e-002) (211, 5.22795915603637700000e-002) (212, -7.99911096692085270000e-004) (213, -3.52952219545841220000e-002) (214, -2.61800199747085570000e-001) (215, 1.34315207600593570000e-001) (216, -3.38322401046752930000e-001) (217, 5.01277334988117220000e-002) (218, -8.71093422174453740000e-002) (219, -1.42222255468368530000e-001) (220, -6.72809407114982600000e-002) (221, -7.00649851933121680000e-003) (222, 1.24889053404331210000e-001) (223, 1.78582608699798580000e-001) (224, -1.14484354853630070000e-002) (225, 1.19853265583515170000e-001) (226, 4.56254594027996060000e-002) (227, -7.85341337323188780000e-002) (228, -2.17135295271873470000e-001) (229, -4.59111444652080540000e-002) (230, 3.13240736722946170000e-002) (231, 2.53991365432739260000e-001) (232, 3.25184538960456850000e-002) (233, 3.19556742906570430000e-002) (234, 1.42654165625572200000e-001) (235, -6.53419867157936100000e-002) (236, -2.78147459030151370000e-001) (237, 4.35558445751667020000e-002) (238, 8.23919028043746950000e-002) (239, 1.52834039181470870000e-002) (240, -8.35873186588287350000e-002) (241, -1.28420430701226000000e-003) (242, 1.01609053090214730000e-002) (243, 6.82890042662620540000e-003) (244, -3.53683345019817350000e-002) (245, 1.93004146218299870000e-001) (246, 7.74627104401588440000e-002) (247, -1.24137312173843380000e-001) (248, 1.14182811230421070000e-002) (249, -5.71151636540889740000e-002) (250, -1.50754630565643310000e-001) (251, -9.66518968343734740000e-002) (252, 1.00616268813610080000e-001) (253, 2.54898723214864730000e-002) (254, -1.04104273021221160000e-001) (255, -3.11562400311231610000e-002) (256, -1.00111864507198330000e-001) (0, -2.05070346593856810000e-001) (1, 3.54225754737854000000e-001) (2, 3.12795788049697880000e-002) (3, -2.48389929533004760000e-001) (4, -1.39975607395172120000e-001) (5, 1.16407401859760280000e-001) (6, -2.80297398567199710000e-001) (7, 8.19688364863395690000e-002) (8, 2.82190740108489990000e-001) (9, -1.08981810510158540000e-001) (10, -2.20346190035343170000e-002) (11, 4.65394780039787290000e-002) (12, -1.07735596597194670000e-001) (13, 1.30560711026191710000e-001) (14, 4.78507950901985170000e-002) (15, 1.04232855141162870000e-001) (16, -7.73940533399581910000e-002) (17, -7.79261887073516850000e-002) (18, 5.27303591370582580000e-002) (19, 2.00177177786827090000e-001) (20, -1.78136035799980160000e-001) (21, 1.03078976273536680000e-001) (22, -5.18452972173690800000e-002) (23, -1.25695720314979550000e-001) (24, 1.04442358016967770000e-001) (25, 1.08805522322654720000e-001) (26, 2.46617957949638370000e-001) (27, 1.61533206701278690000e-001) (28, -1.80129513144493100000e-001) (29, -8.27267244458198550000e-002) (30, 1.02624900639057160000e-001) (31, 1.03213973343372340000e-001) (32, 6.95084631443023680000e-002) (33, -1.65896072983741760000e-001) (34, 3.40475589036941530000e-002) (35, -2.00999584048986430000e-002) (36, 1.56770825386047360000e-001) (37, 1.47222116589546200000e-001) (38, -4.26504807546734810000e-003) (39, 1.68196171522140500000e-001) (40, 1.94242056459188460000e-002) (41, -1.46978333592414860000e-001) (42, -1.92175626754760740000e-001) (43, 1.44802644848823550000e-001) (44, 1.31184637546539310000e-001) (45, -2.97242045402526860000e-001) (46, 4.35839556157588960000e-002) (47, -1.78214684128761290000e-001) (48, 3.78016345202922820000e-002) (49, -1.60794615745544430000e-001) (50, 1.22776307165622710000e-001) (51, -4.81736427173018460000e-003) (52, -7.97479599714279170000e-002) (53, -1.33791625499725340000e-001) (54, 1.74583598971366880000e-001) (55, -1.70563310384750370000e-001) (56, 8.36651623249053960000e-002) (57, 3.78460958600044250000e-002) (58, -8.11118558049201970000e-002) (59, -6.37058094143867490000e-002) (60, -6.15772716701030730000e-002) (61, -2.09254492074251170000e-002) (62, 3.33924544975161550000e-003) (63, -6.04127012193202970000e-002) (64, -8.83912481367588040000e-003) (65, 8.29187333583831790000e-002) (66, -1.18006788194179530000e-001) (67, -3.36288884282112120000e-002) (68, -4.95273098349571230000e-002) (69, 7.52905383706092830000e-002) (70, 2.22819462418556210000e-001) (71, -1.05828724801540370000e-001) (72, -3.69955715723335740000e-003) (73, 3.60640324652194980000e-002) (74, 3.53578384965658190000e-003) (75, 5.60042262077331540000e-003) (76, -9.35794413089752200000e-002) (77, 1.22326388955116270000e-001) (78, 6.10544532537460330000e-002) (79, -1.40391170978546140000e-001) (80, -3.46800565719604490000e-001) (81, 5.53152859210968020000e-002) (82, -6.24113939702510830000e-002) (83, -1.11919462680816650000e-001) (84, -1.55386999249458310000e-001) (85, 5.63304908573627470000e-002) (86, 7.36894086003303530000e-002) (87, 1.68516054749488830000e-001) (88, -4.37091961503028870000e-002) (89, 1.42671614885330200000e-002) (90, -2.51252055168151860000e-001) (91, 2.02282384037971500000e-001) (92, -7.39890113472938540000e-002) (93, -1.47021636366844180000e-001) (94, -1.18794105947017670000e-001) (95, 7.59228020906448360000e-002) (96, -5.95479719340801240000e-002) (97, 1.52793526649475100000e-001) (98, 1.42583483830094340000e-002) (99, 3.52900773286819460000e-002) (100, 2.23779544234275820000e-001) (101, -1.27158626914024350000e-001) (102, -1.50092333555221560000e-001) (103, 1.75282526761293410000e-002) (104, 3.77215258777141570000e-002) (105, 1.16471834480762480000e-001) (106, -2.70780831575393680000e-001) (107, -1.27248287200927730000e-001) (108, 2.99944967031478880000e-001) (109, -7.61811733245849610000e-002) (110, -8.30540880560874940000e-002) (111, -1.09714105725288390000e-001) (112, -1.46669819951057430000e-001) (113, -1.24599756672978400000e-002) (114, 1.48705363273620610000e-001) (115, -4.19810321182012560000e-003) (116, 1.60150080919265750000e-001) (117, 2.08491720259189610000e-002) (118, -1.49453788995742800000e-001) (119, 8.17044079303741460000e-002) (120, -8.28058347105979920000e-002) (121, -1.79172590374946590000e-001) (122, 7.57043808698654170000e-002) (123, 1.54355302453041080000e-001) (124, 4.27082143723964690000e-002) (125, -1.13238140940666200000e-001) (126, -9.89564582705497740000e-002) (127, -1.31421610713005070000e-001) (128, 1.35042384266853330000e-001) (129, -1.08331814408302310000e-001) (130, -1.50826483964920040000e-001) (131, -9.58808362483978270000e-002) (132, -9.31868478655815120000e-002) (133, -1.19528226554393770000e-001) (134, -6.09450861811637880000e-002) (135, 1.39106407761573790000e-001) (136, 1.20709024369716640000e-001) (137, 1.43627543002367020000e-002) (138, -1.00831173360347750000e-001) (139, 8.06007385253906250000e-002) (140, -8.42772796750068660000e-002) (141, -2.24372390657663350000e-002) (142, 6.22752346098423000000e-002) (143, 4.94410991668701170000e-002) (144, -9.68021526932716370000e-002) (145, -1.48445725440979000000e-001) (146, 7.95817896723747250000e-002) (147, 1.11748293042182920000e-001) (148, 2.21197530627250670000e-001) (149, -1.87090128660202030000e-001) (150, 3.24198544025421140000e-001) (151, 3.82675067521631720000e-003) (152, -3.87814223766326900000e-001) (153, 9.98465865850448610000e-002) (154, 1.00990511476993560000e-001) (155, -2.44085729122161870000e-001) (156, 9.43402294069528580000e-003) (157, -5.09537607431411740000e-002) (158, 7.95784890651702880000e-002) (159, -5.93001507222652440000e-002) (160, -1.12501092255115510000e-001) (161, 7.85512924194335940000e-002) (162, -1.04445509612560270000e-001) (163, -2.47631836682558060000e-002) (164, -8.74876454472541810000e-002) (165, -6.29904121160507200000e-002) (166, -1.10832795500755310000e-001) (167, -4.40554916858673100000e-002) (168, -1.62851750850677490000e-001) (169, 1.86060234904289250000e-001) (170, 1.58567771315574650000e-001) (171, 5.20135648548603060000e-003) (172, -7.21473043086007240000e-005) (173, -9.02190953493118290000e-002) (174, 4.88692522048950200000e-002) (175, 1.57317236065864560000e-001) (176, 1.32136330008506770000e-001) (177, 5.99088817834854130000e-002) (178, 4.28456515073776250000e-002) (179, -1.30512133240699770000e-001) (180, 1.01712860167026520000e-001) (181, 2.60880719870328900000e-002) (182, 7.02442601323127750000e-002) (183, -1.23147897422313690000e-001) (184, 2.70704418420791630000e-001) (185, 8.79301577806472780000e-002) (186, 3.76540385186672210000e-002) (187, -1.56383126974105830000e-001) (188, -8.29662531614303590000e-002) (189, -8.33146125078201290000e-002) (190, 2.64116767793893810000e-002) (191, 1.31704002618789670000e-001) (192, -2.40519177168607710000e-002) (193, -1.72675717622041700000e-002) (194, -1.21320486068725590000e-001) (195, 1.00916408002376560000e-001) (196, 2.74607855826616290000e-002) (197, -1.61855354905128480000e-001) (198, 1.74761697649955750000e-001) (199, 6.25459849834442140000e-003) (200, -1.50069519877433780000e-001) (201, 2.62885957956314090000e-001) (202, -5.34062199294567110000e-002) (203, 2.51156669110059740000e-002) (204, -5.93622028827667240000e-002) (205, -2.97230090945959090000e-002) (206, -1.09297052025794980000e-001) (207, -1.20272822678089140000e-001) (208, -9.52413678169250490000e-002) (209, 1.79683476686477660000e-001) (210, 1.37497693300247190000e-001) (211, -1.80263251066207890000e-001) (212, -2.60824233293533330000e-001) (213, -2.20644429326057430000e-001) (214, -9.34707075357437130000e-002) (215, 1.30266219377517700000e-001) (216, 2.35212296247482300000e-002) (217, 4.35674749314785000000e-002) (218, 7.53189176321029660000e-002) (219, -5.33184856176376340000e-002) (220, -1.55273871496319770000e-002) (221, -8.93027521669864650000e-003) (222, -3.01303774118423460000e-001) (223, -8.47882851958274840000e-002) (224, -2.17410430312156680000e-001) (225, 2.90986865758895870000e-001) (226, -8.70242789387702940000e-002) (227, 2.21402183175086980000e-001) (228, -1.98842108249664310000e-001) (229, -5.25796338915824890000e-002) (230, 3.31786066293716430000e-001) (231, 2.21462517976760860000e-001) (232, 8.02612751722335820000e-002) (233, -2.57676411420106890000e-002) (234, -4.07114662230014800000e-002) (235, 4.13702763617038730000e-002) (236, -9.58157554268836980000e-002) (237, 1.85735635459423070000e-002) (238, 1.90396547317504880000e-001) (239, -5.10322004556655880000e-002) (240, 1.44276335835456850000e-001) (241, 8.21736305952072140000e-002) (242, -1.98391556739807130000e-001) (243, -2.08135783672332760000e-001) (244, 2.83593893051147460000e-001) (245, -1.53418794274330140000e-001) (246, -2.69863358698785310000e-003) (247, -1.21620304882526400000e-001) (248, -5.97805567085742950000e-002) (249, -2.99037545919418330000e-002) (250, 9.48708727955818180000e-002) (251, -1.09342418611049650000e-001) (252, -4.77126538753509520000e-002) (253, 8.29134956002235410000e-002) (254, -1.83223009109497070000e-001) (255, -6.75008585676550870000e-003) (256, -1.10441625118255620000e-001) (0, 5.00488877296447750000e-002) (1, -8.99157226085662840000e-002) (2, -2.20440089702606200000e-001) (3, 1.26662263646721840000e-002) (4, -2.16267839074134830000e-001) (5, -3.87486219406127930000e-002) (6, 1.79106909781694410000e-002) (7, -1.05267874896526340000e-001) (8, 1.17109507322311400000e-001) (9, 1.83513075113296510000e-001) (10, -6.49136453866958620000e-002) (11, 3.72774899005889890000e-002) (12, 6.02213805541396140000e-003) (13, 4.24929820001125340000e-002) (14, 1.82565599679946900000e-002) (15, -6.04775846004486080000e-002) (16, -9.66217890381813050000e-002) (17, -6.18412904441356660000e-002) (18, -3.44216451048851010000e-002) (19, -1.27146869897842410000e-001) (20, 1.32692739367485050000e-001) (21, -2.30917751789093020000e-001) (22, 7.14909425005316730000e-003) (23, 4.06148843467235570000e-002) (24, 7.41517469286918640000e-002) (25, 1.56609654426574710000e-001) (26, 1.43336921930313110000e-001) (27, 2.60559003800153730000e-002) (28, -2.61359572410583500000e-001) (29, 2.13458314538002010000e-001) (30, 5.78313507139682770000e-002) (31, 1.62318810820579530000e-001) (32, -5.25711886584758760000e-002) (33, 1.26757681369781490000e-001) (34, 2.06622928380966190000e-001) (35, -1.42759591341018680000e-001) (36, 1.24369852244853970000e-001) (37, 6.06433600187301640000e-002) (38, 2.31206655502319340000e-001) (39, 1.02861359715461730000e-001) (40, -7.26409927010536190000e-002) (41, 2.59864211082458500000e-001) (42, -1.47366866469383240000e-001) (43, -1.18354164063930510000e-001) (44, 4.54233661293983460000e-002) (45, 1.16501584649086000000e-001) (46, -1.06974504888057710000e-001) (47, 9.92635823786258700000e-003) (48, 2.97681465744972230000e-002) (49, 4.98525192961096760000e-003) (50, 9.77730080485343930000e-002) (51, -3.79917137324810030000e-002) (52, -8.65575745701789860000e-002) (53, -1.10640577971935270000e-001) (54, -9.53449979424476620000e-002) (55, 1.37849107384681700000e-001) (56, -6.91360235214233400000e-002) (57, 3.98204624652862550000e-002) (58, 1.19056493043899540000e-001) (59, 8.03744569420814510000e-002) (60, 3.91743779182434080000e-002) (61, -6.20016194880008700000e-002) (62, -1.99251905083656310000e-001) (63, -3.26696708798408510000e-002) (64, -1.72094687819480900000e-001) (65, -1.44852340221405030000e-001) (66, -4.46149446070194240000e-002) (67, -1.16171322762966160000e-001) (68, -6.42431601881980900000e-002) (69, -1.31469354033470150000e-001) (70, 1.30636900663375850000e-001) (71, -1.51417717337608340000e-001) (72, -3.99622088298201560000e-003) (73, -1.83953955769538880000e-001) (74, -2.78487466275691990000e-002) (75, -1.61963954567909240000e-001) (76, -4.61964606074616310000e-004) (77, -5.75361214578151700000e-002) (78, 1.19983211159706120000e-001) (79, -3.27150933444499970000e-002) (80, -3.03342891857028010000e-003) (81, -6.69669955968856810000e-002) (82, -1.13013058900833130000e-001) (83, 1.66928067803382870000e-001) (84, -9.92637425661087040000e-002) (85, 1.12376347184181210000e-001) (86, 1.03777095675468440000e-001) (87, 1.49216219782829280000e-001) (88, 2.38011792302131650000e-001) (89, -3.57762165367603300000e-003) (90, -2.04758241772651670000e-001) (91, 1.79699748754501340000e-001) (92, -1.76611505448818210000e-002) (93, -2.67060041427612300000e-001) (94, 2.07735791802406310000e-001) (95, -8.24412703514099120000e-002) (96, -4.74133528769016270000e-002) (97, 2.29269992560148240000e-002) (98, 4.21955399215221410000e-002) (99, 5.51338568329811100000e-002) (100, -1.36622980237007140000e-001) (101, -3.04013546556234360000e-002) (102, -1.33503630757331850000e-001) (103, -1.49549497291445730000e-002) (104, -8.85075703263282780000e-002) (105, 1.66285514831542970000e-001) (106, 1.96550786495208740000e-001) (107, -8.81753163412213330000e-004) (108, -2.63302139937877660000e-002) (109, -4.33976873755455020000e-002) (110, 3.92138026654720310000e-002) (111, 1.47148922085762020000e-001) (112, -1.66100710630416870000e-001) (113, -2.16408744454383850000e-001) (114, 2.79932599514722820000e-002) (115, -3.27977761626243590000e-002) (116, -1.79969996213912960000e-001) (117, 5.04820533096790310000e-002) (118, 1.84731632471084590000e-001) (119, 2.48923495411872860000e-001) (120, -1.75396069884300230000e-001) (121, 3.14814969897270200000e-002) (122, 4.72026169300079350000e-002) (123, 2.95477602630853650000e-002) (124, -2.68741756677627560000e-001) (125, -3.21191221475601200000e-001) (126, -6.80125951766967770000e-002) (127, -1.97527468204498290000e-001) (128, -1.83047205209732060000e-001) (129, 9.22664329409599300000e-002) (130, -2.09207028150558470000e-001) (131, 1.08982831239700320000e-001) (132, -1.14004522562026980000e-001) (133, -7.86350965499877930000e-002) (134, 3.82672935724258420000e-001) (135, -1.47751003503799440000e-001) (136, -1.31901912391185760000e-002) (137, -3.58278639614582060000e-002) (138, 1.07377460226416590000e-002) (139, 3.45666483044624330000e-002) (140, 1.10113382339477540000e-001) (141, -4.79188859462738040000e-002) (142, -9.80078279972076420000e-002) (143, 1.47919982671737670000e-001) (144, 3.57404500246047970000e-002) (145, 1.45510986447334290000e-001) (146, -2.92103737592697140000e-001) (147, 3.10409758239984510000e-002) (148, -2.76255935430526730000e-001) (149, -9.76832807064056400000e-002) (150, -2.70940829068422320000e-003) (151, -5.47520257532596590000e-002) (152, 4.13704570382833480000e-003) (153, -1.19167320430278780000e-001) (154, -1.50294065475463870000e-001) (155, 1.88050940632820130000e-001) (156, -3.63680161535739900000e-003) (157, 6.64420053362846370000e-002) (158, -3.23306858539581300000e-001) (159, -6.86134845018386840000e-002) (160, -2.37839698791503910000e-001) (161, -1.13035827875137330000e-001) (162, -5.52801340818405150000e-002) (163, -2.69345253705978390000e-001) (164, -6.92815659567713740000e-003) (165, -7.69919380545616150000e-002) (166, -1.47164806723594670000e-001) (167, 3.71355824172496800000e-002) (168, 2.77344118803739550000e-002) (169, 1.71960458159446720000e-001) (170, 9.12173762917518620000e-002) (171, 2.99689859151840210000e-001) (172, -2.98504214733839040000e-002) (173, 1.20077654719352720000e-001) (174, 9.16351154446601870000e-002) (175, -5.35290106199681760000e-004) (176, -1.23311616480350490000e-001) (177, -1.49114690721035000000e-002) (178, -4.04642038047313690000e-002) (179, -1.65622621774673460000e-001) (180, 1.43201008439064030000e-001) (181, -4.35433089733123780000e-002) (182, 1.03615351021289830000e-001) (183, 1.11926481127738950000e-001) (184, 1.75443571060895920000e-002) (185, -6.65625482797622680000e-002) (186, 4.23531979322433470000e-002) (187, -1.54618034139275550000e-002) (188, -1.80255234241485600000e-001) (189, -2.00626589357852940000e-002) (190, -2.83552855253219600000e-001) (191, -2.30179391801357270000e-002) (192, 2.74577457457780840000e-002) (193, -1.03568747639656070000e-001) (194, -1.04292191565036770000e-001) (195, 4.37814854085445400000e-002) (196, -1.30444299429655080000e-002) (197, 3.80834564566612240000e-002) (198, -5.99259622395038600000e-002) (199, -7.48648419976234440000e-002) (200, 4.96896766126155850000e-002) (201, 6.20195195078849790000e-002) (202, 1.63743607699871060000e-002) (203, 6.07468113303184510000e-002) (204, 1.04207329452037810000e-001) (205, 7.31995031237602230000e-002) (206, -2.14636638760566710000e-001) (207, 1.84427425265312190000e-001) (208, -1.48166641592979430000e-001) (209, 6.26521408557891850000e-002) (210, 1.53588637709617610000e-001) (211, -2.92536206543445590000e-002) (212, -1.01260416209697720000e-001) (213, 4.33015935122966770000e-002) (214, -1.29153817892074580000e-001) (215, -2.41332724690437320000e-002) (216, 5.17696626484394070000e-002) (217, -1.17525197565555570000e-001) (218, 1.15028828382492070000e-001) (219, -9.55107882618904110000e-002) (220, 3.25811356306076050000e-002) (221, -3.89257706701755520000e-002) (222, -6.36254474520683290000e-002) (223, 1.50094196200370790000e-001) (224, 5.32702282071113590000e-002) (225, -5.83046078681945800000e-002) (226, -2.44100928306579590000e-001) (227, -1.62354007363319400000e-001) (228, 3.65203134715557100000e-002) (229, -1.29971057176589970000e-001) (230, 2.78981089591979980000e-001) (231, 8.32284241914749150000e-002) (232, 1.24707296490669250000e-001) (233, 5.32443961128592490000e-003) (234, 6.35150223970413210000e-002) (235, 8.16410183906555180000e-002) (236, 2.36999094486236570000e-001) (237, 2.23910227417945860000e-001) (238, 2.85238564014434810000e-001) (239, -1.18784070014953610000e-001) (240, 7.69824683666229250000e-002) (241, -1.76586508750915530000e-001) (242, 2.30379719287157060000e-002) (243, -3.83068509399890900000e-002) (244, 2.54993773996829990000e-002) (245, -8.64689797163009640000e-002) (246, 7.97123610973358150000e-002) (247, 6.14801868796348570000e-002) (248, 6.66946619749069210000e-002) (249, -3.91246080398559570000e-002) (250, 7.93725103139877320000e-002) (251, -3.23183797299861910000e-002) (252, -3.31780612468719480000e-002) (253, 4.38434779644012450000e-002) (254, -7.32689648866653440000e-002) (255, -2.23356977105140690000e-001) (256, 2.96516776084899900000e-001) (0, -1.25540956854820250000e-001) (1, 1.53698846697807310000e-001) (2, 2.49882740899920460000e-003) (3, -5.99692389369010930000e-002) (4, -3.53194400668144230000e-002) (5, -3.13262008130550380000e-002) (6, 1.35073333978652950000e-001) (7, 1.98527857661247250000e-001) (8, 1.38473492115736010000e-002) (9, -1.24288529157638550000e-001) (10, 1.19823105633258820000e-001) (11, -1.58686250448226930000e-001) (12, -1.95504382252693180000e-001) (13, 1.99682265520095830000e-001) (14, -5.39242140948772430000e-002) (15, 1.05546295642852780000e-001) (16, -2.14847028255462650000e-002) (17, -1.27814725041389470000e-001) (18, 1.29729971289634700000e-001) (19, -2.61490702629089360000e-001) (20, 2.56088942289352420000e-001) (21, 8.95832851529121400000e-002) (22, -1.90840676426887510000e-001) (23, -2.34985604882240300000e-001) (24, -1.60143464803695680000e-001) (25, 2.64180731028318410000e-002) (26, 4.20631207525730130000e-002) (27, -6.43347352743148800000e-002) (28, -1.76942333579063420000e-001) (29, 5.02089932560920720000e-002) (30, -3.00204064697027210000e-002) (31, 2.65286564826965330000e-001) (32, 2.92982254177331920000e-003) (33, -1.33751466870307920000e-001) (34, 1.75460949540138240000e-002) (35, -1.48524954915046690000e-001) (36, 2.06601962447166440000e-001) (37, 3.79521809518337250000e-002) (38, 3.79774346947669980000e-002) (39, 1.15290299057960510000e-001) (40, -1.15298293530941010000e-001) (41, 8.99797454476356510000e-002) (42, -2.59821228682994840000e-002) (43, 4.83668148517608640000e-002) (44, -2.31797263026237490000e-001) (45, 3.90945859253406520000e-002) (46, -1.60990312695503230000e-001) (47, -9.90710109472274780000e-002) (48, 9.28931459784507750000e-002) (49, 1.53686612844467160000e-001) (50, -9.56331267952919010000e-002) (51, -2.07992702722549440000e-001) (52, 1.10440887510776520000e-002) (53, -5.00053986907005310000e-002) (54, -3.42755839228630070000e-002) (55, 1.12851358950138090000e-001) (56, -1.09996959567070010000e-001) (57, -7.24792480468750000000e-002) (58, -2.95041725039482120000e-002) (59, -1.17916256189346310000e-001) (60, 1.84187069535255430000e-001) (61, -1.62796169519424440000e-001) (62, 1.36777013540267940000e-001) (63, 8.35158005356788640000e-002) (64, 5.96819706261157990000e-002) (65, -7.73750096559524540000e-002) (66, -7.10203871130943300000e-002) (67, -2.80174706131219860000e-002) (68, 1.23256795108318330000e-001) (69, -2.33360305428504940000e-002) (70, -9.78410989046096800000e-002) (71, -2.21524294465780260000e-003) (72, 9.80338901281356810000e-002) (73, 4.00695689022541050000e-002) (74, -1.11325562000274660000e-001) (75, 4.75891493260860440000e-002) (76, -8.94914343953132630000e-002) (77, -1.23986355960369110000e-001) (78, 1.62259340286254880000e-001) (79, -2.28386640548706050000e-001) (80, -2.01996251940727230000e-001) (81, 3.92357647418975830000e-001) (82, 1.70681197196245190000e-002) (83, 4.08836174756288530000e-003) (84, 1.59544110298156740000e-001) (85, 1.61638438701629640000e-001) (86, -6.19296096265316010000e-002) (87, 1.93225935101509090000e-001) (88, -1.65564700961112980000e-001) (89, 8.53440240025520320000e-002) (90, -5.73891364037990570000e-002) (91, -1.89199268817901610000e-001) (92, 1.78799360990524290000e-001) (93, -1.39447242021560670000e-001) (94, -4.04374301433563230000e-002) (95, -1.38309642672538760000e-001) (96, 5.36072775721549990000e-002) (97, -1.52218341827392580000e-001) (98, 1.20963864028453830000e-001) (99, 6.91694170236587520000e-002) (100, 8.21066349744796750000e-002) (101, 5.29872104525566100000e-002) (102, -7.48847946524620060000e-002) (103, 1.83143597096204760000e-002) (104, -1.59487962722778320000e-001) (105, -3.54362875223159790000e-002) (106, -2.30624265968799590000e-002) (107, -1.60309135913848880000e-001) (108, -9.55968350172042850000e-003) (109, 2.85178776830434800000e-002) (110, -1.03026837110519410000e-001) (111, 4.55326139926910400000e-001) (112, 5.53556568920612340000e-002) (113, 2.63556223362684250000e-002) (114, -1.49239867925643920000e-001) (115, 9.87995862960815430000e-002) (116, 2.99196958541870120000e-001) (117, 1.36540979146957400000e-001) (118, 3.02690602838993070000e-002) (119, -1.48716881871223450000e-001) (120, 1.42158903181552890000e-002) (121, -5.84318563342094420000e-002) (122, 3.13308089971542360000e-002) (123, -4.91982176899909970000e-002) (124, 1.57571285963058470000e-001) (125, -6.96777552366256710000e-002) (126, -1.35677173733711240000e-001) (127, -1.35233066976070400000e-002) (128, 1.14626668393611910000e-001) (129, -5.54318167269229890000e-002) (130, 1.13884121179580690000e-001) (131, -2.31620296835899350000e-001) (132, -3.24945375323295590000e-002) (133, -1.45090833306312560000e-001) (134, 5.19126839935779570000e-002) (135, -2.37625092267990110000e-001) (136, -7.47032463550567630000e-002) (137, -4.90462314337491990000e-003) (138, -2.06680476665496830000e-001) (139, -1.85314677655696870000e-002) (140, -2.80035287141799930000e-001) (141, 4.48457896709442140000e-002) (142, 1.76343157887458800000e-001) (143, -7.07139372825622560000e-002) (144, 5.48256486654281620000e-002) (145, -1.39829767867922780000e-002) (146, 4.46877740323543550000e-002) (147, 1.61597236990928650000e-001) (148, 6.97431787848472600000e-002) (149, -7.45140910148620610000e-002) (150, 2.23278105258941650000e-002) (151, -2.47959196567535400000e-002) (152, 2.73740470409393310000e-001) (153, 4.10978272557258610000e-002) (154, 1.75794184207916260000e-001) (155, 5.24520128965377810000e-002) (156, -6.35356977581977840000e-002) (157, 4.35925014317035680000e-002) (158, 5.87328861001878980000e-004) (159, 2.16875135898590090000e-001) (160, 2.33055919408798220000e-001) (161, 1.34163364768028260000e-001) (162, 4.95108552277088170000e-002) (163, 3.11095942743122580000e-003) (164, -9.05610993504524230000e-002) (165, 1.06322374194860460000e-002) (166, -3.41999113559722900000e-001) (167, -1.45412012934684750000e-002) (168, -1.40143200755119320000e-001) (169, -1.55932933092117310000e-001) (170, 3.36015820503234860000e-002) (171, -9.88116785883903500000e-002) (172, -8.91233794391155240000e-003) (173, -1.16721428930759430000e-001) (174, 7.39799141883850100000e-002) (175, 1.42042011022567750000e-001) (176, -1.25350803136825560000e-001) (177, 6.34471923112869260000e-002) (178, -1.41392499208450320000e-001) (179, 2.71430313587188720000e-001) (180, -1.89719889312982560000e-002) (181, 6.58936724066734310000e-002) (182, 2.56866931915283200000e-001) (183, -2.12235063314437870000e-001) (184, -1.94438770413398740000e-001) (185, 1.20386257767677310000e-001) (186, -2.18369722366333010000e-001) (187, 4.22351844608783720000e-002) (188, 7.06287845969200130000e-003) (189, -6.30215881392359730000e-003) (190, 3.38775552809238430000e-002) (191, -6.00885748863220210000e-002) (192, -1.11341718584299090000e-002) (193, -1.71803191304206850000e-001) (194, 1.56415492296218870000e-001) (195, 1.71273782849311830000e-001) (196, -4.91402000188827510000e-002) (197, -1.05424828827381130000e-001) (198, 1.37777045369148250000e-001) (199, 3.42651195824146270000e-002) (200, 3.98095138370990750000e-002) (201, 5.06892614066600800000e-002) (202, 1.16302482783794400000e-002) (203, -1.22268293052911760000e-002) (204, -1.12155815586447720000e-002) (205, 3.95955406129360200000e-002) (206, -7.50150531530380250000e-002) (207, 1.07498489320278170000e-001) (208, -1.57149787992239000000e-002) (209, 7.12627097964286800000e-002) (210, 5.42539134621620180000e-002) (211, -3.92956063151359560000e-002) (212, 2.58737206459045410000e-001) (213, 3.09252411127090450000e-001) (214, -9.29198712110519410000e-002) (215, -8.12003985047340390000e-002) (216, -2.07467138767242430000e-001) (217, 1.23480923473834990000e-001) (218, -7.34285935759544370000e-002) (219, 1.33485957980155940000e-001) (220, -1.12671554088592530000e-001) (221, -3.67364622652530670000e-002) (222, 2.26578079164028170000e-002) (223, 8.39002355933189390000e-002) (224, 1.63329750299453740000e-001) (225, 3.93100222572684290000e-003) (226, 5.14624007046222690000e-002) (227, -6.28779307007789610000e-002) (228, 6.90959021449089050000e-002) (229, 9.49241891503334050000e-002) (230, 1.68926745653152470000e-001) (231, 1.55558392405509950000e-001) (232, -6.02703616023063660000e-002) (233, 1.21443293988704680000e-001) (234, -1.57680809497833250000e-001) (235, -2.18563806265592580000e-002) (236, -1.89560815691947940000e-001) (237, 1.52556528337299820000e-003) (238, -1.24662406742572780000e-001) (239, -2.13999045081436630000e-003) (240, -8.12491625547409060000e-002) (241, 9.97494980692863460000e-002) (242, 4.89354459568858150000e-003) (243, -8.48025956656783820000e-004) (244, 3.19550856947898860000e-002) (245, -8.75112786889076230000e-002) (246, -1.18586026132106780000e-001) (247, -2.87691392004489900000e-002) (248, -1.51932775974273680000e-001) (249, 5.18250539898872380000e-002) (250, -2.65613794326782230000e-001) (251, 7.33522102236747740000e-002) (252, 2.12684407830238340000e-001) (253, -8.58985409140586850000e-002) (254, -1.26694813370704650000e-001) (255, -2.76888012886047360000e-001) (256, -1.27823743969202040000e-002) (0, 5.16229756176471710000e-002) (1, 8.51647555828094480000e-002) (2, -2.05427054315805440000e-002) (3, -3.60778830945491790000e-002) (4, 4.68166545033454900000e-002) (5, 5.59538863599300380000e-002) (6, -6.89295083284378050000e-002) (7, 1.03192679584026340000e-001) (8, -1.17959618568420410000e-001) (9, -6.33561462163925170000e-002) (10, -5.41732599958777430000e-003) (11, -1.63821384310722350000e-001) (12, 3.83355218218639490000e-005) (13, -9.37317777425050740000e-003) (14, 2.43400141596794130000e-001) (15, -1.01228691637516020000e-001) (16, -8.86405035853385930000e-002) (17, 1.80714637041091920000e-001) (18, -6.33719637989997860000e-002) (19, 8.41020122170448300000e-002) (20, 2.62573789805173870000e-002) (21, 2.63431053608655930000e-002) (22, -1.98885992169380190000e-001) (23, 3.07050663977861400000e-002) (24, 8.22911709547042850000e-002) (25, -9.37816128134727480000e-002) (26, -1.83461919426918030000e-001) (27, -1.44506469368934630000e-001) (28, -1.49116903543472290000e-001) (29, -2.17383895069360730000e-002) (30, -9.28518176078796390000e-002) (31, 7.97575786709785460000e-002) (32, -1.77616588771343230000e-002) (33, 1.78142841905355450000e-002) (34, 1.69964820146560670000e-001) (35, -1.32135808467864990000e-001) (36, -9.71450731158256530000e-002) (37, 2.04729512333869930000e-001) (38, 2.86266524344682690000e-002) (39, -1.97698593139648440000e-001) (40, -3.69421159848570820000e-003) (41, 1.09717445448040960000e-002) (42, 1.11729077994823460000e-001) (43, 1.42147943377494810000e-001) (44, -1.13374963402748110000e-001) (45, -1.54544442892074580000e-001) (46, -1.26277759671211240000e-001) (47, 6.37182891368865970000e-002) (48, -3.19881975650787350000e-001) (49, -2.76470091193914410000e-002) (50, 9.06446874141693120000e-002) (51, -1.48867964744567870000e-001) (52, -1.34423494338989260000e-001) (53, 1.74121543765068050000e-001) (54, 2.29335087351500990000e-003) (55, -2.74472199380397800000e-002) (56, 9.65180695056915280000e-002) (57, 1.75864651799201970000e-001) (58, -1.72681003808975220000e-001) (59, 6.58459514379501340000e-002) (60, -9.75010991096496580000e-002) (61, 2.78178020380437370000e-003) (62, -4.47520054876804350000e-002) (63, 1.33390694856643680000e-001) (64, 2.98668265342712400000e-001) (65, -2.46609583497047420000e-001) (66, 1.18709944188594820000e-001) (67, 3.78521047532558440000e-002) (68, -3.60242836177349090000e-002) (69, 4.84310789033770560000e-003) (70, 2.16762393712997440000e-001) (71, -1.29195526242256160000e-001) (72, 5.97788840532302860000e-002) (73, -2.86933094263076780000e-001) (74, -1.37711018323898320000e-002) (75, -1.34820714592933650000e-001) (76, 1.05700321495532990000e-001) (77, -4.54472750425338750000e-002) (78, -5.30131608247756960000e-002) (79, -7.61609151959419250000e-002) (80, -2.91048556566238400000e-001) (81, 5.02730719745159150000e-002) (82, -2.12748914957046510000e-001) (83, -1.69613391160964970000e-001) (84, 1.38998836278915410000e-001) (85, 1.11668780446052550000e-001) (86, -2.74834409356117250000e-003) (87, 8.63903462886810300000e-002) (88, -2.39723846316337590000e-001) (89, 6.00053407251834870000e-002) (90, 1.49049237370491030000e-001) (91, -3.02528254687786100000e-002) (92, -9.67187732458114620000e-002) (93, -2.30584554374217990000e-002) (94, -1.10226921737194060000e-001) (95, 1.63477286696434020000e-001) (96, 2.62717843055725100000e-001) (97, 9.46682021021842960000e-002) (98, 9.69459414482116700000e-002) (99, 1.38425305485725400000e-001) (100, -5.55522181093692780000e-003) (101, -2.52306073904037480000e-001) (102, -3.87274809181690220000e-002) (103, -6.81177377700805660000e-002) (104, 1.08317315578460690000e-001) (105, 7.18285813927650450000e-002) (106, 1.12579345703125000000e-001) (107, 1.23517826199531560000e-001) (108, 1.18188396096229550000e-001) (109, -1.04046262800693510000e-001) (110, 5.75084500014781950000e-002) (111, 8.58027264475822450000e-002) (112, -1.94706898182630540000e-002) (113, -1.01256072521209720000e-001) (114, 2.20016203820705410000e-002) (115, 2.15736508369445800000e-001) (116, 4.86597232520580290000e-002) (117, 5.10882660746574400000e-002) (118, 4.65407557785511020000e-002) (119, -1.75165265798568730000e-001) (120, -6.22465498745441440000e-002) (121, -1.08330935239791870000e-001) (122, 9.74144786596298220000e-002) (123, -2.39575989544391630000e-002) (124, -2.30566561222076420000e-001) (125, 1.31681457161903380000e-001) (126, 1.66977658867836000000e-001) (127, 5.60958907008171080000e-002) (128, -4.02642693370580670000e-003) (129, -1.72679424285888670000e-002) (130, -1.09198704361915590000e-001) (131, -1.28237619996070860000e-001) (132, -5.57673647999763490000e-002) (133, 9.35154110193252560000e-002) (134, -2.16551441699266430000e-002) (135, 2.68023498356342320000e-002) (136, -2.51038193702697750000e-001) (137, -5.72697818279266360000e-002) (138, -2.05385655164718630000e-001) (139, -1.10511019825935360000e-001) (140, 3.41148674488067630000e-001) (141, -1.55255004763603210000e-001) (142, 5.00498041510581970000e-002) (143, 8.34548622369766240000e-002) (144, 1.51591867208480830000e-001) (145, -1.52393236756324770000e-001) (146, 1.12128764390945430000e-001) (147, 2.53072887659072880000e-001) (148, -2.35813148319721220000e-002) (149, -8.55223014950752260000e-002) (150, 2.22856719046831130000e-002) (151, 1.43547356128692630000e-001) (152, 1.16000780835747720000e-002) (153, 1.71950832009315490000e-001) (154, -1.95671617984771730000e-002) (155, -1.28310602158308030000e-002) (156, 8.72932001948356630000e-002) (157, 1.33969083428382870000e-001) (158, 1.39466270804405210000e-001) (159, 1.30380153656005860000e-001) (160, -1.32635802030563350000e-001) (161, -1.76100730895996090000e-001) (162, -2.86643188446760180000e-002) (163, 1.58265426754951480000e-001) (164, 4.20653745532035830000e-002) (165, -4.30594272911548610000e-002) (166, 1.00586034357547760000e-001) (167, 2.98603288829326630000e-002) (168, -3.29329748637974260000e-003) (169, 4.57895621657371520000e-002) (170, -2.37547084689140320000e-001) (171, 3.28163295984268190000e-001) (172, 9.22928825020790100000e-002) (173, 1.74701809883117680000e-001) (174, -2.80433014268055560000e-004) (175, -5.11573068797588350000e-003) (176, 2.41164356470108030000e-001) (177, -1.04255676269531250000e-001) (178, 4.42811958491802220000e-002) (179, 9.13040712475776670000e-002) (180, 1.48758674040436740000e-002) (181, -7.46134743094444270000e-002) (182, -1.52294829487800600000e-001) (183, 6.56875893473625180000e-002) (184, 1.31725985556840900000e-002) (185, -1.57001346349716190000e-001) (186, 5.34193776547908780000e-002) (187, 2.09582239389419560000e-001) (188, -1.73396021127700810000e-001) (189, 1.65939316153526310000e-001) (190, -1.71966478228569030000e-001) (191, 4.95874136686325070000e-002) (192, 5.87359145283699040000e-002) (193, -1.55462101101875310000e-001) (194, -8.37570577859878540000e-002) (195, 2.40761131048202510000e-001) (196, -6.25586733222007750000e-002) (197, -2.07441255450248720000e-001) (198, -1.04992263019084930000e-001) (199, -1.25085547566413880000e-001) (200, -1.26566542312502860000e-002) (201, 4.02347631752491000000e-002) (202, -1.35495662689208980000e-001) (203, 7.29876831173896790000e-002) (204, -2.24415987730026250000e-001) (205, 1.85881089419126510000e-002) (206, 1.36226713657379150000e-001) (207, 2.23925366997718810000e-001) (208, -1.55832529067993160000e-001) (209, 3.31278555095195770000e-002) (210, 2.68219448626041410000e-002) (211, 2.92172968387603760000e-001) (212, -1.77964061498641970000e-001) (213, -3.89224514365196230000e-002) (214, 1.20085440576076510000e-001) (215, -2.04626485705375670000e-001) (216, 7.48714208602905270000e-002) (217, 1.02636858820915220000e-001) (218, 9.52074080705642700000e-002) (219, 1.89878687262535100000e-001) (220, -1.08947470784187320000e-001) (221, 1.36111661791801450000e-001) (222, 5.83068467676639560000e-002) (223, 1.29789084196090700000e-001) (224, -4.72220182418823240000e-002) (225, 1.27082929015159610000e-001) (226, 4.25625964999198910000e-002) (227, 1.68202534317970280000e-001) (228, -1.04917688295245170000e-002) (229, -1.02021768689155580000e-001) (230, -2.03661933541297910000e-001) (231, -2.71934717893600460000e-001) (232, -2.09992170333862300000e-001) (233, 4.31543327867984770000e-002) (234, 1.03816622868180270000e-003) (235, -2.70872339606285100000e-002) (236, 2.01664313673973080000e-001) (237, 3.42147916555404660000e-001) (238, -4.18337527662515640000e-003) (239, 5.71035966277122500000e-002) (240, -6.33566007018089290000e-002) (241, -3.30864638090133670000e-002) (242, 1.07681341469287870000e-001) (243, 2.82163143157958980000e-001) (244, 8.09657275676727290000e-002) (245, 4.83718812465667720000e-002) (246, 5.52352070808410640000e-002) (247, -4.14370372891426090000e-002) (248, 3.66339534521102910000e-002) (249, 7.59298875927925110000e-002) (250, 2.15381942689418790000e-002) (251, 1.30296079441905020000e-002) (252, -1.48327589035034180000e-001) (253, -1.81404307484626770000e-001) (254, -2.04594224691390990000e-001) (255, 1.89600437879562380000e-001) (256, 1.41096487641334530000e-002) (0, -1.94292459636926650000e-002) (1, -1.99017763137817380000e-001) (2, 6.65524378418922420000e-002) (3, 4.41692350432276730000e-003) (4, 1.54701799154281620000e-001) (5, 5.41761405766010280000e-002) (6, 1.39151901006698610000e-001) (7, -1.63188531994819640000e-001) (8, 1.11950095742940900000e-003) (9, 5.36193586885929110000e-002) (10, -1.51541763916611670000e-002) (11, -1.87549382448196410000e-001) (12, -1.45512118935585020000e-001) (13, 6.05557672679424290000e-003) (14, -6.90686851739883420000e-002) (15, -1.74873977899551390000e-001) (16, 1.08773529529571530000e-001) (17, 7.20870047807693480000e-002) (18, 2.16960851103067400000e-002) (19, -9.12045985460281370000e-002) (20, -7.23856538534164430000e-002) (21, 4.23207320272922520000e-002) (22, 2.58860811591148380000e-002) (23, 1.54851805418729780000e-002) (24, -1.43509712070226670000e-002) (25, 2.74496108293533330000e-001) (26, 6.61697238683700560000e-002) (27, -2.23461678251624110000e-003) (28, -2.12189797312021260000e-002) (29, 6.97396369650959970000e-003) (30, 1.67059719562530520000e-001) (31, -5.70250526070594790000e-002) (32, 6.11920915544033050000e-002) (33, -2.15595349669456480000e-001) (34, -2.17080369591712950000e-001) (35, 1.63888439536094670000e-001) (36, 1.17885150015354160000e-001) (37, 3.84306237101554870000e-002) (38, 7.83335790038108830000e-002) (39, 1.62568300962448120000e-001) (40, -7.82509520649909970000e-003) (41, -1.62974670529365540000e-001) (42, 7.24644437432289120000e-002) (43, 1.68463334441185000000e-001) (44, 1.48331388831138610000e-001) (45, 1.58435627818107600000e-001) (46, -7.02826902270317080000e-002) (47, -1.23826757073402400000e-001) (48, -1.33426219224929810000e-001) (49, 7.36052542924880980000e-002) (50, 1.16261713206768040000e-001) (51, 7.45847076177597050000e-002) (52, -5.66058829426765440000e-002) (53, -2.11351767182350160000e-001) (54, 2.94925887137651440000e-002) (55, -1.01918362081050870000e-001) (56, 5.76787441968917850000e-002) (57, -7.85192251205444340000e-002) (58, 3.14135044813156130000e-001) (59, -6.35481849312782290000e-002) (60, -1.36637941002845760000e-001) (61, -1.86541765928268430000e-001) (62, -8.31673145294189450000e-002) (63, 1.01090684533119200000e-001) (64, -1.15532837808132170000e-001) (65, 7.51693621277809140000e-002) (66, -4.61840443313121800000e-002) (67, -2.84273177385330200000e-001) (68, -1.49002015590667720000e-001) (69, 2.29156464338302610000e-001) (70, 8.42629298567771910000e-002) (71, 1.45664542913436890000e-001) (72, 4.28911857306957240000e-002) (73, -1.19970194995403290000e-001) (74, 8.14426243305206300000e-002) (75, 2.09075227379798890000e-001) (76, -3.38644534349441530000e-001) (77, -6.84048235416412350000e-003) (78, -1.79614871740341190000e-001) (79, 5.78880915418267250000e-003) (80, -2.32908073812723160000e-002) (81, -6.63492502644658090000e-003) (82, -3.36635470390319820000e-001) (83, -5.77619299292564390000e-002) (84, -2.28434681892395020000e-001) (85, -1.58791258931159970000e-001) (86, -8.14258381724357600000e-002) (87, 5.26274666190147400000e-002) (88, -1.13206602632999420000e-001) (89, -6.55650123953819270000e-002) (90, 1.84474542737007140000e-001) (91, 2.21097514033317570000e-001) (92, -3.36143039166927340000e-002) (93, 2.71051898598670960000e-002) (94, 1.70347228646278380000e-001) (95, 8.14865753054618840000e-002) (96, -9.38835442066192630000e-002) (97, 7.50038549304008480000e-002) (98, 9.24312770366668700000e-002) (99, -1.52684986591339110000e-001) (100, 2.91855990886688230000e-001) (101, -6.96575120091438290000e-002) (102, -8.92326608300209050000e-002) (103, -1.38394117355346680000e-001) (104, 2.26652935147285460000e-001) (105, -2.42327470332384110000e-002) (106, 2.03556835651397710000e-001) (107, 1.99606597423553470000e-001) (108, -3.32190580666065220000e-002) (109, -2.17692777514457700000e-001) (110, -8.48698094487190250000e-002) (111, 1.36094912886619570000e-001) (112, -4.83628846704959870000e-002) (113, -8.52100998163223270000e-002) (114, 1.08781769871711730000e-001) (115, 9.15885195136070250000e-002) (116, -3.28384414315223690000e-002) (117, 1.96396470069885250000e-001) (118, -1.89407840371131900000e-001) (119, -3.87536026537418370000e-002) (120, 2.79517143964767460000e-001) (121, -9.83019769191741940000e-002) (122, -6.69935271143913270000e-002) (123, -9.56748202443122860000e-002) (124, -1.55243948101997380000e-001) (125, 1.77517920732498170000e-001) (126, 6.39364719390869140000e-002) (127, -1.04587741196155550000e-001) (128, -1.16053372621536250000e-001) (129, -8.40387791395187380000e-002) (130, 5.35325072705745700000e-002) (131, -6.98105338960886000000e-003) (132, -1.11195251345634460000e-001) (133, -3.14524978399276730000e-001) (134, 1.88813924789428710000e-001) (135, -5.44501282274723050000e-002) (136, -9.27469953894615170000e-002) (137, -1.70383974909782410000e-001) (138, 1.54874593019485470000e-001) (139, 5.97292976453900340000e-003) (140, 6.74623697996139530000e-002) (141, 1.74603208899497990000e-001) (142, -2.84919321537017820000e-001) (143, -1.43674716353416440000e-001) (144, 7.13035613298416140000e-002) (145, -5.10574802756309510000e-002) (146, 1.64686068892478940000e-002) (147, -3.03040761500597000000e-002) (148, 2.20373459160327910000e-002) (149, 3.07144999504089360000e-001) (150, 1.39810917899012570000e-002) (151, 5.04603423178195950000e-002) (152, -5.07515445351600650000e-002) (153, 1.84508375823497770000e-002) (154, -2.98415385186672210000e-002) (155, 9.04706940054893490000e-002) (156, -2.95118242502212520000e-001) (157, -1.84241145849227910000e-001) (158, -6.07080720365047450000e-002) (159, 1.47384241223335270000e-001) (160, 3.04582696408033370000e-002) (161, 2.36291512846946720000e-001) (162, -1.44456207752227780000e-001) (163, -2.42710560560226440000e-001) (164, -5.17008863389492030000e-002) (165, 1.71499744057655330000e-001) (166, 1.54491662979125980000e-001) (167, 1.01727947592735290000e-001) (168, -7.83348456025123600000e-002) (169, 4.98662479221820830000e-002) (170, 6.45435899496078490000e-002) (171, -2.41458136588335040000e-002) (172, 1.74902141094207760000e-001) (173, 9.60607975721359250000e-002) (174, 1.76620244979858400000e-001) (175, 6.93554664030671120000e-003) (176, 4.84621152281761170000e-002) (177, -2.12055936455726620000e-001) (178, 5.00145368278026580000e-003) (179, -1.58811267465353010000e-002) (180, 6.93147629499435420000e-002) (181, -5.87352849543094640000e-002) (182, -6.96992501616477970000e-002) (183, -3.86829450726509090000e-002) (184, -2.00422450900077820000e-001) (185, -8.05320143699646000000e-002) (186, -5.93689568340778350000e-002) (187, -6.40132650732994080000e-002) (188, -1.44815474748611450000e-001) (189, -8.69771931320428850000e-003) (190, -1.46265342831611630000e-001) (191, -5.80279827117919920000e-002) (192, -4.88241016864776610000e-002) (193, 2.82065421342849730000e-001) (194, 1.25724514946341510000e-002) (195, -4.52890023589134220000e-002) (196, -1.03785172104835510000e-001) (197, -9.36802774667739870000e-002) (198, 1.21404863893985750000e-002) (199, -2.22824394702911380000e-001) (200, 1.21013097465038300000e-001) (201, 2.03378602862358090000e-001) (202, 4.30453903973102570000e-002) (203, 4.57069948315620420000e-002) (204, 1.71643540263175960000e-001) (205, -9.65470820665359500000e-002) (206, -7.13572576642036440000e-002) (207, 9.77305769920349120000e-002) (208, -7.28275030851364140000e-002) (209, 2.08525080233812330000e-002) (210, -7.41074746474623680000e-003) (211, -1.36274136602878570000e-002) (212, -8.49575176835060120000e-003) (213, -3.05977594107389450000e-002) (214, 1.69066593050956730000e-001) (215, 3.43115292489528660000e-002) (216, 5.84739074110984800000e-002) (217, 1.34843885898590090000e-001) (218, -2.31582313776016240000e-001) (219, 7.71129652857780460000e-002) (220, 8.61853957176208500000e-002) (221, 1.39560580253601070000e-001) (222, -5.14544099569320680000e-002) (223, 1.98655184358358380000e-002) (224, 9.54227820038795470000e-002) (225, 1.51728808879852290000e-001) (226, -1.13250032067298890000e-001) (227, 7.57427290081977840000e-002) (228, -1.06951728463172910000e-001) (229, -2.91951838880777360000e-002) (230, -2.16028407216072080000e-001) (231, 1.20411969721317290000e-001) (232, -2.70988732576370240000e-001) (233, -1.63409233093261720000e-001) (234, 3.63384820520877840000e-002) (235, -7.40016400814056400000e-002) (236, -5.42082563042640690000e-002) (237, -4.49609905481338500000e-002) (238, -1.80357731878757480000e-002) (239, -1.12291112542152400000e-001) (240, -1.99471376836299900000e-002) (241, -1.62302523851394650000e-001) (242, -4.65278998017311100000e-002) (243, 1.87821194529533390000e-001) (244, -2.54156351089477540000e-001) (245, 4.39730584621429440000e-001) (246, -2.28203669190406800000e-001) (247, -3.10269370675086980000e-002) (248, -8.10025259852409360000e-002) (249, 1.41135320067405700000e-001) (250, 5.25364018976688390000e-002) (251, 2.14981153607368470000e-001) (252, -1.01112117990851400000e-002) (253, 1.01629175245761870000e-001) (254, -5.02183847129344940000e-002) (255, -6.32834807038307190000e-002) (256, -1.09253622591495510000e-001) (0, -3.71391661465168000000e-002) (1, 7.58576020598411560000e-003) (2, 6.18022531270980830000e-002) (3, 1.66541665792465210000e-001) (4, -1.80172413587570190000e-001) (5, 1.57306388020515440000e-001) (6, 5.13004744425415990000e-003) (7, 3.45658473670482640000e-002) (8, 1.87675714492797850000e-001) (9, -1.30005747079849240000e-001) (10, 7.46701881289482120000e-002) (11, 5.72607629001140590000e-002) (12, -1.99113879352808000000e-002) (13, 1.96976631879806520000e-001) (14, -4.73346076905727390000e-002) (15, 2.22909316420555110000e-001) (16, -1.16236008703708650000e-001) (17, -2.05472446978092190000e-002) (18, -1.27606436610221860000e-001) (19, -1.52684922795742750000e-004) (20, 1.23980492353439330000e-001) (21, 2.11015045642852780000e-002) (22, 5.45958541333675380000e-002) (23, 6.00324869155883790000e-002) (24, 2.62126356363296510000e-001) (25, 7.42944777011871340000e-002) (26, 5.85551895201206210000e-002) (27, -1.56788527965545650000e-001) (28, -3.99953685700893400000e-002) (29, 3.65915670990943910000e-002) (30, -5.70701174437999730000e-002) (31, -3.54098558425903320000e-001) (32, -6.86955675482749940000e-002) (33, -1.26608952879905700000e-001) (34, -8.38577821850776670000e-002) (35, 2.33671963214874270000e-001) (36, -2.80712619423866270000e-002) (37, -1.34435236454010010000e-001) (38, -1.48102000355720520000e-001) (39, 7.23084658384323120000e-002) (40, 3.23145836591720580000e-002) (41, -2.55701243877410890000e-002) (42, -2.00847759842872620000e-001) (43, 9.65569987893104550000e-002) (44, 1.98094937950372700000e-002) (45, -2.88865659385919570000e-002) (46, 2.32243806123733520000e-001) (47, -8.23468063026666640000e-003) (48, 